tree
version=v3
num_class=1
num_tree_per_iteration=1
label_index=0
max_feature_idx=99
objective=binary sigmoid:1
feature_names=Column_0 Column_1 Column_2 Column_3 Column_4 Column_5 Column_6 Column_7 Column_8 Column_9 Column_10 Column_11 Column_12 Column_13 Column_14 Column_15 Column_16 Column_17 Column_18 Column_19 Column_20 Column_21 Column_22 Column_23 Column_24 Column_25 Column_26 Column_27 Column_28 Column_29 Column_30 Column_31 Column_32 Column_33 Column_34 Column_35 Column_36 Column_37 Column_38 Column_39 Column_40 Column_41 Column_42 Column_43 Column_44 Column_45 Column_46 Column_47 Column_48 Column_49 Column_50 Column_51 Column_52 Column_53 Column_54 Column_55 Column_56 Column_57 Column_58 Column_59 Column_60 Column_61 Column_62 Column_63 Column_64 Column_65 Column_66 Column_67 Column_68 Column_69 Column_70 Column_71 Column_72 Column_73 Column_74 Column_75 Column_76 Column_77 Column_78 Column_79 Column_80 Column_81 Column_82 Column_83 Column_84 Column_85 Column_86 Column_87 Column_88 Column_89 Column_90 Column_91 Column_92 Column_93 Column_94 Column_95 Column_96 Column_97 Column_98 Column_99
feature_infos=[-3.3108065180192772:3.2792667904457202] [-1.0052558905599462:20.409082210995184] [-0.31342207031664554:17.098980243927972] [-0.29502272264285145:16.646830298788782] [-4.0135199241346733:4.6916750855091855] [-3.3937878913968946:5.3738626380692986] [-0.54101215468002084:14.501776457074206] none none [-1.2237357685482912:7.1096979553527548] [-4.0723654606852007:9.4791592484880507] [-5.7647216712314293:7.6122594487365838] [-0.13438822087919894:42.049989103638168] none [-4.2639552243028245:3.1509042557842162] [-1.0740386048660757:9.9143835647657532] [-0.87522415551620625:4.4792738544085164] [-4.6998395605043672:8.3813522323411416] none [-1.964819752907943:3.8844404228314966] [-2.532791407882609:7.5647654352186597] [-2.7850172717903106:3.3025262914177769] [-4.0105834665587832:4.704381335612049] [-0.86487202746111058:6.1152227900401828] [-2.6943952282420907:4.4116024266416112] [-0.99106574150749815:8.7618095391477446] [-1.1622503177382759:10.068940795641391] [-5.0793802166903861:10.656119780053888] [-12.470216382627585:5.1623161303046432] none [-4.5795759307901092:5.8451645144033373] none [-2.3135573892933374:4.7090713690290436] [-5.4250421585458932:4.2534683874048786] none [-14.254428406603077:0.91814198003618053] [-2.5350470040394582:8.3715614082285885] [-5.9284630943929564:3.1338359264107183] [-1.901160034480718:5.7600378452336392] [-1.6014898676558793:7.996819870170027] [-1.4000623948785427:9.0585520883233599] [-0.7111765083908459:4.9279336824190203] [-2.9014872115952799:10.458924722634576] [-4.6922083359209461:6.9289593123712416] [-2.742157650087008:3.0686899190118] [-0.31710294045659793:21.57814430724871] [-0.89812407421589091:14.831400196526364] [-1.4426384044576166:26.473388527678527] none none none none [0:1] [0:1] none none none none none [0:1] none none none none none none none [0:1] [0:1] [0:1] none none [0:1] none none none none none none none none [0:1] none none [0:1] [0:1] none none [0:1] none none none [0:1] none [0:1] none [-1.960765676381059:1.6066038091351147] [0:1] [-2.3363794753044691:2.2926170433187325] [-1.8077294315343906:2.479242692874136]
tree_sizes=786 776 778 779 783 778 778 778 779 777 677 782 779 788 784 772 783 882 776 779 780 778 784 779 782 780 779 674 783 781 773 675 783 783 779 776 781 677 779 774 683 886 780 673 784 675 784 786 778 786 674 674 778 675 672 780 781 776 677 784 673 675 786 782 675 679 675 675 674 783 676 674 672 671 880 678 789 678 784 678 780 674 675 780 676 777 677 672 782 779 669 678 783 782 785 780 676 669 673 785 676 780 782 673 783 778 792 677 675 675 674 677 676 677 570 678 571 781 673 789 675 682 788 781 789 678 682 678 684 675 782 784 678 779 781 674 675 779 680 677 678 675 678 678 676 788 675 674 671 677 787 785 677 678 677 779 676 678 673 780 680 678 781 680 786 786 675 682 679 675 787 675 781 682 682 780 679 674 783 685 673 680 679 675 780 672 782 785 791 675 680 783 676 681 780 676 673 677 787 676 674 677 680 674 789 680 682 676 676 679 675 782 673 571 684 680 681 676 679 780 790 571 677 567 679 675 677 682 781 787 778 673 785 678 674 682 788 678 788 680 673 675 784 682 568 784 674 783 678 686 677 788 683 675 675 781 682 789 786 782 670 680 674 787 673 784 680 672 894 681 680 779 677 780 789 675 678 684 787 676 780 785 672 784

Tree=0
num_leaves=6
num_cat=0
split_feature=67 4 15 12 12
split_gain=1161.33 220.985 154.434 26.8201 26.1909
threshold=1.0000000180025095e-35 -0.24740825820941989 -0.066123222405701121 -0.11130527137268437 -0.11161151282550712
decision_type=2 2 2 2 2
left_child=1 -1 3 -2 -3
right_child=2 4 -4 -5 -6
leaf_value=0.11512131850606097 -0.11060570428305751 0.042470145009994464 -0.032077348838465872 -0.16149953242511403 -8.4855997209683549e-05
leaf_weight=466.3773739784956 170.43774884939194 311.56808321177959 183.35668595135212 263.82655368745327 269.92152258753777
leaf_count=1130 940 1065 814 1639 1080
internal_value=2.65931e-08 0.0638434 -0.109033 -0.141525 0.0227165
internal_weight=0 1047.87 617.621 434.264 581.49
internal_count=6668 3275 3393 2579 2145
is_linear=0
shrinkage=1


Tree=1
num_leaves=6
num_cat=0
split_feature=67 25 22 4 2
split_gain=927.653 188.486 102.599 58.5329 32.7531
threshold=1.0000000180025095e-35 1.0000000180025095e-35 0.56061741741365634 0.043411170923913764 -0.029977585780542482
decision_type=2 2 2 2 2
left_child=1 3 4 -1 -2
right_child=2 -3 -4 -5 -6
leaf_value=0.060214582406242272 -0.097709881565755066 0.12050636600486951 -0.034619115761746852 0.0028535759834821704 -0.15273560792905871
leaf_weight=325.2175405472517 230.12731696665287 326.22956751286983 184.84478244185448 392.71238815784454 204.12357313930988
leaf_count=997 1265 730 854 1543 1282
internal_value=0 0.057478 -0.0970154 0.0288377 -0.123575
internal_weight=0 1044.16 619.096 717.93 434.251
internal_count=6671 3270 3401 2540 2547
is_linear=0
shrinkage=0.1


Tree=2
num_leaves=6
num_cat=0
split_feature=67 4 15 15 23
split_gain=764.102 164.893 121.451 33.1675 21.3437
threshold=1.0000000180025095e-35 -0.41220591953107255 -0.11759124193559249 -0.30630731354519458 -0.024801895530867323
decision_type=2 2 2 2 2
left_child=1 -1 4 -3 -2
right_child=2 3 -4 -5 -6
leaf_value=0.10299283307794126 -0.14553368762402064 -7.5527857736927095e-05 -0.02390857796805114 0.045385378606374219 -0.099738891044213768
leaf_weight=395.1006476432085 176.75822181999683 346.69113880395889 197.18733130395412 298.80415892601013 239.90975166857243
leaf_count=927 1133 1362 892 980 1380
internal_value=0 0.0521121 -0.0885666 0.0209686 -0.119166
internal_weight=0 1040.6 613.855 645.495 416.668
internal_count=6674 3269 3405 2342 2513
is_linear=0
shrinkage=0.1


Tree=3
num_leaves=6
num_cat=0
split_feature=67 4 15 15 12
split_gain=632.888 136.978 107.884 31.2934 19.7788
threshold=1.0000000180025095e-35 -0.43159386143906814 -0.057545219150719203 -0.26341729727028501 -0.11130527137268437
decision_type=2 2 2 2 2
left_child=1 -1 4 -3 -2
right_child=2 3 -4 -5 -6
leaf_value=0.095097006176889751 -0.082486216219100322 0.00082542370983561394 -0.016882224890818958 0.045273510007635659 -0.12672809592260975
leaf_weight=381.83756697177887 167.81733898818493 374.71330788731575 181.28122915327549 274.38310693204403 253.98183134198189
leaf_count=902 951 1465 807 885 1635
internal_value=0 0.0475716 -0.0813982 0.0196143 -0.109126
internal_weight=0 1030.93 603.08 649.096 421.799
internal_count=6645 3252 3393 2350 2586
is_linear=0
shrinkage=0.1


Tree=4
num_leaves=6
num_cat=0
split_feature=67 25 15 44 23
split_gain=513.852 139.183 99.8933 43.0134 20.0368
threshold=1.0000000180025095e-35 1.0000000180025095e-35 -0.014655202875809592 0.14694418183544242 -0.18871801616902675
decision_type=2 2 2 2 2
left_child=1 3 4 -1 -2
right_child=2 -3 -4 -5 -6
leaf_value=0.046143132550356222 -0.12756035441987945 0.098041502802133015 -0.010270553628257047 -0.0032686821869382932 -0.082739848074208019
leaf_weight=314.86301861703396 162.16903506219387 317.74112094938755 175.89962577819824 399.96414649486542 259.09726639091969
leaf_count=993 1091 730 772 1560 1543
internal_value=0 0.0429736 -0.0735651 0.018496 -0.0999938
internal_weight=0 1032.57 597.166 714.827 421.266
internal_count=6689 3283 3406 2553 2634
is_linear=0
shrinkage=0.1


Tree=5
num_leaves=6
num_cat=0
split_feature=67 44 15 42 12
split_gain=423.07 116.343 85.6318 77.5076 18.62
threshold=1.0000000180025095e-35 -0.32641186824683965 -0.014655202875809592 0.097014330461988665 -0.1129130390000038
decision_type=2 2 2 2 2
left_child=1 -1 4 -3 -2
right_child=2 3 -4 -5 -6
leaf_value=0.087689673826421455 -0.065844256870765672 -0.020662787773571379 -0.0092366753841047113 0.046569962488921375 -0.10950424376694706
leaf_weight=330.00610272586346 159.31284958124161 318.83037984371185 175.74876630306244 370.98429711163044 252.49963422119617
leaf_count=810 932 1303 772 1156 1710
internal_value=0 0.0388568 -0.0676746 0.0154952 -0.092614
internal_weight=0 1019.82 587.561 689.815 411.812
internal_count=6683 3269 3414 2459 2642
is_linear=0
shrinkage=0.1


Tree=6
num_leaves=6
num_cat=0
split_feature=67 4 22 17 47
split_gain=351.869 99.3066 81.0242 28.701 25.6568
threshold=1.0000000180025095e-35 -0.41220591953107255 0.56061741741365634 -0.11368208283515752 -0.072753793729450553
decision_type=2 2 2 2 2
left_child=1 -1 3 -2 -3
right_child=2 4 -4 -5 -6
leaf_value=0.076500391584488736 -0.06004882964850794 -0.0061622741204959749 -0.005789411085067326 -0.11365058663399913 0.034113999140803646
leaf_weight=372.3459271043539 196.01580785214901 359.02301113307476 175.08753250539303 203.70779266953468 282.70331843197346
leaf_count=926 1168 1401 852 1389 944
internal_value=0 0.0354179 -0.0625174 -0.0873654 0.0115809
internal_weight=0 1014.07 574.811 399.724 641.726
internal_count=6680 3271 3409 2557 2345
is_linear=0
shrinkage=0.1


Tree=7
num_leaves=6
num_cat=0
split_feature=67 44 4 42 2
split_gain=289.411 97.302 73.0369 58.7319 27.5454
threshold=1.0000000180025095e-35 -0.32641186824683965 -0.019599698440955753 0.097014330461988665 -0.13235887116482048
decision_type=2 2 2 2 2
left_child=1 -1 -2 -3 -4
right_child=2 3 4 -5 -6
leaf_value=0.077385741541763156 -0.0018531915045780407 -0.020534771228167131 -0.056198054709095641 0.038285602094541064 -0.1090492066602453
leaf_weight=323.55852550268173 167.25699635595083 318.68963375687599 213.203921854496 363.23426729440689 183.48091428726912
leaf_count=816 809 1303 1284 1151 1312
internal_value=0 0.0322246 -0.0572755 0.0107965 -0.0806436
internal_weight=0 1005.48 563.942 681.924 396.685
internal_count=6675 3270 3405 2454 2596
is_linear=0
shrinkage=0.1


Tree=8
num_leaves=6
num_cat=0
split_feature=67 4 22 15 47
split_gain=244.19 78.4336 75.5669 28.2986 22.7982
threshold=1.0000000180025095e-35 -0.43159386143906814 0.63185691170933078 -0.34276382737886774 -0.072753793729450553
decision_type=2 2 2 2 2
left_child=1 -1 3 -2 -3
right_child=2 4 -4 -5 -6
leaf_value=0.067613065392283164 -0.10328795977865718 -0.0077433041646813305 0.0037060051734908589 -0.049258504219611171 0.030081819762280866
leaf_weight=353.44831800460815 200.50385088473558 359.65149010717869 164.50646613538265 187.68013771623373 286.10759361088276
leaf_count=907 1511 1406 800 1093 956
internal_value=0 0.029743 -0.0530945 -0.0771657 0.00901535
internal_weight=0 999.207 552.69 388.184 645.759
internal_count=6673 3269 3404 2604 2362
is_linear=0
shrinkage=0.1


Tree=9
num_leaves=6
num_cat=0
split_feature=25 67 42 15 3
split_gain=218.022 134.854 66.308 30.987 13.0255
threshold=1.0000000180025095e-35 1.0000000180025095e-35 0.40066005623994 -0.26341729727028501 -0.05525433057884073
decision_type=2 2 2 2 2
left_child=1 3 4 -1 -3
right_child=-2 2 -4 -5 -6
leaf_value=-0.012753941808081665 0.068415357913433061 -0.069270436089417353 -0.0081861563775300541 0.029476950321622692 -0.10955243756830213
leaf_weight=375.58438049256802 353.10785449296236 173.08470207452774 153.9022378474474 323.31577794253826 149.70344569534063
leaf_count=1492 1006 1125 849 1053 1147
internal_value=0 -0.0211891 -0.0621995 0.00678234 -0.0879525
internal_weight=0 1175.59 476.69 698.9 322.788
internal_count=6672 5666 3121 2545 2272
is_linear=0
shrinkage=0.1


Tree=10
num_leaves=5
num_cat=0
split_feature=44 9 67 42
split_gain=211.269 165.506 72.3176 21.7982
threshold=-0.65286381564431328 1.0000000180025095e-35 1.0000000180025095e-35 0.097014330461988665
decision_type=2 2 2 2
left_child=-1 2 -2 -4
right_child=1 -3 3 -5
leaf_value=0.076155169935841233 -0.018321782506417871 0.031378294444210579 -0.099049311785847999 -0.049011268445861012
leaf_weight=289.07677841186523 434.03566989302635 426.20132111012936 215.81286230683327 145.9285958558321
leaf_count=751 1744 1546 1682 951
internal_value=0 -0.0189096 -0.0458427 -0.0788637
internal_weight=0 1221.98 795.777 361.741
internal_count=6674 5923 4377 2633
is_linear=0
shrinkage=0.1


Tree=11
num_leaves=6
num_cat=0
split_feature=25 9 67 6 2
split_gain=173.493 111.797 79.512 15.8704 15.6618
threshold=1.0000000180025095e-35 0.34624494018091728 1.0000000180025095e-35 -0.2262401462842826 -0.029977585780542482
decision_type=2 2 2 2 2
left_child=1 2 3 -1 -4
right_child=-2 -3 4 -5 -6
leaf_value=0.0067832514702927992 0.062432006162565473 0.038757774807969908 -0.052696568374324605 -0.028039026855299933 -0.094522768237587762
leaf_weight=265.39407946169376 346.53839088231325 264.62653700262308 201.09052205085754 258.22505408525467 161.36363815516233
leaf_count=972 1009 925 1367 1072 1329
internal_value=0 -0.0182786 -0.0353125 -0.0103895 -0.0713175
internal_weight=0 1150.7 886.073 523.619 362.454
internal_count=6674 5665 4740 2044 2696
is_linear=0
shrinkage=0.1


Tree=12
num_leaves=6
num_cat=0
split_feature=44 22 0 67 3
split_gain=156.1 124.266 88.5431 44.8328 15.9308
threshold=-0.65286381564431328 0.96430788508914456 -0.69626656411740317 1.0000000180025095e-35 -0.20797985425435753
decision_type=2 2 2 2 2
left_child=-1 2 -2 -4 -5
right_child=1 -3 3 4 -6
leaf_value=0.067407375214339343 0.020816217034772259 0.041671174660112428 -0.027961448386078492 -0.054920609639230636 -0.099765375657170419
leaf_weight=277.14001849293709 223.47525150328875 285.83900105208158 370.56247739493847 146.87087997049093 171.96960849314928
leaf_count=746 873 1041 1541 1005 1456
internal_value=0 -0.0158679 -0.0338845 -0.0516161 -0.0791081
internal_weight=0 1198.72 912.878 689.403 318.84
internal_count=6662 5916 4875 4002 2461
is_linear=0
shrinkage=0.1


Tree=13
num_leaves=6
num_cat=0
split_feature=46 67 12 99 42
split_gain=135.768 78.8159 38.9977 20.0351 14.3474
threshold=-0.67004597229012808 1.0000000180025095e-35 -0.12217684294789188 1.0000000180025095e-35 -0.054808532426986981
decision_type=2 2 2 2 2
left_child=-1 3 -3 -2 -4
right_child=1 2 4 -5 -6
leaf_value=0.056554524739709025 0.019121417269685737 -0.006090324840099171 -0.090981394390173276 -0.01515103483611608 -0.046872191454631444
leaf_weight=330.14829143881798 400.32330737262964 139.38475617021322 156.82574678212404 297.20113022625446 139.19225850701332
leaf_count=1018 1379 802 1342 1163 976
internal_value=0 -0.0163201 -0.0497043 0.00451861 -0.0702406
internal_weight=0 1132.93 435.403 697.524 296.018
internal_count=6680 5662 3120 2542 2318
is_linear=0
shrinkage=0.1


Tree=14
num_leaves=6
num_cat=0
split_feature=44 22 9 67 10
split_gain=125.929 103.205 61.1399 27.1433 13.4355
threshold=-0.76712238081466089 0.63185691170933078 1.0000000180025095e-35 1.0000000180025095e-35 0.056971232295692405
decision_type=2 2 2 2 2
left_child=-1 2 3 -2 -5
right_child=1 -3 -4 4 -6
leaf_value=0.063729709231627615 -0.033458857436029263 0.027854216623329566 0.0067330453100162072 -0.055639359407431747 -0.10332953937273857
leaf_weight=257.84415493160486 305.94428741186857 403.14521950483322 248.86453870683908 122.90927251428366 113.74114774167538
leaf_count=703 1309 1560 1010 1040 1063
internal_value=0 -0.0133291 -0.0343067 -0.0531298 -0.0785607
internal_weight=0 1194.6 791.459 542.595 236.65
internal_count=6685 5982 4422 3412 2103
is_linear=0
shrinkage=0.1


Tree=15
num_leaves=6
num_cat=0
split_feature=25 9 44 12 1
split_gain=117.517 86.1083 48.905 39.6273 25.179
threshold=0.16483057902120168 0.37012297377375686 -0.21215379275466142 -0.11896130769325304 -0.06173223029181598
decision_type=2 2 2 2 2
left_child=1 2 -1 -4 -5
right_child=-2 -3 3 4 -6
leaf_value=0.017632047315822172 0.059685037922240169 0.03609127598756879 -0.01116539916778714 -0.035267847437471342 -0.083388018742780678
leaf_weight=182.8603302910924 267.94626085460186 267.35408265143633 282.93163867294788 218.22905454784632 216.73104137182236
leaf_count=659 784 932 1392 1209 1712
internal_value=0 -0.0137444 -0.0285362 -0.0402962 -0.0592451
internal_weight=0 1168.11 900.752 717.892 434.96
internal_count=6688 5904 4972 4313 2921
is_linear=0
shrinkage=0.1


Tree=16
num_leaves=6
num_cat=0
split_feature=25 9 44 43 42
split_gain=97.4012 62.4499 34.8589 52.2466 20.6364
threshold=1.0000000180025095e-35 0.011952469881161732 0.1795887399935738 0.60510725042557578 -0.054808532426986981
decision_type=2 2 2 2 2
left_child=1 2 -1 4 -4
right_child=-2 -3 3 -5 -6
leaf_value=-0.0021607414991853492 0.04766661563837437 0.019753733598367476 -0.098994982572927243 -0.0046773119646391637 -0.046516660212362226
leaf_weight=263.22368726879358 321.72132723778486 352.08829212933779 151.18767720460892 178.74422347545624 148.56825494021177
leaf_count=1209 1010 1339 1173 1045 902
internal_value=0 -0.0149271 -0.0313897 -0.0474687 -0.0729851
internal_weight=0 1093.81 741.724 478.5 299.756
internal_count=6678 5668 4329 3120 2075
is_linear=0
shrinkage=0.1


Tree=17
num_leaves=7
num_cat=0
split_feature=46 44 33 22 3 47
split_gain=91.4221 74.447 72.257 62.3191 43.6652 23.6678
threshold=-0.76049073684689605 -0.65286381564431328 1.0800327489238521 0.96430788508914456 -0.16739544936156286 -0.11506683189866035
decision_type=2 2 2 2 2 2
left_child=-1 -2 3 4 5 -3
right_child=1 2 -4 -5 -6 -7
leaf_value=0.060094895119255781 0.044607449235029489 -0.054514961313388177 0.033643109755170951 0.015882438970415236 -0.086196903377201373 -0.005821805635489139
leaf_weight=213.05041091889143 200.09056855738163 204.53259946405888 187.43321599066257 183.48914144933224 220.38204063475132 194.98009721934795
leaf_count=632 604 1207 710 766 1789 957
internal_value=0 -0.0110301 -0.0222658 -0.0353097 -0.0504626 -0.0307505
internal_weight=0 1190.91 990.817 803.384 619.895 399.513
internal_count=6665 6033 5429 4719 3953 2164
is_linear=0
shrinkage=0.1


Tree=18
num_leaves=6
num_cat=0
split_feature=4 33 1 67 1
split_gain=81.4105 56.5311 57.7432 46.1315 13.7877
threshold=-0.70787230021247283 1.0800327489238521 0.094652906769200088 1.0000000180025095e-35 -0.040880878683680504
decision_type=2 2 2 2 2
left_child=-1 2 3 -2 -5
right_child=1 -3 -4 4 -6
leaf_value=0.048241881984002505 -0.015143481989367999 0.03420720822705469 0.02593058721108113 -0.044742778928426687 -0.088620009518376591
leaf_weight=280.61860952526331 423.78036292642355 213.78097672760487 190.26886570453644 140.61811957508326 145.9475455135107
leaf_count=880 1709 781 777 1053 1487
internal_value=0 -0.0120212 -0.0229946 -0.0360993 -0.0670894
internal_weight=0 1114.4 900.615 710.346 286.566
internal_count=6687 5807 5026 4249 2540
is_linear=0
shrinkage=0.1


Tree=19
num_leaves=6
num_cat=0
split_feature=25 9 67 19 6
split_gain=67.8826 50.3095 32.0712 15.9773 7.66751
threshold=0.16483057902120168 0.37012297377375686 1.0000000180025095e-35 -0.095277734712742215 -0.2262401462842826
decision_type=2 2 2 2 2
left_child=1 2 4 -4 -1
right_child=-2 -3 3 -5 -6
leaf_value=0.003853117451589018 0.046927316217718847 0.027692478950379774 -0.075413975402250533 -0.029235976642552314 -0.019675901898961526
leaf_weight=276.14362931996584 249.48441579192877 261.62381249666214 126.74315646663308 183.26598560065031 277.85806539654732
leaf_count=1034 780 932 1261 1513 1149
internal_value=0 -0.0107266 -0.02236 -0.0481152 -0.0079478
internal_weight=0 1125.63 864.011 310.009 554.002
internal_count=6669 5889 4957 2774 2183
is_linear=0
shrinkage=0.1


Tree=20
num_leaves=6
num_cat=0
split_feature=39 44 42 47 2
split_gain=65.0372 67.8036 47.0796 39.8951 22.049
threshold=-0.88098461516763071 -0.76712238081466089 0.55248291912891567 0.13881139711659826 -0.26317940248917571
decision_type=2 2 2 2 2
left_child=-1 -2 3 4 -3
right_child=1 2 -4 -5 -6
leaf_value=0.051028581342004192 0.042575799665535097 -0.028316530735042724 0.012852255184517342 -0.0041556894144647236 -0.075243794209128051
leaf_weight=209.81229360774159 205.41011742502451 176.89776588976383 288.81633549183607 250.29879631102085 230.70020839199424
leaf_count=733 624 957 1305 1358 1687
internal_value=0 -0.00950472 -0.0208047 -0.0355801 -0.0548773
internal_weight=0 1152.12 946.713 657.897 407.598
internal_count=6664 5931 5307 4002 2644
is_linear=0
shrinkage=0.1


Tree=21
num_leaves=6
num_cat=0
split_feature=37 33 36 2 47
split_gain=58.9688 36.0595 40.1425 28.7222 23.4865
threshold=-0.14169220237994143 1.0800327489238521 -0.75166919116233355 -0.03945733442723489 -0.10448857235635785
decision_type=2 2 2 2 2
left_child=-1 2 -2 4 -4
right_child=1 -3 3 -5 -6
leaf_value=0.03130701454595812 0.014617909508521758 0.026128222066304309 -0.046850697949423897 -0.073287004163759953 0.0020554572966578082
leaf_weight=418.95588409155607 202.50406105816364 181.97566216439009 200.69706927612424 159.06583019345999 192.26477494090796
leaf_count=1521 967 683 1171 1413 919
internal_value=0 -0.0138282 -0.0234647 -0.0374348 -0.0229223
internal_weight=0 936.507 754.532 552.028 392.962
internal_count=6674 5153 4470 3503 2090
is_linear=0
shrinkage=0.1


Tree=22
num_leaves=6
num_cat=0
split_feature=46 44 12 96 15
split_gain=60.9764 42.2596 49.1827 23.1029 21.5677
threshold=-0.76049073684689605 -0.57125111444054333 -0.10870221902369102 1.0000000180025095e-35 -0.37493133958504987
decision_type=2 2 2 2 2
left_child=-1 -2 4 -4 -3
right_child=1 2 3 -5 -6
leaf_value=0.050804893247109809 0.033891176830466614 -0.018633388130819963 -0.070455721202268257 -0.023385500383018513 0.022321249847163466
leaf_weight=201.92717810720205 192.79887388646603 239.27242504805326 174.1741670742631 259.82374029234052 277.97257849574089
leaf_count=635 618 1341 1250 1691 1136
internal_value=0 -0.00879973 -0.0174524 -0.042276 0.00337604
internal_weight=0 1144.04 951.243 433.998 517.245
internal_count=6671 6036 5418 2941 2477
is_linear=0
shrinkage=0.1


Tree=23
num_leaves=6
num_cat=0
split_feature=96 46 22 44 2
split_gain=54.5754 45.8184 24.8717 30.2801 16.2885
threshold=-0.77164251454233435 -0.72116692617004041 0.63185691170933078 -0.081573274957362593 -0.17217381548092861
decision_type=2 2 2 2 2
left_child=-1 -2 3 -3 -5
right_child=1 2 -4 4 -6
leaf_value=-0.044285615349777853 0.048782265622256439 0.019807760832042425 0.026126040738967845 -0.012399009875347963 -0.052935599301062577
leaf_weight=234.39153334125876 227.92628505453467 204.85787587985396 236.47607262432575 277.54340175166726 154.19788331538439
leaf_count=1367 736 781 977 1472 1345
internal_value=0 0.00885639 -0.00156672 -0.0118537 -0.0268768
internal_weight=0 1101 873.075 636.599 431.741
internal_count=6678 5311 4575 3598 2817
is_linear=0
shrinkage=0.1


Tree=24
num_leaves=6
num_cat=0
split_feature=39 96 25 43 6
split_gain=46.6705 45.2523 32.8233 32.4394 33.3419
threshold=-0.88098461516763071 -0.77164251454233435 -0.53051329950486625 -0.5763781271507965 -0.060570668181262506
decision_type=2 2 2 2 2
left_child=-1 -2 -3 -4 -5
right_child=1 2 3 4 -6
leaf_value=0.043976532762768361 -0.052022786002473724 -0.029228845096047514 0.044996726717528891 0.021992206117784026 -0.032275605797897761
leaf_weight=203.85178876295686 193.54573189467192 257.41418182104826 213.1841879338026 253.72397974506021 204.43887198716402
leaf_count=733 1206 1461 840 1054 1373
internal_value=0 -0.00803573 0.00113079 0.0127716 -0.00222287
internal_weight=0 1122.31 928.761 671.347 458.163
internal_count=6667 5934 4728 3267 2427
is_linear=0
shrinkage=0.1


Tree=25
num_leaves=6
num_cat=0
split_feature=44 22 0 42 19
split_gain=42.8736 48.7455 31.689 26.2201 23.6919
threshold=-0.76712238081466089 0.96430788508914456 -0.69626656411740317 0.097014330461988665 -0.50250470897308286
decision_type=2 2 2 2 2
left_child=-1 2 -2 4 -4
right_child=1 -3 3 -5 -6
leaf_value=0.040619751077495235 0.013758374449133019 0.02944186970398683 -0.016023828365942457 -0.0071068360512197906 -0.069208316374528484
leaf_weight=222.94823174923658 213.56895273178816 270.14255787432194 136.20173513889313 264.50954560935497 217.53392608836293
leaf_count=696 886 1048 868 1451 1728
internal_value=0 -0.00746453 -0.0194504 -0.0309221 -0.0487303
internal_weight=0 1101.96 831.814 618.245 353.736
internal_count=6677 5981 4933 4047 2596
is_linear=0
shrinkage=0.1


Tree=26
num_leaves=6
num_cat=0
split_feature=19 33 42 22 12
split_gain=39.9672 26.5252 32.7883 20.0311 15.8502
threshold=0.08982543540559447 0.68916982302968732 0.55248291912891567 -0.69794698180992432 -0.11536297062258577
decision_type=2 2 2 2 2
left_child=1 2 3 -1 -5
right_child=-2 -3 -4 4 -6
leaf_value=-0.0044103744351932928 0.029224971264798227 0.015734161930201513 0.014786607123751232 -0.024614815264208775 -0.06777362927959403
leaf_weight=154.45438374578953 349.34831903502345 278.86953954771161 187.38789761066437 158.43887558206916 183.81554915755987
leaf_count=887 1287 1180 914 891 1512
internal_value=0 -0.0102604 -0.0208569 -0.0343038 -0.0477942
internal_weight=0 962.966 684.097 496.709 342.254
internal_count=6671 5384 4204 3290 2403
is_linear=0
shrinkage=0.1


Tree=27
num_leaves=5
num_cat=0
split_feature=96 46 25 2
split_gain=37.9574 33.5868 18.1494 20.614
threshold=-0.77164251454233435 -0.7329640693730971 -0.53051329950486625 -0.12856697170614353
decision_type=2 2 2 2
left_child=-1 -2 -3 -4
right_child=1 2 3 -5
leaf_value=-0.036588485141332214 0.043063137611317089 -0.023757444272380784 0.02185935173455416 -0.016543523922405004
leaf_weight=231.98181452229619 217.97775788605213 247.19318339973688 397.11201858520508 215.69934794679284
leaf_count=1378 728 1427 1700 1459
internal_value=0 0.00800228 -0.000884291 0.00834218
internal_weight=0 1077.98 860.005 612.811
internal_count=6692 5314 4586 3159
is_linear=0
shrinkage=0.1


Tree=28
num_leaves=6
num_cat=0
split_feature=39 44 12 67 47
split_gain=37.3505 30.5384 29.7559 19.2772 15.1001
threshold=-0.88098461516763071 -0.76712238081466089 -0.1018883466983849 1.0000000180025095e-35 0.10707661848969095
decision_type=2 2 2 2 2
left_child=-1 -2 4 -4 -3
right_child=1 2 3 -5 -6
leaf_value=0.039700632939461356 0.02902749573946474 -0.015025500244243921 -0.017740901093573024 -0.064519880375506863 0.018340284688566397
leaf_weight=199.88943902030587 191.51536606252193 305.59611510112882 212.77854564785957 150.33283871412277 243.88301027566195
leaf_count=733 630 1687 913 1648 1081
internal_value=0 -0.00727646 -0.0148952 -0.037108 -0.000216297
internal_weight=0 1104.11 912.591 363.111 549.479
internal_count=6692 5959 5329 2561 2768
is_linear=0
shrinkage=0.1


Tree=29
num_leaves=6
num_cat=0
split_feature=25 99 12 44 25
split_gain=32.2031 27.6384 26.3594 25.5035 16.5193
threshold=0.16483057902120168 0.64196892527048177 -0.10112274306632803 0.32649251622627246 -0.47633065725069362
decision_type=2 2 2 2 2
left_child=1 2 4 -4 -1
right_child=-2 -3 3 -5 -6
leaf_value=-0.005594357382030183 0.033641717925154531 -0.041495158099435249 0.0042597868424847632 -0.05108856635208521 0.029783142776572361
leaf_weight=241.65036274120212 227.80793971568346 197.97521528601646 174.69974553957582 159.03926848992705 290.85031585767865
leaf_count=1214 787 1261 914 1252 1266
internal_value=0 -0.00778542 -8.12091e-05 -0.0221158 0.0137287
internal_weight=0 1064.21 866.24 333.739 532.501
internal_count=6694 5907 4646 2166 2480
is_linear=0
shrinkage=0.1


Tree=30
num_leaves=6
num_cat=0
split_feature=37 33 1 0 96
split_gain=34.0992 27.3677 29.8662 30.4654 28.168
threshold=-0.49654180634509021 1.0800327489238521 0.094652906769200088 0.62891122073697125 0.41748064729639017
decision_type=2 2 2 2 2
left_child=-1 2 3 4 -2
right_child=1 -3 -4 -5 -6
leaf_value=0.032359471370350196 -0.063162399452316595 0.023909426486581453 0.018627593464942364 0.0086311869433692359 -0.013575242937460706
leaf_weight=254.40644260123372 250.35285205766559 207.55163367837667 184.96737710013986 173.97899336740375 211.19282815232873
leaf_count=920 1901 790 785 991 1284
internal_value=0 -0.00853106 -0.0167372 -0.02703 -0.0404724
internal_weight=0 1028.04 820.492 635.525 461.546
internal_count=6671 5751 4961 4176 3185
is_linear=0
shrinkage=0.1


Tree=31
num_leaves=5
num_cat=0
split_feature=11 96 42 67
split_gain=29.3971 24.4361 17.89 20.2755
threshold=-0.79826792266515045 -0.77164251454233435 0.2488371933509643 1.0000000180025095e-35
decision_type=2 2 2 2
left_child=-1 -2 3 -3
right_child=1 2 -4 -5
leaf_value=0.03563756488137472 -0.039492676387994544 0.0019996043390672117 0.018117692077090471 -0.039377601320390115
leaf_weight=193.71086258068681 187.43888956680894 378.18674556165934 343.74437726289034 172.41761215031147
leaf_count=688 1215 1466 1575 1730
internal_value=0 -0.00666284 0.000217685 -0.0109574
internal_weight=0 1081.79 894.349 550.604
internal_count=6674 5986 4771 3196
is_linear=0
shrinkage=0.1


Tree=32
num_leaves=6
num_cat=0
split_feature=19 96 46 33 1
split_gain=28.3867 22.2211 15.9334 14.261 19.3295
threshold=0.51556272667776903 -0.77164251454233435 -0.65431644801938582 0.13079421460945043 -1.0000000180025095e-35
decision_type=2 2 2 2 2
left_child=1 -1 -3 4 -4
right_child=-2 2 3 -5 -6
leaf_value=-0.03722375776851377 0.035091564146143887 0.022544011511581911 0.00076944538461655302 0.0059021750070482439 -0.05017028399861248
leaf_weight=192.47066801227629 194.35293433070183 235.5750741623342 153.91996814310551 348.62495924904943 144.35300178453326
leaf_count=1239 705 925 846 1701 1257
internal_value=0 -0.00643739 0.000277238 -0.00783146 -0.0238835
internal_weight=0 1074.94 882.473 646.898 298.273
internal_count=6673 5968 4729 3804 2103
is_linear=0
shrinkage=0.1


Tree=33
num_leaves=6
num_cat=0
split_feature=39 37 47 6 37
split_gain=27.3063 21.7877 21.9088 21.6676 9.46383
threshold=-0.83042284306319225 -0.14169220237994143 0.13881139711659826 -0.30079141143064164 0.56800509482465122
decision_type=2 2 2 2 2
left_child=-1 -2 3 -3 -5
right_child=1 2 -4 4 -6
leaf_value=0.032335873354124078 0.015598578071818523 -0.0017856735085579611 0.0063888789895763607 -0.064124383803331617 -0.027952974624826717
leaf_weight=214.54227346926928 306.42259611934423 177.75248306803405 273.13197709992528 145.52870974689722 143.81304998137057
leaf_count=837 1246 901 1524 1125 1039
internal_value=0 -0.00682615 -0.0161091 -0.0292646 -0.0461459
internal_weight=0 1046.65 740.226 467.094 289.342
internal_count=6672 5835 4589 3065 2164
is_linear=0
shrinkage=0.1


Tree=34
num_leaves=6
num_cat=0
split_feature=99 6 6 4 12
split_gain=25.3643 24.8091 20.0876 19.4877 23.3851
threshold=0.64196892527048177 1.0000000180025095e-35 -0.33392530705124562 -0.10199853394877244 -0.11467392735373459
decision_type=2 2 2 2 2
left_child=1 2 -1 -4 -5
right_child=-2 -3 3 4 -6
leaf_value=0.019203315673765264 -0.030026853396507347 0.03789761886640345 0.011621504320946477 0.0014634596046713194 -0.052525731565010551
leaf_weight=304.8701537437737 233.44418285787106 202.03887645155191 197.91877660527825 146.00756314024329 178.07773740775883
leaf_count=1321 1423 783 840 759 1568
internal_value=0 0.00648397 -0.00119166 -0.0131031 -0.0282024
internal_weight=0 1028.91 826.874 522.004 324.085
internal_count=6694 5271 4488 3167 2327
is_linear=0
shrinkage=0.1


Tree=35
num_leaves=6
num_cat=0
split_feature=44 22 33 96 43
split_gain=22.3611 30.5817 21.3975 24.6835 16.1591
threshold=-1.0935744914381893 0.96430788508914456 0.8287646557607582 0.41748064729639017 0.41142112295403926
decision_type=2 2 2 2 2
left_child=-1 2 3 4 -2
right_child=1 -3 -4 -5 -6
leaf_value=0.031912470912944788 -0.059557293949011762 0.024599474748950252 0.014097989864800009 -0.0016153943900241838 -0.015048876219922397
leaf_weight=190.2377060726285 206.30082542262971 258.97619004175067 193.6070052459836 272.98824292607605 134.91597943194211
leaf_count=631 1556 1053 825 1635 983
internal_value=0 -0.00530367 -0.0148903 -0.0240279 -0.0419588
internal_weight=0 1066.79 807.812 614.205 341.217
internal_count=6683 6052 4999 4174 2539
is_linear=0
shrinkage=0.1


Tree=36
num_leaves=6
num_cat=0
split_feature=19 96 25 42 6
split_gain=22.8553 17.4493 14.4588 15.557 10.3229
threshold=0.51556272667776903 -0.77164251454233435 -0.56663505799750136 0.2488371933509643 -0.16825582894822552
decision_type=2 2 2 2 2
left_child=1 -1 -3 4 -4
right_child=-2 2 3 -5 -6
leaf_value=-0.033334633218717484 0.031796284506053811 -0.023321098675425062 0.012880488488026677 0.026701580884003873 -0.018963826933010176
leaf_weight=190.01921489834785 189.82518326118588 201.87931918166578 183.67859482392669 253.87572573125362 228.35725064389408
leaf_count=1242 704 1210 832 1146 1533
internal_value=0 -0.00588768 0.000122355 0.00722953 -0.00476817
internal_weight=0 1057.81 867.791 665.912 412.036
internal_count=6667 5963 4721 3511 2365
is_linear=0
shrinkage=0.1


Tree=37
num_leaves=5
num_cat=0
split_feature=99 96 32 46
split_gain=20.371 21.6545 19.1197 22.0699
threshold=1.0000000180025095e-35 1.0000000180025095e-35 0.16375029518230808 -0.48522406210890662
decision_type=2 2 2 2
left_child=2 -2 3 -1
right_child=1 -3 -4 -5
leaf_value=0.024598299836127543 -0.04276802225880029 -0.00029744326364296834 0.032758813440659382 -0.019948463788986057
leaf_weight=191.05095903947949 183.08241963759065 348.71852323412895 256.9509386960417 266.14808019809425
leaf_count=823 1191 1857 1123 1688
internal_value=0 -0.0149187 0.0109328 -0.00133359
internal_weight=0 531.801 714.15 457.199
internal_count=6682 3048 3634 2511
is_linear=0
shrinkage=0.1


Tree=38
num_leaves=6
num_cat=0
split_feature=39 44 22 47 2
split_gain=20.0129 19.1919 20.0676 15.3207 14.0513
threshold=-0.88098461516763071 -0.60389665195500641 0.63185691170933078 -0.37158962051036476 -0.21578065925571369
decision_type=2 2 2 2 2
left_child=-1 -2 3 -3 -5
right_child=1 2 -4 4 -6
leaf_value=0.030188775560673432 0.023251766562653143 -0.047460543410996377 0.010103005012531656 0.0037608310302963618 -0.034209410071040391
leaf_weight=188.44815681129694 193.53990561515093 170.90057877264917 284.70436811074615 238.78909450024366 164.6700229793787
leaf_count=729 669 1224 1311 1258 1477
internal_value=0 -0.00519639 -0.0116055 -0.0223662 -0.0117366
internal_weight=0 1052.6 859.064 574.36 403.459
internal_count=6668 5939 5270 3959 2735
is_linear=0
shrinkage=0.1


Tree=39
num_leaves=6
num_cat=0
split_feature=19 33 36 46 6
split_gain=18.0698 18.2221 20.9104 14.5078 13.751
threshold=0.08982543540559447 1.0800327489238521 -0.75166919116233355 -0.59139835093641679 -0.2262401462842826
decision_type=2 2 2 2 2
left_child=1 2 -1 -4 -5
right_child=-2 -3 3 4 -6
leaf_value=0.016290790887931818 0.020250897376229957 0.022367040496703336 0.0029871886317306903 -0.013681304968530468 -0.050396319373475044
leaf_weight=174.24650881439447 327.29937508516014 169.79392155632377 152.33462809026241 192.28260131925344 217.28624920733273
leaf_count=903 1291 671 708 1110 1984
internal_value=0 -0.00716341 -0.0139746 -0.02336 -0.0331595
internal_weight=0 905.944 736.15 561.903 409.569
internal_count=6667 5376 4705 3802 3094
is_linear=0
shrinkage=0.1


Tree=40
num_leaves=5
num_cat=0
split_feature=99 96 32 24
split_gain=18.0208 21.1608 16.1582 17.7843
threshold=1.0000000180025095e-35 1.0000000180025095e-35 0.16375029518230808 1.0000000180025095e-35
decision_type=2 2 2 2
left_child=2 -2 3 -1
right_child=1 -3 -4 -5
leaf_value=-0.019224204329685315 -0.041994819511096411 0.00043933803362360477 0.030736278106823028 0.020551039584674663
leaf_weight=242.90004157088697 177.96741656400263 345.97195618785918 253.17410987988114 209.25084413029253
leaf_count=1546 1185 1864 1115 967
internal_value=0 -0.0139743 0.0105092 -0.000816625
internal_weight=0 523.939 705.325 452.151
internal_count=6677 3049 3628 2513
is_linear=0
shrinkage=0.1


Tree=41
num_leaves=7
num_cat=0
split_feature=6 44 22 43 37 42
split_gain=16.9941 19.1969 20.1477 17.9631 18.6014 11.7846
threshold=0.17136660116296573 -0.83241280293936526 1.0118008812862609 0.64384447591988303 -0.032508149788909348 0.097014330461988665
decision_type=2 2 2 2 2 2
left_child=1 -1 3 4 -3 -6
right_child=-2 2 -4 -5 5 -7
leaf_value=0.024760691484457163 0.027516329384519325 -0.0047532487272084504 0.017028775852583028 0.0033737635749729838 -0.065543694071551153 -0.024420089498780814
leaf_weight=175.47081080079079 184.72557389549911 166.3343341127038 192.29793062061071 224.99513212777674 154.02693031728268 127.25656165741384
leaf_count=608 742 817 814 1435 1452 809
internal_value=0 -0.00539733 -0.0115157 -0.0196765 -0.0312627 -0.0469388
internal_weight=0 1040.38 864.911 672.613 447.618 281.283
internal_count=6677 5935 5327 4513 3078 2261
is_linear=0
shrinkage=0.1


Tree=42
num_leaves=6
num_cat=0
split_feature=14 33 0 42 19
split_gain=16.2549 20.1172 27.5696 29.9974 13.2663
threshold=-0.77897126866191513 1.0800327489238521 0.62891122073697125 -0.28254282676045034 -0.095277734712742215
decision_type=2 2 2 2 2
left_child=-1 2 3 -2 -5
right_child=1 -3 -4 4 -6
leaf_value=0.026886934555176153 -0.051264798847436732 0.020567145079761127 0.023222472887111285 -0.024963397174288159 0.012088128098974979
leaf_weight=194.67201086692512 225.80846926942468 242.02529093623161 169.96629048883915 183.16861549578607 204.55400566197932
leaf_count=920 1731 936 928 1011 1154
internal_value=0 -0.00463281 -0.0124172 -0.0222904 -0.00541582
internal_weight=0 1025.52 783.497 613.531 387.723
internal_count=6680 5760 4824 3896 2165
is_linear=0
shrinkage=0.1


Tree=43
num_leaves=5
num_cat=0
split_feature=98 99 4 16
split_gain=15.6785 16.4925 9.39017 9.23596
threshold=-0.48478086785518842 1.0000000180025095e-35 0.41178243700119138 -0.006500274525055162
decision_type=2 2 2 2
left_child=-1 3 -3 -2
right_child=1 2 -4 -5
leaf_value=-0.018536395421184664 0.036677269588030546 -0.017926207221255486 0.01162927295728269 0.0075514894919359301
leaf_weight=328.55309561267495 200.0608854200691 275.43878358602524 176.30495117790997 238.86921949312091
leaf_count=1898 892 1468 1143 1287
internal_value=0 0.00702191 -0.0063914 0.0208268
internal_weight=0 890.674 451.744 438.93
internal_count=6688 4790 2611 2179
is_linear=0
shrinkage=0.1


Tree=44
num_leaves=6
num_cat=0
split_feature=43 26 43 37 38
split_gain=15.5639 16.6083 21.0895 20.4968 17.1849
threshold=-0.65385257813941111 -0.078337468326536583 0.29520944647111741 0.51341293204872185 -0.026230007841699963
decision_type=2 2 2 2 2
left_child=-1 -2 4 -4 -3
right_child=1 2 3 -5 -6
leaf_value=0.018867158131513722 0.015564038477405714 -0.056086923790017423 -0.022752162811460402 0.026540700475409768 -0.010212241928571722
leaf_weight=313.65823976509273 239.94944536685944 164.00497455708683 165.34090639092028 172.22454499080777 162.6342643443495
leaf_count=1461 1045 1057 1016 1105 998
internal_value=0 -0.00698522 -0.0151313 0.00239686 -0.0332458
internal_weight=0 904.154 664.205 337.565 326.639
internal_count=6682 5221 4176 2121 2055
is_linear=0
shrinkage=0.1


Tree=45
num_leaves=5
num_cat=0
split_feature=15 43 43 12
split_gain=17.1859 20.2104 12.8604 9.26781
threshold=-0.37493133958504987 -0.20837448495487734 0.43078973570119294 -0.10977406410857064
decision_type=2 2 2 2
left_child=2 -2 -1 -3
right_child=1 3 -4 -5
leaf_value=-0.028107802757945305 0.02633187922296263 0.0091989327211753815 0.0062516033836673068 -0.021705897243946184
leaf_weight=286.55133869685233 365.21717333979905 191.75095952674747 175.74476034753025 196.44196249172091
leaf_count=1969 1516 835 1163 1182
internal_value=0 0.00944613 -0.0150459 -0.00644021
internal_weight=0 753.41 462.296 388.193
internal_count=6665 3533 3132 2017
is_linear=0
shrinkage=0.1


Tree=46
num_leaves=6
num_cat=0
split_feature=39 96 37 99 17
split_gain=14.5229 14.8775 26.4785 17.2835 15.2469
threshold=-0.88098461516763071 0.41748064729639017 0.8136687354730533 1.0000000180025095e-35 -0.50069959149922572
decision_type=2 2 2 2 2
left_child=-1 2 3 -2 -3
right_child=1 4 -4 -5 -6
leaf_value=0.025608675512742797 -0.0099921679292505582 0.029837590312541448 0.017964997172496177 -0.050522376981608323 -0.0078305304124009194
leaf_weight=183.90008639544249 229.33554867841303 195.97445086576045 171.69680688343942 194.40164140984416 237.9034842569381
leaf_count=729 1329 919 1051 1317 1329
internal_value=0 -0.00490052 -0.0151632 -0.0285866 0.00918345
internal_weight=0 1029.31 595.434 423.737 433.878
internal_count=6674 5945 3697 2646 2248
is_linear=0
shrinkage=0.1


Tree=47
num_leaves=6
num_cat=0
split_feature=44 42 98 16 99
split_gain=14.5517 15.9703 15.7992 15.6358 5.33105
threshold=-1.0935744914381893 0.55248291912891567 -0.48478086785518842 -0.36374554732643255 1.0000000180025095e-35
decision_type=2 2 2 2 2
left_child=-1 2 -2 -4 -5
right_child=1 -3 3 4 -6
leaf_value=0.026371243080824499 -0.037331033077287967 0.013876382438143859 0.020200877087678867 -0.0043346492415041633 -0.029605858549383537
leaf_weight=182.12155095487833 191.09263242036104 329.88170503824949 179.04000292532146 174.63466988690197 159.91642343811691
leaf_count=631 1284 1526 996 1043 1208
internal_value=0 -0.00428276 -0.0127836 -0.00365014 -0.0164144
internal_weight=0 1034.57 704.684 513.591 334.551
internal_count=6688 6057 4531 3247 2251
is_linear=0
shrinkage=0.1


Tree=48
num_leaves=6
num_cat=0
split_feature=11 37 15 36 6
split_gain=14.4957 12.2449 19.6611 16.1914 15.2927
threshold=-0.79826792266515045 1.0320373865767565 -0.48644538189981473 0.17686648813984165 -0.19310625066367856
decision_type=2 2 2 2 2
left_child=-1 2 -2 4 -4
right_child=1 -3 3 -5 -6
leaf_value=0.026626824009813976 -0.034688623191760373 0.019693892725235279 0.010773515528555459 0.022930884793482233 -0.02770177394686087
leaf_weight=181.44788623414934 221.13794881105423 179.62047703377903 180.51309192739427 206.42639890871942 241.52695028856397
leaf_count=687 1636 1006 786 975 1579
internal_value=0 -0.00402824 -0.0090435 -1.97694e-05 -0.0112453
internal_weight=0 1029.22 849.604 628.466 422.04
internal_count=6669 5982 4976 3340 2365
is_linear=0
shrinkage=0.1


Tree=49
num_leaves=6
num_cat=0
split_feature=39 47 98 16 98
split_gain=13.5788 14.2858 16.7262 19.5221 7.08758
threshold=-0.88098461516763071 -0.51704070508441258 -0.48478086785518842 -0.12728541305858418 -1.0000000180025095e-35
decision_type=2 2 2 2 2
left_child=-1 -2 -3 -4 -5
right_child=1 2 3 4 -6
leaf_value=0.024638279874620306 -0.027973166646618471 -0.022685259352632974 0.030018756616581183 -0.021158594431847675 0.0082251608623636254
leaf_weight=183.62586369737983 212.49273536540568 215.70711667649448 265.04938089288771 164.16223604790866 164.1924596298486
leaf_count=730 1259 1347 1249 1094 995
internal_value=0 -0.00489813 0.00116195 0.0098306 -0.00646536
internal_weight=0 1021.6 809.111 593.404 328.355
internal_count=6674 5944 4685 3338 2089
is_linear=0
shrinkage=0.1


Tree=50
num_leaves=5
num_cat=0
split_feature=25 0 39 2
split_gain=14.311 12.9273 18.8842 12.6724
threshold=-0.58469593814686294 -0.69626656411740317 0.332497915338893 -0.028081636051204003
decision_type=2 2 2 2
left_child=-1 -2 3 -3
right_child=1 2 -4 -5
leaf_value=-0.019704845626224696 0.025313017656703407 0.00068839980401508944 0.025203965322878576 -0.03308946620572828
leaf_weight=272.85244277864695 259.14834786579013 303.80866401642561 195.76244372501969 175.07531507872045
leaf_count=1676 1022 1517 1058 1401
internal_value=0 0.00632881 -0.000963493 -0.0116605
internal_weight=0 933.795 674.646 478.884
internal_count=6674 4998 3976 2918
is_linear=0
shrinkage=0.1


Tree=51
num_leaves=5
num_cat=0
split_feature=96 15 20 43
split_gain=13.8852 11.9846 18.8073 11.1971
threshold=-0.77164251454233435 0.079702832928991413 -0.52754661871868558 0.33394667196542471
decision_type=2 2 2 2
left_child=-1 2 -2 -4
right_child=1 -3 3 -5
leaf_value=-0.023583099350926909 0.018071720711454201 0.020181184114694981 -0.030829535832528378 0.0028450892680915822
leaf_weight=211.77566299028695 255.781508943066 330.23257825896144 233.23651638068259 171.23355908691883
leaf_count=1369 1380 1288 1550 1095
internal_value=0 0.00462753 -0.00315181 -0.0165733
internal_weight=0 990.484 660.252 404.47
internal_count=6682 5313 4025 2645
is_linear=0
shrinkage=0.1


Tree=52
num_leaves=6
num_cat=0
split_feature=14 33 0 42 19
split_gain=13.0082 15.8785 20.8991 22.4523 11.0507
threshold=-0.77897126866191513 1.0800327489238521 0.62891122073697125 -0.28254282676045034 -0.095277734712742215
decision_type=2 2 2 2 2
left_child=-1 2 3 -2 -5
right_child=1 -3 -4 4 -6
leaf_value=0.02395288367295402 -0.045595896516431568 0.018092200077610743 0.019728948586281492 -0.023437317882576331 0.010614024871861718
leaf_weight=191.82963143661618 219.93644618056715 238.49875014647841 168.21007458306849 180.87337251752615 201.46111509948969
leaf_count=915 1731 936 928 1014 1154
internal_value=0 -0.00445549 -0.011435 -0.0201389 -0.00549486
internal_weight=0 1008.98 770.481 602.271 382.334
internal_count=6678 5763 4827 3899 2168
is_linear=0
shrinkage=0.1


Tree=53
num_leaves=5
num_cat=0
split_feature=99 37 12 27
split_gain=13.0506 14.105 11.7716 7.02985
threshold=0.64196892527048177 -0.14169220237994143 -0.10112274306632803 0.12907028223196834
decision_type=2 2 2 2
left_child=1 -1 3 -3
right_child=-2 2 -4 -5
leaf_value=0.023618806659362508 -0.02154533244428436 -0.0049737228525883054 -0.019209207459777489 0.020943710047820599
leaf_weight=291.41682573780417 224.46624609082937 212.99027120321989 263.76829596981406 205.75670751743019
leaf_count=1168 1425 1113 1942 1030
internal_value=0 0.00520169 -0.00266196 0.00776114
internal_weight=0 973.932 682.515 418.747
internal_count=6678 5253 4085 2143
is_linear=0
shrinkage=0.1


Tree=54
num_leaves=5
num_cat=0
split_feature=96 25 43 4
split_gain=11.3256 11.9078 19.3248 10.0366
threshold=-0.77164251454233435 -0.53051329950486625 -0.59574673989795024 0.41178243700119138
decision_type=2 2 2 2
left_child=-1 -2 -3 -4
right_child=1 2 3 -5
leaf_value=-0.021232184100165356 -0.013765752018184477 0.036074195367915785 -0.010420661456419679 0.018829562307102476
leaf_weight=209.37698556482792 264.58647877909243 215.94196746870875 319.23765584267676 185.4569861125201
leaf_count=1369 1560 936 1724 1092
internal_value=0 0.0043778 0.0110393 0.000327735
internal_weight=0 985.223 720.637 504.695
internal_count=6681 5312 3752 2816
is_linear=0
shrinkage=0.1


Tree=55
num_leaves=6
num_cat=0
split_feature=44 22 19 96 12
split_gain=12.1671 15.0598 9.80861 17.5599 9.73706
threshold=-1.0282840693134829 0.96430788508914456 -0.50250470897308286 0.41748064729639017 -0.11352552190564928
decision_type=2 2 2 2 2
left_child=-1 2 -2 4 -4
right_child=1 -3 3 -5 -6
leaf_value=0.023919782922665563 0.0048041134222027706 0.017300110554844986 -0.017217415673522075 0.00073365730456977909 -0.055159360967699328
leaf_weight=182.49346711486578 258.34640348888934 247.81588753685355 132.83025777339935 237.19329479150474 137.81208760663867
leaf_count=646 1551 1052 751 1373 1310
internal_value=0 -0.00412844 -0.0110594 -0.0191294 -0.0365376
internal_weight=0 1014 766.182 507.836 270.642
internal_count=6683 6037 4985 3434 2061
is_linear=0
shrinkage=0.1


Tree=56
num_leaves=6
num_cat=0
split_feature=99 17 22 47 40
split_gain=11.0277 12.1443 19.336 10.5636 9.59461
threshold=0.64196892527048177 -0.88771710016329408 0.63185691170933078 -0.37158962051036476 -0.24164630366690001
decision_type=2 2 2 2 2
left_child=1 -1 3 -3 -5
right_child=-2 2 -4 4 -6
leaf_value=0.027296718293157371 -0.02032090968020344 -0.030710381290798373 0.021288878302280351 -0.018417730815956521 0.015705617929910737
leaf_weight=187.50181111320853 220.83270699344575 192.83360177837312 259.18590730242431 163.71948705427349 165.89247854985297
leaf_count=887 1413 1203 1123 1111 937
internal_value=0 0.00444115 -0.00104156 -0.0121197 -0.00124358
internal_weight=0 969.133 781.631 522.446 329.612
internal_count=6674 5261 4374 3251 2048
is_linear=0
shrinkage=0.1


Tree=57
num_leaves=6
num_cat=0
split_feature=19 43 44 43 12
split_gain=11.2213 16.2353 19.93 14.9317 12.5459
threshold=0.29343892253576487 1.0699539563572633 0.32649251622627246 -0.24711171044918465 -0.1018883466983849
decision_type=2 2 2 2 2
left_child=1 2 3 -1 -4
right_child=-2 -3 4 -5 -6
leaf_value=0.020946571275966643 0.022639678183057715 0.023303952981136845 -0.012364887274633186 -0.015781919808975361 -0.049549002155816667
leaf_weight=242.58426422998309 183.11988123692572 175.92662608623505 231.09356879815459 203.58076078630984 149.39745036046952
leaf_count=1076 735 994 1342 1143 1380
internal_value=0 -0.00428069 -0.0101512 0.00418772 -0.026965
internal_weight=0 1002.58 826.656 446.165 380.491
internal_count=6670 5935 4941 2219 2722
is_linear=0
shrinkage=0.1


Tree=58
num_leaves=5
num_cat=0
split_feature=39 67 10 0
split_gain=10.7703 12.8787 18.768 12.0529
threshold=-0.83042284306319225 1.0000000180025095e-35 0.14822728172554125 0.19912383105447137
decision_type=2 2 2 2
left_child=-1 3 -3 -2
right_child=1 2 -4 -5
leaf_value=0.02104756663761044 -0.0075090146822343693 -6.0118014012035987e-05 -0.050379807566456838 0.019738917087168496
leaf_weight=199.89649383164942 412.13673783093691 173.41489682067186 129.45102658029646 267.84200790897012
leaf_count=839 1721 1693 1372 1051
internal_value=0 -0.00441573 -0.0215678 0.00322388
internal_weight=0 982.845 302.866 679.979
internal_count=6676 5837 3065 2772
is_linear=0
shrinkage=0.1


Tree=59
num_leaves=6
num_cat=0
split_feature=14 33 20 2 21
split_gain=10.2217 11.5056 16.7712 12.0606 8.79196
threshold=-0.77897126866191513 1.0800327489238521 -0.68606395247370466 -0.24611585492512941 1.0000000180025095e-35
decision_type=2 2 2 2 2
left_child=-1 2 -2 -4 -5
right_child=1 -3 3 4 -6
leaf_value=0.021484755746834235 0.013252490236227649 0.015510224541413195 -0.0033725870029822913 -0.050745725709034017 -0.015691520148933134
leaf_weight=189.57797523029149 222.40764358825982 234.41220931708813 250.25976404733956 144.82122028246522 141.41647146455944
leaf_count=922 1247 937 1334 1173 1071
internal_value=0 -0.00385464 -0.0098361 -0.0194076 -0.0334271
internal_weight=0 993.317 758.905 536.497 286.238
internal_count=6684 5762 4825 3578 2244
is_linear=0
shrinkage=0.1


Tree=60
num_leaves=5
num_cat=0
split_feature=96 37 99 46
split_gain=9.7583 21.2644 15.8438 14.0015
threshold=0.41748064729639017 0.8136687354730533 1.0000000180025095e-35 -0.54814215919187559
decision_type=2 2 2 2
left_child=1 2 -1 -2
right_child=3 -3 -4 -5
leaf_value=-0.0021074952797930937 0.031036707162459872 0.020661211640010269 -0.038168954492202027 -0.003229220162587049
leaf_weight=274.86237991414964 209.18112311139703 198.52801517397165 218.83729461580515 277.36366003006697
leaf_count=1534 854 1169 1458 1657
internal_value=0 -0.00697781 -0.0180921 0.0115028
internal_weight=0 692.228 493.7 486.545
internal_count=6672 4161 2992 2511
is_linear=0
shrinkage=0.1


Tree=61
num_leaves=5
num_cat=0
split_feature=98 1 16 46
split_gain=9.61589 13.5494 20.1166 7.00745
threshold=-0.48478086785518842 -0.35625757175672951 -0.12728541305858418 -0.36725263007833975
decision_type=2 2 2 2
left_child=-1 -2 -3 -4
right_child=1 2 3 -5
leaf_value=-0.014837061919097254 -0.012818492599739231 0.037570509476530456 0.013607728091544764 -0.014339793628649173
leaf_weight=317.66922031808645 273.98178785480559 225.11293824575841 176.95457056723535 181.98255874495953
leaf_count=1896 1434 1052 876 1406
internal_value=0 0.00552885 0.0141357 -0.000561777
internal_weight=0 858.032 584.05 358.937
internal_count=6664 4768 3334 2282
is_linear=0
shrinkage=0.1


Tree=62
num_leaves=6
num_cat=0
split_feature=99 14 32 46 19
split_gain=10.5395 12.5256 11.8229 11.9218 10.4312
threshold=1.0000000180025095e-35 -1.0000000180025095e-35 0.16375029518230808 -0.44590025143205103 -0.16931900276007689
decision_type=2 2 2 2 2
left_child=2 -2 3 -1 -3
right_child=1 4 -4 -5 -6
leaf_value=0.017259176571926001 0.009448491265163405 -0.04127661382011609 0.025596090751956575 -0.016212728634326826 -0.0046815511390060861
leaf_weight=185.64052306301892 184.12726278230548 159.85941783152521 243.41257414594293 249.32360025215894 151.90794718638062
leaf_count=849 957 1108 1119 1668 966
internal_value=0 -0.011232 0.00794868 -0.00192709 -0.0234458
internal_weight=0 495.895 678.377 434.964 311.767
internal_count=6667 3031 3636 2517 2074
is_linear=0
shrinkage=0.1


Tree=63
num_leaves=6
num_cat=0
split_feature=16 1 1 1 39
split_gain=9.66744 20.5832 20.1994 24.4479 12.0646
threshold=0.65921166208474158 0.019066757189708978 -0.074764325046900643 -0.35625757175672951 -0.11413107158364706
decision_type=2 2 2 2 2
left_child=1 2 3 -1 -4
right_child=-2 -3 4 -5 -6
leaf_value=-0.011213553535690106 -0.020094765606167277 0.031381183210156975 -0.053129074055716985 0.031662757160608977 -0.0056570696884613815
leaf_weight=320.19271578546613 197.95684039033949 216.05416518449783 108.13835087791085 227.45558127202094 106.02289200667292
leaf_count=1689 998 876 1051 1043 1029
internal_value=0 0.00413794 -0.00358843 0.00659433 -0.0296275
internal_weight=0 977.864 761.81 547.648 214.161
internal_count=6686 5688 4812 2732 2080
is_linear=0
shrinkage=0.1


Tree=64
num_leaves=5
num_cat=0
split_feature=25 35 0 39
split_gain=10.8838 10.8707 11.8494 10.032
threshold=-0.58469593814686294 -0.37314060434364632 0.34238629428197115 -0.38379385614065226
decision_type=2 2 2 2
left_child=-1 -2 3 -3
right_child=1 2 -4 -5
leaf_value=-0.017470661213632017 0.025021696107822747 0.006537151833201936 0.019091612711795346 -0.022594871267928918
leaf_weight=265.16886048112065 218.02707829978317 216.85425231512636 211.61454558558762 259.85595475230366
leaf_count=1670 1218 1055 1061 1669
internal_value=0 0.00556259 -0.000601082 -0.00934279
internal_weight=0 906.352 688.325 476.71
internal_count=6673 5003 3785 2724
is_linear=0
shrinkage=0.1


Tree=65
num_leaves=5
num_cat=0
split_feature=96 25 17 17
split_gain=8.78589 8.83963 11.9361 9.44744
threshold=-0.77164251454233435 -0.33184361605580109 -0.42329608976641214 -0.15238383370156436
decision_type=2 2 2 2
left_child=-1 3 -3 -2
right_child=1 2 -4 -5
leaf_value=-0.019003972414868359 -0.020259342952968419 0.031218073552910775 -2.9940259426487879e-05 0.0083627760112515801
leaf_weight=204.47215837333351 234.42385793011636 209.51836844161153 293.45603712461889 226.98224300798029
leaf_count=1366 1356 986 1660 1311
internal_value=0 0.00381686 0.0129867 -0.00617909
internal_weight=0 964.381 502.974 461.406
internal_count=6679 5313 2646 2667
is_linear=0
shrinkage=0.1


Tree=66
num_leaves=5
num_cat=0
split_feature=98 47 19 36
split_gain=9.23434 9.60765 11.8359 10.0612
threshold=-0.48478086785518842 -0.51704070508441258 -0.50250470897308286 -0.24072887899654752
decision_type=2 2 2 2
left_child=-1 -2 -3 -4
right_child=1 2 3 -5
leaf_value=-0.014441450279543317 -0.01249207438398587 0.031094002104042708 -0.014431820189023715 0.016450970410579215
leaf_weight=313.86726593226194 218.25863271486014 212.35481258574873 196.16564594395459 228.21847147867084
leaf_count=1896 1203 1088 1170 1317
internal_value=0 0.00561387 0.0118201 0.00217583
internal_weight=0 854.998 636.739 424.384
internal_count=6674 4778 3575 2487
is_linear=0
shrinkage=0.1


Tree=67
num_leaves=5
num_cat=0
split_feature=15 43 99 25
split_gain=9.57855 14.2498 14.2677 10.123
threshold=-0.48644538189981473 -0.69258980363371847 1.0000000180025095e-35 -0.34990449620516273
decision_type=2 2 2 2
left_child=3 -2 -3 -1
right_child=1 2 -4 -5
leaf_value=-0.032041377998249958 0.027596780345484302 0.01168179099179119 -0.018124848623068096 0.0045516695115523651
leaf_weight=164.37313739303499 216.94212187454104 349.31703805550933 297.25072767492384 139.97471373807639
leaf_count=1194 939 1705 1847 990
internal_value=0 0.00541966 -0.00202141 -0.0152116
internal_weight=0 863.51 646.568 304.348
internal_count=6675 4491 3552 2184
is_linear=0
shrinkage=0.1


Tree=68
num_leaves=5
num_cat=0
split_feature=36 98 19 9
split_gain=9.38058 12.8115 9.42474 20.3144
threshold=0.61411325457840193 -0.48478086785518842 -0.50250470897308286 -0.22682784216920127
decision_type=2 2 2 2
left_child=1 -1 -3 -4
right_child=-2 2 3 -5
leaf_value=-0.022016129013887345 0.022038448454163397 0.019772011451396915 -0.030075777991424732 0.011995566571602823
leaf_weight=259.34290906228125 177.5749021442607 246.51216675993055 186.95261702872813 297.25834957882762
leaf_count=1633 876 1273 1343 1544
internal_value=0 -0.00292167 0.00385519 -0.00424807
internal_weight=0 990.066 730.723 484.211
internal_count=6669 5793 4160 2887
is_linear=0
shrinkage=0.1


Tree=69
num_leaves=6
num_cat=0
split_feature=99 32 32 37 16
split_gain=8.54337 11.6636 9.1184 10.057 5.51801
threshold=1.0000000180025095e-35 0.16375029518230808 0.16375029518230808 0.18586159315805242 -0.071538426043109241
decision_type=2 2 2 2 2
left_child=2 4 3 -1 -2
right_child=1 -3 -4 -5 -6
leaf_value=0.013732547072329694 0.014120508787620056 -0.031252033245844697 0.022945258060002229 -0.016910335385586502 -0.011948568473153346
leaf_weight=217.22841065935791 162.90098615549505 169.21584616787732 240.76379180513322 211.27483015134931 161.88369467295706
leaf_count=1086 876 1043 1121 1423 1127
internal_value=0 -0.00996431 0.00737338 -0.00137602 0.0011268
internal_weight=0 494.001 669.267 428.503 324.785
internal_count=6676 3046 3630 2509 2003
is_linear=0
shrinkage=0.1


Tree=70
num_leaves=5
num_cat=0
split_feature=39 10 47 42
split_gain=8.11077 9.11588 15.0538 11.4759
threshold=-0.77986107095875368 -0.17116889127892912 0.27632871827523225 0.097014330461988665
decision_type=2 2 2 2
left_child=-1 -2 3 -3
right_child=1 2 -4 -5
leaf_value=0.017436372674076772 0.0093281218637407178 -0.036881220250505199 0.012509699642279978 -0.0035576694700355967
leaf_weight=223.77746467292309 340.99993959628046 226.75506469607353 186.17574139032513 189.88268100563437
leaf_count=979 1709 1831 1047 1124
internal_value=0 -0.00373872 -0.0111304 -0.021694
internal_weight=0 943.813 602.813 416.638
internal_count=6690 5711 4002 2955
is_linear=0
shrinkage=0.1


Tree=71
num_leaves=5
num_cat=0
split_feature=1 16 44 27
split_gain=8.72963 11.4208 11.9405 14.6398
threshold=-0.46833358665045766 0.60439379151952444 0.049007569292050697 0.25495428220592259
decision_type=2 2 2 2
left_child=-1 2 -2 -4
right_child=1 -3 3 -5
leaf_value=-0.017681764521607107 0.025849812555437057 -0.019082173662608552 -0.015140144443113124 0.020285548444658689
leaf_weight=230.08418227080256 278.22968560736626 173.30537211894989 276.66958971880376 201.6968509843573
leaf_count=1233 1177 891 1953 1417
internal_value=0 0.00407339 0.00937739 -0.000203372
internal_weight=0 929.901 756.596 478.366
internal_count=6671 5438 4547 3370
is_linear=0
shrinkage=0.1


Tree=72
num_leaves=5
num_cat=0
split_feature=42 22 37 46
split_gain=8.27254 10.5787 18.035 10.1653
threshold=0.55248291912891567 -0.91166546469694743 0.18586159315805242 -0.32792881940148411
decision_type=2 2 2 2
left_child=1 -1 -3 -4
right_child=-2 2 3 -5
leaf_value=0.013558461205058533 0.011976325383664492 0.0034236982503026794 -0.052296315594738976 -0.01452075997867735
leaf_weight=198.40990409068763 347.50912887975574 317.24626265652478 126.96207572706044 162.29693164117634
leaf_count=1021 1646 1683 881 1420
internal_value=0 -0.0064852 -0.0130422 -0.0311013
internal_weight=0 804.915 606.505 289.259
internal_count=6651 5005 3984 2301
is_linear=0
shrinkage=0.1


Tree=73
num_leaves=5
num_cat=0
split_feature=14 33 43 19
split_gain=8.1281 10.7934 10.904 29.411
threshold=-0.77897126866191513 -0.48341709340078348 0.33394667196542471 -0.39144280690208094
decision_type=2 2 2 2
left_child=-1 -2 3 -3
right_child=1 2 -4 -5
leaf_value=0.019068644758591619 -0.026685518193464392 -0.033984218402612766 0.016266050733775912 0.014441444366209347
leaf_weight=186.19635611213744 169.27774196863174 232.43467388115823 298.07765214238316 272.40012582577765
leaf_count=920 1344 1324 1680 1419
internal_value=0 -0.00373793 0.0011001 -0.00785457
internal_weight=0 972.19 802.912 504.835
internal_count=6687 5767 4423 2743
is_linear=0
shrinkage=0.1


Tree=74
num_leaves=7
num_cat=0
split_feature=20 16 1 1 1 33
split_gain=7.99339 8.01655 11.1576 14.6883 20.1798 10.6432
threshold=-0.93969181329563434 0.60439379151952444 -0.35625757175672951 -0.13731837987130704 0.10507858257326781 0.13079421460945043
decision_type=2 2 2 2 2 2
left_child=-1 2 -2 -4 5 -5
right_child=1 -3 3 4 -6 -7
leaf_value=0.019311582881074985 -0.016505297626009982 -0.023572649898931847 0.033238041483580651 -0.042356813476952457 0.02632706069521944 0.00069582965326387628
leaf_weight=174.91287750005722 266.55470608081669 170.93640185147524 166.2494008038193 115.72031454648823 148.30112080276012 113.97808577585965
leaf_count=855 1464 895 768 1338 613 740
internal_value=0 -0.00389216 0.000256952 0.00846654 -0.00242831 -0.0209938
internal_weight=0 981.74 810.804 544.249 378 229.698
internal_count=6673 5818 4923 3459 2691 2078
is_linear=0
shrinkage=0.1


Tree=75
num_leaves=5
num_cat=0
split_feature=39 67 10 17
split_gain=7.80798 9.65756 14.7994 11.2221
threshold=-0.75458018490653445 1.0000000180025095e-35 0.2851113558703135 -0.036278581102343853
decision_type=2 2 2 2
left_child=-1 3 -3 -2
right_child=1 2 -4 -5
leaf_value=0.016491474539262595 -0.0086821003392124809 -0.0018910150674169 -0.049665674405044026 0.018061788254209843
leaf_weight=236.01731969974935 363.08468403294683 176.73354936391115 102.41582343913615 276.29997690394521
leaf_count=1048 1557 1817 1154 1097
internal_value=0 -0.00390037 -0.0194188 0.00287485
internal_weight=0 918.534 279.149 639.385
internal_count=6673 5625 2971 2654
is_linear=0
shrinkage=0.1


Tree=76
num_leaves=6
num_cat=0
split_feature=17 98 26 99 27
split_gain=7.67956 11.4789 17.7547 16.6502 9.03795
threshold=-0.88771710016329408 -1.0000000180025095e-35 -0.074932608713988033 -0.58288025313195424 0.097599282238479801
decision_type=2 2 2 2 2
left_child=-1 2 -2 -4 -3
right_child=1 4 3 -5 -6
leaf_value=0.016903299998269034 0.014396231673276439 -0.0061761336491763076 0.0012613980860837887 -0.040232281739286432 0.025375362118114309
leaf_weight=208.63109984062612 166.91425862722099 181.39300621952862 156.94335415400565 251.96335856616497 181.76065943483263
leaf_count=1060 732 1004 971 1845 1058
internal_value=0 -0.00430706 -0.0130877 -0.0243065 0.00961559
internal_weight=0 938.975 575.821 408.907 363.154
internal_count=6670 5610 3548 2816 2062
is_linear=0
shrinkage=0.1


Tree=77
num_leaves=5
num_cat=0
split_feature=96 25 4 17
split_gain=8.18321 7.92378 11.3878 9.12387
threshold=-0.77164251454233435 -0.33184361605580109 -0.038987669430893268 -0.15238383370156436
decision_type=2 2 2 2
left_child=-1 3 -3 -2
right_child=1 2 -4 -5
leaf_value=-0.019083411232427478 -0.020415088948955724 0.027008116979819613 -0.0033209050380093559 0.0080168778492864887
leaf_weight=200.18192081246525 229.13386532198638 248.62505338340998 246.58548504207283 222.43171890731901
leaf_count=1366 1358 1023 1625 1306
internal_value=0 0.00317016 0.0119061 -0.0064101
internal_weight=0 946.776 495.211 451.566
internal_count=6678 5312 2648 2664
is_linear=0
shrinkage=0.1


Tree=78
num_leaves=6
num_cat=0
split_feature=22 96 37 10 37
split_gain=6.94023 11.3032 11.4772 9.71568 8.09467
threshold=0.96430788508914456 0.41748064729639017 0.7317829479564909 -1.0000000180025095e-35 -0.032508149788909348
decision_type=2 2 2 2 2
left_child=1 2 4 -3 -1
right_child=-2 3 -4 -5 -6
leaf_value=-0.0091619949048199235 0.015500123026499611 0.025109627354806055 0.0079595398455944311 -0.0063608509007010905 -0.039959026524013959
leaf_weight=178.94780739303678 243.72423396632075 194.72299172915518 169.68830675724894 197.69728888571262 163.16309288702905
leaf_count=909 1071 891 1171 1286 1350
internal_value=0 -0.00351333 -0.0133035 0.00925513 -0.02385
internal_weight=0 904.219 511.799 392.42 342.111
internal_count=6678 5607 3430 2177 2259
is_linear=0
shrinkage=0.1


Tree=79
num_leaves=5
num_cat=0
split_feature=37 19 17 45
split_gain=7.13979 16.4768 18.9806 10.9177
threshold=1.0320373865767565 -0.24336027080741157 -0.11368208283515752 -0.0096570735599451028
decision_type=2 2 2 2
left_child=1 3 -3 -1
right_child=-2 2 -4 -5
leaf_value=0.00076174830738649649 0.018889473145041389 0.026994651277406048 -0.012993702512987763 -0.029712599644438772
leaf_weight=215.94467684347183 185.30369052663445 285.05024389456958 203.39344932045788 258.03874262887985
leaf_count=1059 1055 1419 1391 1743
internal_value=0 -0.00254618 0.0103431 -0.0158286
internal_weight=0 962.427 488.444 473.983
internal_count=6667 5612 2810 2802
is_linear=0
shrinkage=0.1


Tree=80
num_leaves=6
num_cat=0
split_feature=14 0 33 2 27
split_gain=7.22154 9.94818 14.5853 19.5189 20.8747
threshold=-0.77897126866191513 0.62891122073697125 1.0800327489238521 -0.18734141331563647 -0.34299471767035983
decision_type=2 2 2 2 2
left_child=-1 2 3 -2 -5
right_child=1 -3 -4 4 -6
leaf_value=0.018363997441369306 -0.0016774744927463736 0.016581330817984505 0.015530401164247332 -0.0095563414357140927 -0.070740300855543739
leaf_weight=183.86346165649593 348.98300940729678 200.05392402503639 190.00592063739896 113.76397878304124 109.37360230181366
leaf_count=918 1828 1100 765 824 1241
internal_value=0 -0.00326516 -0.00847475 -0.0164471 -0.0395464
internal_weight=0 962.18 762.127 572.121 223.138
internal_count=6676 5758 4658 3893 2065
is_linear=0
shrinkage=0.1


Tree=81
num_leaves=5
num_cat=0
split_feature=98 47 0 32
split_gain=6.29403 8.52003 12.8364 20.719
threshold=-0.48478086785518842 -0.51704070508441258 -1.0000000180025095e-35 -0.22400225840838325
decision_type=2 2 2 2
left_child=-1 -2 -3 -4
right_child=1 2 3 -5
leaf_value=-0.011883257109850019 -0.01242209897051162 -0.0053822873687067027 0.050611915451760942 0.0015771194602092664
leaf_weight=307.71160574443638 213.16551407705992 275.939582105726 155.76980700250715 192.85958609450608
leaf_count=1898 1203 1351 898 1338
internal_value=0 0.00484022 0.0107319 0.0234862
internal_weight=0 837.734 624.569 348.629
internal_count=6688 4790 3587 2236
is_linear=0
shrinkage=0.1


Tree=82
num_leaves=5
num_cat=0
split_feature=99 6 6 32
split_gain=7.49323 9.7622 11.7626 7.98272
threshold=0.64196892527048177 1.0000000180025095e-35 -0.33392530705124562 -0.094751400030884295
decision_type=2 2 2 2
left_child=1 2 -1 -4
right_child=-2 -3 3 -5
leaf_value=0.015103841871643845 -0.016723750040081992 0.024848199303159509 0.0031468994953972556 -0.023137966731736792
leaf_weight=282.63319369405508 212.64070193748921 182.07560660969466 218.12263210956007 245.6825390951708
leaf_count=1312 1418 780 1442 1713
internal_value=0 0.00408708 -0.00097709 -0.0107765
internal_weight=0 928.514 746.438 463.805
internal_count=6665 5247 4467 3155
is_linear=0
shrinkage=0.1


Tree=83
num_leaves=6
num_cat=0
split_feature=44 22 22 37 4
split_gain=6.41531 7.93181 11.8254 11.6626 13.353
threshold=-1.0282840693134829 0.63185691170933078 -0.84042597040127298 0.18586159315805242 0.68321389465988858
decision_type=2 2 2 2 2
left_child=-1 2 -2 -4 -5
right_child=1 -3 3 4 -6
leaf_value=0.017800213731749316 0.015580218424142806 0.0094402040678178752 -0.0014639560535821203 -0.055118644964728986 -0.0087334616811030937
leaf_weight=173.66231175139546 144.14125783182681 332.77237918041646 244.08890221267939 125.85690922103822 122.43422411754727
leaf_count=647 908 1558 1420 1224 921
internal_value=0 -0.00307077 -0.00961149 -0.0169862 -0.0322458
internal_weight=0 969.294 636.521 492.38 248.291
internal_count=6678 6031 4473 3565 2145
is_linear=0
shrinkage=0.1


Tree=84
num_leaves=5
num_cat=0
split_feature=25 35 15 6
split_gain=6.41773 8.25401 9.8108 5.03444
threshold=-0.58469593814686294 -0.53455091730297999 -0.39208734609501367 -0.027436772560658483
decision_type=2 2 2 2
left_child=-1 -2 -3 -4
right_child=1 2 3 -5
leaf_value=-0.013157972659428788 0.02274774495283903 -0.017122510704415332 0.018248272376314444 -0.0029201185010817063
leaf_weight=258.53574984055012 197.83164447266608 232.67505009658635 235.87005798239261 214.54270673263818
leaf_count=1668 1162 1644 991 1205
internal_value=0 0.0047609 -0.000448332 0.00816525
internal_weight=0 880.919 683.088 450.413
internal_count=6670 5002 3840 2196
is_linear=0
shrinkage=0.1


Tree=85
num_leaves=6
num_cat=0
split_feature=1 16 0 32 19
split_gain=6.92255 8.89365 8.90205 9.10224 15.091
threshold=-0.46833358665045766 0.60439379151952444 -0.51718848508302839 0.33608483046379017 -0.50250470897308286
decision_type=2 2 2 2 2
left_child=-1 2 -2 4 -4
right_child=1 -3 3 -5 -6
leaf_value=-0.015606125656425805 0.028275298327440385 -0.016586816604570759 0.035256635364308918 -0.017399937186043386 -0.0047658809772826534
leaf_weight=226.65837698429823 176.65762949176133 171.41334195062518 153.4440849032253 162.63135985750705 244.06798135209829
leaf_count=1232 753 892 855 1046 1888
internal_value=0 0.00392946 0.00870248 0.00252962 0.0106833
internal_weight=0 908.214 736.801 560.143 397.512
internal_count=6666 5434 4542 3789 2743
is_linear=0
shrinkage=0.1


Tree=86
num_leaves=5
num_cat=0
split_feature=39 47 40 99
split_gain=6.07653 7.54034 10.5523 11.3509
threshold=-0.88098461516763071 -0.51704070508441258 0.19960759179024357 1.0000000180025095e-35
decision_type=2 2 2 2
left_child=-1 -2 3 -3
right_child=1 2 -4 -5
leaf_value=0.017404235947036887 -0.020162661532249687 0.0074158299545784394 0.022867712184256497 -0.020670418196114326
leaf_weight=173.30695018917322 201.06018478423357 328.20934278611094 178.73971127625555 256.23183645308018
leaf_count=733 1258 1943 917 1830
internal_value=0 -0.00293393 0.00160498 -0.0048978
internal_weight=0 964.241 763.181 584.441
internal_count=6681 5948 4690 3773
is_linear=0
shrinkage=0.1


Tree=87
num_leaves=5
num_cat=0
split_feature=98 14 43 37
split_gain=6.38882 7.8255 8.67182 6.41391
threshold=-0.48478086785518842 0.25910905855027039 -0.28584893594349192 0.56800509482465122
decision_type=2 2 2 2
left_child=-1 2 -2 -4
right_child=1 -3 3 -5
leaf_value=-0.012135303078685218 0.024491816091568433 -0.012582706628551491 -0.011216388115537552 0.014938561699829151
leaf_weight=304.75323658576235 254.4509516004473 197.53764601796865 207.20977657102048 171.24544961564243
leaf_count=1900 1340 934 1341 1154
internal_value=0 0.00479313 0.0102163 0.000618344
internal_weight=0 830.444 632.906 378.455
internal_count=6669 4769 3835 2495
is_linear=0
shrinkage=0.1


Tree=88
num_leaves=6
num_cat=0
split_feature=20 5 0 47 3
split_gain=6.23441 6.3439 9.00694 9.38372 7.41697
threshold=-0.93969181329563434 0.018201588372360598 -1.0000000180025095e-35 -0.21027116777938223 -0.23174309132974391
decision_type=2 2 2 2 2
left_child=-1 4 -3 -4 -2
right_child=1 2 3 -5 -6
leaf_value=0.017418780839990267 -0.027276491968772267 -0.012244443504246272 -0.0035385220806390299 0.0313913381352868 -0.0013291746552370244
leaf_weight=171.06919271219522 185.15444578230381 197.98370639141649 144.31518345139921 164.66394655732438 272.00241404771805
leaf_count=860 958 1103 1009 1158 1593
internal_value=0 -0.00329601 0.00440695 0.0150766 -0.0118382
internal_weight=0 964.12 506.963 308.979 457.157
internal_count=6681 5821 3270 2167 2551
is_linear=0
shrinkage=0.1


Tree=89
num_leaves=6
num_cat=0
split_feature=96 0 22 41 44
split_gain=6.28717 7.48594 11.0318 8.76394 7.42546
threshold=-0.77164251454233435 -0.98279149057240323 0.63185691170933078 -0.19972232829413702 0.14694418183544242
decision_type=2 2 2 2 2
left_child=-1 -2 3 -3 -5
right_child=1 2 -4 4 -6
leaf_value=-0.016188303034788815 0.021512439408604738 0.011903539438977637 0.018834570329523532 -0.0027129169016017352 -0.030039275414622729
leaf_weight=199.91482606343925 182.62891985476017 153.44313782546669 203.72312257438898 201.03826524503529 196.76625031698495
leaf_count=1367 759 1236 922 958 1445
internal_value=0 0.00334496 -0.00104979 -0.0083984 -0.0162294
internal_weight=0 937.6 754.971 551.248 397.805
internal_count=6687 5320 4561 3639 2403
is_linear=0
shrinkage=0.1


Tree=90
num_leaves=5
num_cat=0
split_feature=37 9 19 47
split_gain=5.91443 15.3196 30.9175 13.8589
threshold=1.0320373865767565 -0.42979113367784688 -0.16931900276007689 -0.15737987006787005
decision_type=2 2 2 2
left_child=1 3 -3 -1
right_child=-2 2 -4 -5
leaf_value=-0.044689367273086256 0.01577806168536745 -0.018641900128550951 0.024924873766035676 -0.001149384162549926
leaf_weight=145.57278899755329 184.47942696046084 303.97375838737935 350.9561675041914 146.85724960640073
leaf_count=1136 1056 1828 1749 911
internal_value=0 -0.00379313 0.00470415 -0.0228238
internal_weight=0 947.36 654.93 292.43
internal_count=6680 5624 3577 2047
is_linear=0
shrinkage=0.1


Tree=91
num_leaves=5
num_cat=0
split_feature=43 96 38 99
split_gain=6.09924 14.9219 13.0556 11.5998
threshold=1.1086911818515708 0.41748064729639017 -0.026230007841699963 1.0000000180025095e-35
decision_type=2 2 2 2
left_child=1 3 -3 -1
right_child=-2 2 -4 -5
leaf_value=-0.00062324618261554144 0.017617152276865101 -0.0057798846054945251 0.030363933402099752 -0.029773704571394801
leaf_weight=315.2073025861755 175.75438173953444 202.21991371642798 197.58482541330159 240.78724832460284
leaf_count=1853 1015 1121 997 1672
internal_value=0 -0.00265216 0.0120825 -0.0132476
internal_weight=0 955.799 399.805 555.995
internal_count=6658 5643 2118 3525
is_linear=0
shrinkage=0.1


Tree=92
num_leaves=6
num_cat=0
split_feature=36 98 45 2 22
split_gain=5.90015 10.1334 11.359 13.2619 8.73073
threshold=0.61411325457840193 -1.0000000180025095e-35 -0.27048945182652528 -0.17027786575159012 -0.033045035050296837
decision_type=2 2 2 2 2
left_child=1 2 -1 -4 -3
right_child=-2 4 3 -5 -6
leaf_value=0.010397721466293065 0.016648921728608202 -0.0055544329539394151 -0.0055571830256961946 -0.041316036639685409 0.025753804715468644
leaf_weight=172.36583533324301 173.23982335720211 179.63454004563391 257.2156296800822 173.78879927378148 176.6717285476625
leaf_count=860 885 1131 1370 1529 902
internal_value=0 -0.00340244 -0.0112989 -0.0199758 0.00996952
internal_weight=0 959.677 603.37 431.004 356.306
internal_count=6677 5792 3759 2899 2033
is_linear=0
shrinkage=0.1


Tree=93
num_leaves=6
num_cat=0
split_feature=96 17 45 43 22
split_gain=6.00746 6.37388 6.29571 9.63584 12.7845
threshold=-0.77164251454233435 -0.88771710016329408 -0.29599707469321407 0.33394667196542471 0.10943395354105191
decision_type=2 2 2 2 2
left_child=-1 -2 -3 4 -4
right_child=1 2 3 -5 -6
leaf_value=-0.016371784130868237 0.01951779387650689 0.015443708387102857 -0.037174150466605792 0.0087713816907606258 0.0022129218673816813
leaf_weight=196.56556055136025 184.38233003299683 173.59030464291573 164.50113187776878 244.03172706719488 165.13629573956132
leaf_count=1364 939 837 1147 1525 860
internal_value=0 0.00286629 -0.00124238 -0.00629154 -0.0174427
internal_weight=0 931.642 747.259 573.669 329.637
internal_count=6672 5308 4369 3532 2007
is_linear=0
shrinkage=0.1


Tree=94
num_leaves=6
num_cat=0
split_feature=44 17 96 98 9
split_gain=7.24176 7.43114 20.716 13.587 10.0081
threshold=-1.0282840693134829 -0.26848908630078483 0.41748064729639017 -1.0000000180025095e-35 -0.28652295599884242
decision_type=2 2 2 2 2
left_child=-1 2 -2 4 -3
right_child=1 3 -4 -5 -6
leaf_value=0.018813078890011051 -0.038572091856341972 0.0097841054517153782 0.0068203487472820335 0.023528261096794224 -0.024903735991270996
leaf_weight=172.22501446679235 183.73136485833675 157.11486295890063 222.04744923207909 217.76004906930029 176.74330024467781
leaf_count=643 1275 1065 1210 1312 1162
internal_value=0 -0.00346072 -0.0137328 0.00409554 -0.00857951
internal_weight=0 957.397 405.779 551.618 333.858
internal_count=6667 6024 2485 3539 2227
is_linear=0
shrinkage=0.1


Tree=95
num_leaves=6
num_cat=0
split_feature=44 6 19 9 36
split_gain=5.80329 7.91114 14.6357 18.4544 21.4065
threshold=-1.0282840693134829 0.13823270554236167 -0.50250470897308286 -0.42979113367784688 -0.24072887899654752
decision_type=2 2 2 2 2
left_child=-1 2 -2 -4 -5
right_child=1 -3 3 4 -6
leaf_value=0.017316581077371999 0.012263311878291962 0.017217970920296619 -0.046693576620538406 -0.032165123138201364 0.015627757395031191
leaf_weight=170.94184977933764 267.04956104792655 165.41159809287637 146.08087749406695 164.33665361627936 218.08713682834059
leaf_count=643 1614 726 1368 1100 1234
internal_value=0 -0.0026804 -0.00681767 -0.0164591 -0.00490999
internal_weight=0 960.966 795.554 528.505 382.424
internal_count=6685 6042 5316 3702 2334
is_linear=0
shrinkage=0.1


Tree=96
num_leaves=5
num_cat=0
split_feature=36 99 99 4
split_gain=6.33123 9.72301 10.0879 13.3757
threshold=-0.71236614691365774 0.64196892527048177 -1.0000000180025095e-35 0.47479330733545894
decision_type=2 2 2 2
left_child=-1 2 3 -2
right_child=1 -3 -4 -5
leaf_value=0.01394365476765331 0.0055211128797888172 -0.025862560258892893 0.01712005537681063 -0.030100811473551536
leaf_weight=256.27251796517521 281.42532769870013 164.12324379198253 253.54462121613324 168.53591040614992
leaf_count=1290 1556 1189 1465 1165
internal_value=0 -0.00394551 0.0011676 -0.00782131
internal_weight=0 867.629 703.506 449.961
internal_count=6665 5375 4186 2721
is_linear=0
shrinkage=0.1


Tree=97
num_leaves=5
num_cat=0
split_feature=40 19 9 43
split_gain=4.93735 8.4414 14.8756 10.6629
threshold=0.46256704165360579 -0.24336027080741157 -0.22682784216920127 0.33394667196542471
decision_type=2 2 2 2
left_child=1 3 -3 -1
right_child=-2 2 -4 -5
leaf_value=-0.026221149818663799 0.01530311755168879 -0.018359414528601844 0.01775704530668875 0.0052774248250611697
leaf_weight=262.52395745925605 168.69691143091768 172.3932923572138 336.92667734250426 181.96450238395482
leaf_count=1654 870 1387 1684 1081
internal_value=0 -0.00325599 0.00553244 -0.0133263
internal_weight=0 953.808 509.32 444.488
internal_count=6676 5806 3071 2735
is_linear=0
shrinkage=0.1


Tree=98
num_leaves=5
num_cat=0
split_feature=16 1 39 99
split_gain=5.6034 9.97633 11.0955 11.3621
threshold=0.60439379151952444 0.019066757189708978 0.062835130781887655 1.0000000180025095e-35
decision_type=2 2 2 2
left_child=1 2 3 -1
right_child=-2 -3 -4 -5
leaf_value=0.0022156565794138211 -0.014921646494903018 0.02317251377638168 0.014161211961749784 -0.02981268021614716
leaf_weight=258.49316300824285 199.52572613675147 202.45661038905382 268.26381460856646 193.80503404745832
leaf_count=1577 1035 865 1722 1474
internal_value=0 0.00355925 -0.0019515 -0.0115081
internal_weight=0 923.019 720.562 452.298
internal_count=6673 5638 4773 3051
is_linear=0
shrinkage=0.1


Tree=99
num_leaves=6
num_cat=0
split_feature=39 16 67 10 17
split_gain=5.01167 5.88946 7.83486 12.6941 5.45525
threshold=-0.83042284306319225 0.47664027960906102 1.0000000180025095e-35 0.14822728172554125 -0.074980331968750674
decision_type=2 2 2 2 2
left_child=-1 2 4 -4 -2
right_child=1 -3 3 -5 -6
leaf_value=0.014786260921102337 -0.0023128517323476763 -0.019933355027156485 0.0055316592903672263 -0.04267331090340773 0.017820179046341107
leaf_weight=189.78279185201973 284.4053533859551 168.99095347803086 127.89829258155078 95.358570895157754 255.48323181271553
leaf_count=841 1234 938 1434 1195 1038
internal_value=0 -0.00304179 0.000698679 -0.0150579 0.0072144
internal_weight=0 932.136 763.145 223.257 539.889
internal_count=6680 5839 4901 2629 2272
is_linear=0
shrinkage=0.1


Tree=100
num_leaves=5
num_cat=0
split_feature=14 37 96 45
split_gain=5.0479 9.14139 18.8909 8.28987
threshold=-0.77897126866191513 0.75907821046201651 1.0000000180025095e-35 -0.070604492107739711
decision_type=2 2 2 2
left_child=-1 2 -2 -4
right_child=1 -3 3 -5
leaf_value=0.015221506478300457 -0.033004936176929234 0.013942344185122788 0.0172702397795703 -0.0092546822155805033
leaf_weight=179.68864708580077 220.94959568418562 235.98199929390103 209.37331372778863 269.4716989682056
leaf_count=921 1574 1477 947 1743
internal_value=0 -0.00307791 -0.00881741 0.00234325
internal_weight=0 935.777 699.795 478.845
internal_count=6662 5741 4264 2690
is_linear=0
shrinkage=0.1


Tree=101
num_leaves=6
num_cat=0
split_feature=44 6 19 36 27
split_gain=5.14026 7.11617 11.6661 15.9187 5.14863
threshold=-1.0282840693134829 0.13823270554236167 -0.50250470897308286 -0.24072887899654752 -0.15416871770942855
decision_type=2 2 2 2 2
left_child=-1 2 -2 -4 -5
right_child=1 -3 3 4 -6
leaf_value=0.015384249819073985 0.0095870548964499258 0.015470692072348162 -0.03648558523554804 0.012141150281811538 -0.014208188597075708
leaf_weight=169.07724081352353 264.49926408845931 162.88459940999746 221.80705010145903 147.91515117697418 148.71523856977001
leaf_count=645 1619 720 1645 891 1151
internal_value=0 -0.0035463 -0.00750266 -0.0162216 -0.00106905
internal_weight=0 945.821 782.937 518.437 296.63
internal_count=6671 6026 5306 3687 2042
is_linear=0
shrinkage=0.1


Tree=102
num_leaves=6
num_cat=0
split_feature=43 37 26 10 15
split_gain=4.83968 7.6738 13.6168 16.0776 7.01942
threshold=-0.88627593110525493 1.0320373865767565 -0.078337468326536583 -0.17116889127892912 -0.30630731354519458
decision_type=2 2 2 2 2
left_child=-1 2 -2 -4 -5
right_child=1 -3 3 4 -6
leaf_value=0.015626601562624708 0.015059390074091128 0.017082555009688145 0.005860420663877949 -0.045599495440617081 -0.016285272947503312
leaf_weight=177.07141690980643 211.02074988931417 166.36611636634916 226.16349524259567 141.26609874516726 193.67625256907195
leaf_count=900 966 960 1194 1459 1185
internal_value=0 -0.00239801 -0.00659539 -0.0147393 -0.0286489
internal_weight=0 938.493 772.127 561.106 334.942
internal_count=6664 5764 4804 3838 2644
is_linear=0
shrinkage=0.1


Tree=103
num_leaves=5
num_cat=0
split_feature=99 99 0 9
split_gain=4.62745 7.6377 11.8906 17.1404
threshold=0.64196892527048177 -1.0000000180025095e-35 -0.69626656411740317 -0.035803597304517647
decision_type=2 2 2 2
left_child=1 2 -1 -4
right_child=-2 -3 3 -5
leaf_value=0.017386209598968343 -0.013345723003746056 0.015534437098335276 0.0030460289584145032 -0.039675502553522514
leaf_weight=184.1589605268091 206.3873378620483 324.57072242442518 244.59592138510197 152.44527588784695
leaf_count=794 1415 1821 1588 1042
internal_value=0 0.00324646 -0.00361574 -0.013357
internal_weight=0 905.771 581.2 397.041
internal_count=6660 5245 3424 2630
is_linear=0
shrinkage=0.1


Tree=104
num_leaves=6
num_cat=0
split_feature=16 1 47 40 38
split_gain=4.77208 8.38918 8.82297 11.0961 6.7401
threshold=0.60439379151952444 0.094652906769200088 -0.53819720301249818 -0.037454336495666242 -0.11593949307703373
decision_type=2 2 2 2 2
left_child=1 2 -1 4 -4
right_child=-2 -3 3 -5 -6
leaf_value=-0.020984780416933742 -0.01440661362262142 0.022326191795567871 -0.020437499076402972 0.022975554905437276 0.0072740295095323169
leaf_weight=182.88351626275107 197.06189166195691 176.61095058359206 173.35499041201547 202.72864072071388 177.7802234259434
leaf_count=1156 1032 752 1225 1232 1278
internal_value=0 0.00275173 -0.0019406 0.00434771 -0.00640712
internal_weight=0 913.358 736.747 553.864 351.135
internal_count=6675 5643 4891 3735 2503
is_linear=0
shrinkage=0.1


Tree=105
num_leaves=6
num_cat=0
split_feature=36 43 9 19 3
split_gain=4.86879 8.35658 15.807 10.361 7.54699
threshold=0.61411325457840193 1.0699539563572633 -0.19101082759699226 -0.39144280690208094 -0.22827205670075487
decision_type=2 2 2 2 2
left_child=1 2 4 -4 -1
right_child=-2 -3 3 -5 -6
leaf_value=-0.037309326157322881 0.01595816165037986 0.017880041902147006 -0.012515317665431517 0.018697795024795787 -0.0074909379718726705
leaf_weight=176.98004052042961 168.66390042752028 166.0147419963032 181.95292602898553 255.93545986665413 163.10615564230829
leaf_count=1201 878 966 1165 1287 1178
internal_value=0 -0.00248757 -0.00683389 0.00572801 -0.0230084
internal_weight=0 943.989 777.975 437.888 340.086
internal_count=6675 5797 4831 2452 2379
is_linear=0
shrinkage=0.1


Tree=106
num_leaves=6
num_cat=0
split_feature=17 98 25 25 27
split_gain=4.4828 7.74986 10.0924 8.85907 6.02616
threshold=-0.88771710016329408 -1.0000000180025095e-35 -1.0000000180025095e-35 -0.47633065725069362 0.097599282238479801
decision_type=2 2 2 2 2
left_child=-1 2 3 -2 -3
right_child=1 4 -4 -5 -6
leaf_value=0.013781520268241081 -0.015530736727946557 -0.0042424951777674342 -0.029524093295275528 0.01518348645556461 0.021857164218556643
leaf_weight=200.77270074095577 195.22802381776273 176.42471701093018 180.45010138303041 180.95140219666064 177.43749288888648
leaf_count=1063 1322 1003 1244 981 1056
internal_value=0 -0.00272643 -0.0100824 -0.000756453 0.00884468
internal_weight=0 910.492 556.63 376.179 353.862
internal_count=6669 5606 3547 2303 2059
is_linear=0
shrinkage=0.1


Tree=107
num_leaves=5
num_cat=0
split_feature=99 3 32 24
split_gain=5.11843 8.64273 8.2159 7.88172
threshold=1.0000000180025095e-35 -0.084090618265826408 0.16375029518230808 1.0000000180025095e-35
decision_type=2 2 2 2
left_child=2 -2 3 -1
right_child=1 -3 -4 -5
leaf_value=-0.015007095584876534 -0.016929714656109499 0.011705942824491814 0.021488021054908737 0.012833195971626479
leaf_weight=220.14798611681908 315.63848495855927 158.23869457887486 229.6119590876624 188.98174130450934
leaf_count=1547 1799 1248 1123 969
internal_value=0 -0.0073676 0.00634899 -0.00214734
internal_weight=0 473.877 638.742 409.13
internal_count=6686 3047 3639 2516
is_linear=0
shrinkage=0.1


Tree=108
num_leaves=5
num_cat=0
split_feature=14 33 43 19
split_gain=4.96439 6.91074 7.9108 13.9013
threshold=-0.77897126866191513 -0.38104916248308829 0.33394667196542471 -0.16931900276007689
decision_type=2 2 2 2
left_child=-1 -2 3 -3
right_child=1 2 -4 -5
leaf_value=0.015053915458214027 -0.018722118946389251 -0.023940500411128274 0.015198235643079051 0.011441112130309572
leaf_weight=178.73952334560454 217.99504801305011 226.02642857190222 267.90960938250646 218.28920803871006
leaf_count=919 1804 1259 1521 1187
internal_value=0 -0.00314258 0.00162594 -0.00655776
internal_weight=0 930.22 712.225 444.316
internal_count=6690 5771 3967 2446
is_linear=0
shrinkage=0.1


Tree=109
num_leaves=5
num_cat=0
split_feature=32 25 40 0
split_gain=4.34951 6.04002 7.4972 11.1205
threshold=0.7669210609584648 -0.56663505799750136 -0.43488166693616803 1.0000000180025095e-35
decision_type=2 2 2 2
left_child=1 -1 -3 -4
right_child=-2 2 3 -5
leaf_value=-0.011638522735894045 -0.014828998129944227 0.019176523324950866 -0.015154058346348821 0.018150103277345002
leaf_weight=224.61990500194952 167.35535157285631 300.85305751441047 245.56106755044311 169.43988483492285
leaf_count=1518 991 1694 1583 891
internal_value=0 0.00266799 0.00715707 -0.00155637
internal_weight=0 940.474 715.854 415.001
internal_count=6677 5686 4168 2474
is_linear=0
shrinkage=0.1


Tree=110
num_leaves=5
num_cat=0
split_feature=1 98 24 16
split_gain=5.04807 6.80143 9.01435 6.42447
threshold=-0.46833358665045766 -0.48478086785518842 -0.59489592845826678 -0.071538426043109241
decision_type=2 2 2 2
left_child=-1 -2 -3 -4
right_child=1 2 3 -5
leaf_value=-0.013348271261595511 -0.010849306919494045 0.028411901977426064 0.015352781680125497 -0.0081780491876069002
leaf_weight=221.08514410816133 239.86971810786054 172.91925393976271 200.7271547568962 274.9726880248636
leaf_count=1231 1596 1034 975 1841
internal_value=0 0.00353806 0.00885874 0.00175106
internal_weight=0 888.489 648.619 475.7
internal_count=6677 5446 3850 2816
is_linear=0
shrinkage=0.1


Tree=111
num_leaves=5
num_cat=0
split_feature=28 32 9 10
split_gain=4.70159 6.33671 5.8739 11.7005
threshold=-0.096795360701215374 0.68075340556521347 -0.42979113367784688 0.056971232295692405
decision_type=2 2 2 2
left_child=-1 2 -2 -4
right_child=1 -3 3 -5
leaf_value=-0.014403258290964022 -0.0052623544965228345 -0.014912815085702393 0.026331042980111949 -0.0047805771584543376
leaf_weight=187.29078213777393 262.98003735858947 163.00329647259787 286.97720167506486 208.85575780598447
leaf_count=935 1951 1000 1498 1292
internal_value=0 0.00297589 0.00681863 0.0132261
internal_weight=0 921.816 758.813 495.833
internal_count=6676 5741 4741 2790
is_linear=0
shrinkage=0.1


Tree=112
num_leaves=5
num_cat=0
split_feature=36 19 9 10
split_gain=4.64441 9.18678 15.0475 7.39228
threshold=0.61411325457840193 -0.50250470897308286 -0.40591312396304075 -0.17116889127892912
decision_type=2 2 2 2
left_child=1 -1 -3 -4
right_child=-2 2 3 -5
leaf_value=0.011088165739592756 0.015297469656706067 -0.034776033656500019 0.014901948825836854 -0.01110033307630765
leaf_weight=319.62063040491194 169.42088923882693 173.51498587243259 189.65203120838851 258.16655384190381
leaf_count=1785 883 1487 886 1647
internal_value=0 -0.00268845 -0.00977529 -8.83167e-05
internal_weight=0 940.954 621.334 447.819
internal_count=6688 5805 4020 2533
is_linear=0
shrinkage=0.1


Tree=113
num_leaves=5
num_cat=0
split_feature=99 32 32 37
split_gain=5.06745 8.63284 7.39662 7.03033
threshold=1.0000000180025095e-35 0.16375029518230808 0.16375029518230808 0.18586159315805242
decision_type=2 2 2 2
left_child=2 -2 3 -1
right_child=1 -3 -4 -5
leaf_value=0.010234346599080214 0.0014453643576531219 -0.027208791896560305 0.019766877578699844 -0.016094734636602302
leaf_weight=206.3387246215716 308.91872172150761 159.39310715487227 229.16288278158754 199.44069522805512
leaf_count=1090 1998 1037 1126 1417
internal_value=0 -0.00830727 0.00540464 -0.0027064
internal_weight=0 468.312 634.942 405.779
internal_count=6668 3035 3633 2507
is_linear=0
shrinkage=0.1


Tree=114
num_leaves=4
num_cat=0
split_feature=98 3 12
split_gain=4.59598 6.68884 10.5423
threshold=-0.48478086785518842 -0.072342501060017425 -0.10510388195302374
decision_type=2 2 2
left_child=-1 2 -2
right_child=1 -3 -4
leaf_value=-0.010885171930801961 0.0075095178810743006 0.017517749223698385 -0.021383621771434533
leaf_weight=293.76051465934142 372.92542398255318 244.9131437218748 190.94205913413316
leaf_count=1894 1759 1808 1211
internal_value=0 0.00371891 -0.00227455
internal_weight=0 808.781 563.867
internal_count=6672 4778 2970
is_linear=0
shrinkage=0.1


Tree=115
num_leaves=5
num_cat=0
split_feature=20 39 2 2
split_gain=4.38638 5.04644 8.85719 6.82155
threshold=-0.90006243032020028 -0.37536689412324586 -0.081168228472681486 -0.25796554073349492
decision_type=2 2 2 2
left_child=-1 -2 3 -3
right_child=1 2 -4 -5
leaf_value=0.014740895400773746 0.0075421277011805303 -0.0050130199931080225 0.011439004873695147 -0.030703323809878474
leaf_weight=177.90388272330165 328.87912603933364 251.6180606642738 169.72550086211413 175.41350687108934
leaf_count=936 1815 1421 1468 1020
internal_value=0 -0.00240397 -0.00788537 -0.0155659
internal_weight=0 925.636 596.757 427.032
internal_count=6660 5724 3909 2441
is_linear=0
shrinkage=0.1


Tree=116
num_leaves=4
num_cat=0
split_feature=0 94 42
split_gain=4.90313 8.57967 12.8877
threshold=0.48564875750947117 1.0000000180025095e-35 -0.28254282676045034
decision_type=2 2 2
left_child=1 2 -1
right_child=-2 -3 -4
leaf_value=-0.032087565123410947 0.011068209484104176 0.010931216180175323 -0.00025510264213362654
leaf_weight=193.49933211226016 278.61975676193833 255.14645874733105 371.10901911603287
leaf_count=1426 1623 1637 1977
internal_value=0 -0.0042873 -0.0111645
internal_weight=0 819.755 564.608
internal_count=6663 5040 3403
is_linear=0
shrinkage=0.1


Tree=117
num_leaves=6
num_cat=0
split_feature=33 14 22 42 12
split_gain=3.93468 10.7211 7.23634 8.50935 10.0147
threshold=1.2196266510289113 0.11081186894852955 -0.79293297420415676 0.55248291912891567 -0.11566921207540852
decision_type=2 2 2 2 2
left_child=1 2 -1 4 -4
right_child=-2 -3 3 -5 -6
leaf_value=0.022292071930518392 0.013561943122087564 -0.022712630032552514 0.0050817796039116219 0.014303551674996549 -0.028360427081001179
leaf_weight=155.34058874333277 180.40104090608656 205.63455965556204 182.18491341266781 202.17609124816954 176.10371534433216
leaf_count=932 749 1112 1040 1049 1787
internal_value=0 -0.00258764 0.00319381 -0.00209954 -0.0113555
internal_weight=0 921.44 715.805 560.465 358.289
internal_count=6669 5920 4808 3876 2827
is_linear=0
shrinkage=0.1


Tree=118
num_leaves=5
num_cat=0
split_feature=44 37 42 24
split_gain=4.60315 5.846 9.92853 9.5999
threshold=-1.0282840693134829 1.0320373865767565 -0.43436568964942601 1.0000000180025095e-35
decision_type=2 2 2 2
left_child=-1 2 -2 -4
right_child=1 -3 3 -5
leaf_value=0.015964497189860316 -0.022236527802797147 0.014916680653709928 -0.012699931189174098 0.014480604889666777
leaf_weight=166.44165698625147 247.86220029508695 166.4338995302096 239.33817051816732 284.29031486343592
leaf_count=640 1954 1001 1600 1486
internal_value=0 -0.00208102 -0.00574793 0.00205703
internal_weight=0 937.925 771.491 523.628
internal_count=6681 6041 5040 3086
is_linear=0
shrinkage=0.1


Tree=119
num_leaves=6
num_cat=0
split_feature=17 98 26 99 3
split_gain=3.55713 6.22134 11.4841 9.70504 4.45846
threshold=-0.88771710016329408 -1.0000000180025095e-35 -0.078337468326536583 -0.58288025313195424 -0.22613603539060781
decision_type=2 2 2 2 2
left_child=-1 2 -2 -4 -3
right_child=1 4 3 -5 -6
leaf_value=0.011915202163839079 0.013289563190485049 -0.0033413604905689455 0.0012768090361960792 -0.031113595371816401 0.019237755199702625
leaf_weight=198.26573547627777 157.31268795020878 181.65393152460456 149.97432118374854 241.40398842329159 168.63897503260523
leaf_count=1065 715 997 975 1856 1062
internal_value=0 -0.00288278 -0.00952966 -0.0187017 0.00752874
internal_weight=0 898.984 548.691 391.378 350.293
internal_count=6670 5605 3546 2831 2059
is_linear=0
shrinkage=0.1


Tree=120
num_leaves=5
num_cat=0
split_feature=96 12 2 2
split_gain=3.44865 4.96866 6.40523 6.7317
threshold=-0.77164251454233435 -0.0032403187078575524 -0.16838191602225164 -0.27313313856820276
decision_type=2 2 2 2
left_child=-1 2 3 -2
right_child=1 -3 -4 -5
leaf_value=-0.011647701661000938 -0.006366372530701255 0.018384459382309766 -0.01506073844554724 0.016369056250221389
leaf_weight=193.05134901218116 250.06438310816884 171.77944071777165 214.2676775357686 271.76750421989709
leaf_count=1372 1270 1174 1589 1275
internal_value=0 0.00307047 -0.000503267 0.00547413
internal_weight=0 907.879 736.1 521.832
internal_count=6680 5308 4134 2545
is_linear=0
shrinkage=0.1


Tree=121
num_leaves=5
num_cat=0
split_feature=36 19 1 24
split_gain=3.92686 7.53439 13.6061 9.35407
threshold=-0.71236614691365774 -0.095277734712742215 -0.085190000850968381 1.0000000180025095e-35
decision_type=2 2 2 2
left_child=-1 2 -2 -3
right_child=1 3 -4 -5
leaf_value=0.010886898940367979 0.0021579441068823695 -0.0098656229478445295 -0.032155353812063248 0.022230943975815771
leaf_weight=251.68155542295426 289.16425502300262 167.9698679051362 192.48331150133163 197.63514761999249
leaf_count=1296 1519 1337 1480 1052
internal_value=0 -0.00333889 -0.0115549 0.00748482
internal_weight=0 847.253 481.648 365.605
internal_count=6684 5388 2999 2389
is_linear=0
shrinkage=0.1


Tree=122
num_leaves=6
num_cat=0
split_feature=28 43 37 9 19
split_gain=4.06899 4.85629 11.1348 6.83063 5.56472
threshold=-0.096795360701215374 0.89563644163288048 0.18586022835398164 -0.22682784216920127 -0.095277734712742215
decision_type=2 2 2 2 2
left_child=-1 2 4 -4 -2
right_child=1 -3 3 -5 -6
leaf_value=-0.012835637555944518 -0.00045972454452644754 0.017812906833958798 -0.02995238354203086 -0.00079051081383933969 0.023081883590250193
leaf_weight=186.70336721651256 210.20554853975773 185.41516990680248 148.03155847871676 175.6018466395326 192.23191074887291
leaf_count=937 1058 1156 1223 1240 1065
internal_value=0 0.00336868 -0.000319907 -0.0141293 0.0107854
internal_weight=0 911.486 726.071 323.633 402.437
internal_count=6679 5742 4586 2463 2123
is_linear=0
shrinkage=0.1


Tree=123
num_leaves=6
num_cat=0
split_feature=16 1 1 1 27
split_gain=4.07787 5.44816 7.626 10.9372 8.0722
threshold=0.60439379151952444 0.094652906769200088 -0.074764325046900643 -0.35625757175672951 -0.21711071769640566
decision_type=2 2 2 2 2
left_child=1 2 3 -1 -4
right_child=-2 -3 4 -5 -6
leaf_value=-0.0067944019366640357 -0.013374646671129062 0.018547102726064617 0.0032328072654077252 0.022941009736776929 -0.035258312556008801
leaf_weight=299.82696489058435 195.28548822551966 172.47070217877626 104.38699343102053 210.56844925135374 113.97041149996221
leaf_count=1676 1038 753 891 1031 1298
internal_value=0 0.00256473 -0.00121774 0.00547322 -0.0168574
internal_weight=0 901.224 728.753 510.395 218.357
internal_count=6687 5649 4896 2707 2189
is_linear=0
shrinkage=0.1


Tree=124
num_leaves=6
num_cat=0
split_feature=98 27 9 27 44
split_gain=4.08107 7.60129 8.24479 6.76315 6.60188
threshold=1.0000000180025095e-35 -0.091226717722451486 -0.34621803998094164 -0.059755717728962952 0.37545984314163422
decision_type=2 2 2 2 2
left_child=1 4 -3 -2 -1
right_child=3 2 -4 -5 -6
leaf_value=0.024404677636764294 -0.024788451025231664 0.0099548729691733544 -0.020382254455931312 0.0041582878686415676 -0.0013083865253208501
leaf_weight=219.18989575887099 159.97545702056959 158.07415631879121 206.75863017933443 162.90802564658225 183.40217953268439
leaf_count=1042 967 1088 1310 1064 1204
internal_value=0 0.00321686 -0.00723783 -0.0101836 0.012691
internal_weight=0 767.425 364.833 322.883 402.592
internal_count=6675 4644 2398 2031 2246
is_linear=0
shrinkage=0.1


Tree=125
num_leaves=5
num_cat=0
split_feature=99 32 32 46
split_gain=3.87166 8.43725 6.72131 5.68859
threshold=1.0000000180025095e-35 0.16375029518230808 0.16375029518230808 -0.40657644075519539
decision_type=2 2 2 2
left_child=2 -2 3 -1
right_child=1 -3 -4 -5
leaf_value=0.0098612863647481869 0.0028957132279918644 -0.02558015320247924 0.019117183286859237 -0.013940103367120857
leaf_weight=194.38210778823122 308.38351180357859 157.03663940401748 226.07136509334669 207.72199183655903
leaf_count=994 1999 1037 1124 1518
internal_value=0 -0.00671228 0.00532182 -0.00243422
internal_weight=0 465.42 628.175 402.104
internal_count=6672 3036 3636 2512
is_linear=0
shrinkage=0.1


Tree=126
num_leaves=5
num_cat=0
split_feature=98 98 43 27
split_gain=3.47817 6.73748 12.0194 5.66283
threshold=-0.48478086785518842 1.0000000180025095e-35 1.0000000180025095e-35 -0.059755717728962952
decision_type=2 2 2 2
left_child=-1 2 -2 -3
right_child=1 3 -4 -5
leaf_value=-0.0092522833495650627 0.025714150172408426 -0.020895337257036128 -0.0061717293548702165 0.0054708576495362997
leaf_weight=292.64890575781465 257.37937179999426 161.47240163479 218.64720800286159 164.38912517903373
leaf_count=1895 1356 971 1393 1069
internal_value=0 0.00348451 0.0110684 -0.00759424
internal_weight=0 801.888 476.027 325.862
internal_count=6684 4789 2749 2040
is_linear=0
shrinkage=0.1


Tree=127
num_leaves=5
num_cat=0
split_feature=28 43 9 19
split_gain=3.68749 5.39981 9.35513 9.29384
threshold=-0.096795360701215374 0.89563644163288048 -0.39397411910563779 -0.095277734712742215
decision_type=2 2 2 2
left_child=-1 2 -2 -4
right_child=1 -3 3 -5
leaf_value=-0.013206879306215086 -0.018602747411167984 0.017526749722685701 -0.0083907236692438263 0.019047476707199546
leaf_weight=184.90401739440858 223.6740632886067 185.03211224172264 234.74358349340037 260.37504518311471
leaf_count=933 1718 1157 1504 1361
internal_value=0 0.00229235 -0.00162931 0.00603859
internal_weight=0 903.825 718.793 495.119
internal_count=6673 5740 4583 2865
is_linear=0
shrinkage=0.1


Tree=128
num_leaves=5
num_cat=0
split_feature=98 25 99 27
split_gain=3.34012 6.61948 9.64699 4.8517
threshold=1.0000000180025095e-35 -0.051899991801577124 -1.0000000180025095e-35 -0.059755717728962952
decision_type=2 2 2 2
left_child=1 2 -1 -2
right_child=3 -3 -4 -5
leaf_value=-0.00077486749475362722 -0.021417185045107732 -0.0096330925809454786 0.028012959258469174 0.003066970820645552
leaf_weight=314.2168975607492 159.82737879129127 266.34826923161745 184.90682462090626 163.95612093713135
leaf_count=1847 967 1716 1079 1070
internal_value=0 0.00309685 0.00988995 -0.009019
internal_weight=0 765.472 499.124 323.783
internal_count=6679 4642 2926 2037
is_linear=0
shrinkage=0.1


Tree=129
num_leaves=5
num_cat=0
split_feature=14 33 43 35
split_gain=3.71576 6.56091 9.01191 11.2319
threshold=-0.77897126866191513 -0.38104916248308829 0.33394667196542471 0.27250056678853268
decision_type=2 2 2 2
left_child=-1 -2 3 -3
right_child=1 2 -4 -5
leaf_value=0.014344411568444832 -0.016930149543641689 0.01035164211685842 0.017579508201137847 -0.021725108911081616
leaf_weight=174.81187094654888 213.23694119602442 217.44167446251959 266.65210768627003 219.21330968057737
leaf_count=909 1799 1221 1513 1216
