tree
version=v3
num_class=1
num_tree_per_iteration=1
label_index=0
max_feature_idx=291
objective=binary sigmoid:1
feature_names=Column_0 Column_1 Column_2 Column_3 Column_4 Column_5 Column_6 Column_7 Column_8 Column_9 Column_10 Column_11 Column_12 Column_13 Column_14 Column_15 Column_16 Column_17 Column_18 Column_19 Column_20 Column_21 Column_22 Column_23 Column_24 Column_25 Column_26 Column_27 Column_28 Column_29 Column_30 Column_31 Column_32 Column_33 Column_34 Column_35 Column_36 Column_37 Column_38 Column_39 Column_40 Column_41 Column_42 Column_43 Column_44 Column_45 Column_46 Column_47 Column_48 Column_49 Column_50 Column_51 Column_52 Column_53 Column_54 Column_55 Column_56 Column_57 Column_58 Column_59 Column_60 Column_61 Column_62 Column_63 Column_64 Column_65 Column_66 Column_67 Column_68 Column_69 Column_70 Column_71 Column_72 Column_73 Column_74 Column_75 Column_76 Column_77 Column_78 Column_79 Column_80 Column_81 Column_82 Column_83 Column_84 Column_85 Column_86 Column_87 Column_88 Column_89 Column_90 Column_91 Column_92 Column_93 Column_94 Column_95 Column_96 Column_97 Column_98 Column_99 Column_100 Column_101 Column_102 Column_103 Column_104 Column_105 Column_106 Column_107 Column_108 Column_109 Column_110 Column_111 Column_112 Column_113 Column_114 Column_115 Column_116 Column_117 Column_118 Column_119 Column_120 Column_121 Column_122 Column_123 Column_124 Column_125 Column_126 Column_127 Column_128 Column_129 Column_130 Column_131 Column_132 Column_133 Column_134 Column_135 Column_136 Column_137 Column_138 Column_139 Column_140 Column_141 Column_142 Column_143 Column_144 Column_145 Column_146 Column_147 Column_148 Column_149 Column_150 Column_151 Column_152 Column_153 Column_154 Column_155 Column_156 Column_157 Column_158 Column_159 Column_160 Column_161 Column_162 Column_163 Column_164 Column_165 Column_166 Column_167 Column_168 Column_169 Column_170 Column_171 Column_172 Column_173 Column_174 Column_175 Column_176 Column_177 Column_178 Column_179 Column_180 Column_181 Column_182 Column_183 Column_184 Column_185 Column_186 Column_187 Column_188 Column_189 Column_190 Column_191 Column_192 Column_193 Column_194 Column_195 Column_196 Column_197 Column_198 Column_199 Column_200 Column_201 Column_202 Column_203 Column_204 Column_205 Column_206 Column_207 Column_208 Column_209 Column_210 Column_211 Column_212 Column_213 Column_214 Column_215 Column_216 Column_217 Column_218 Column_219 Column_220 Column_221 Column_222 Column_223 Column_224 Column_225 Column_226 Column_227 Column_228 Column_229 Column_230 Column_231 Column_232 Column_233 Column_234 Column_235 Column_236 Column_237 Column_238 Column_239 Column_240 Column_241 Column_242 Column_243 Column_244 Column_245 Column_246 Column_247 Column_248 Column_249 Column_250 Column_251 Column_252 Column_253 Column_254 Column_255 Column_256 Column_257 Column_258 Column_259 Column_260 Column_261 Column_262 Column_263 Column_264 Column_265 Column_266 Column_267 Column_268 Column_269 Column_270 Column_271 Column_272 Column_273 Column_274 Column_275 Column_276 Column_277 Column_278 Column_279 Column_280 Column_281 Column_282 Column_283 Column_284 Column_285 Column_286 Column_287 Column_288 Column_289 Column_290 Column_291
feature_infos=[-3.8447523604056739:4.6781312242341864] [-0.92823531624393807:18.641447309132239] [-0.31151814419924712:16.905332702550371] [-0.26185647770744708:20.08523746955434] [-5.4759614721061816:5.9747181290051019] [-4.3439647282939315:6.1654638955743355] [-0.48230645066694011:19.689746333186264] [-0.5348000866080721:7.0142487578214583] [-0.60326759829761933:6.7174176561183767] [-1.2320842057888957:7.8700395302534512] [-4.8269110334070469:12.103177242610284] [-6.6090199284391922:9.3885138993074797] [-0.1196241090044822:62.90474783386717] [-0.53429056176292955:14.324546280903032] [-4.7437923273273723:3.4587397090172267] [-1.056697638182988:10.937900104770797] [-0.93988832443378512:5.3699376920946449] [-4.5547368917318733:9.8396767135523984] [-1.5135587505603754:5.553707865884224] [-2.2262805282097458:5.038495857628372] [-3.1268421665109809:17.808494634336096] [-3.7965040554711846:3.9429190043492102] [-4.6673684202341272:9.4006065022184266] [-1.2418395210247282:8.8664792495374556] [-8.1317459937220029:9.2198617963043503] [-0.92711560246811464:16.322439920902706] [-1.224697803889836:10.966525510866811] [-4.9832853121970437:9.8317354805853974] [-11.161139269226398:3.8748367773027779] [-3.4290115883255678:2.870502074946506] [-4.8393107777581941:3.8962581602966981] [-1.999011150736921:2.8619722452153131] [-2.8502955147187508:4.665652199076586] [-6.2159824887370485:5.5644203354433008] [-8.6114070139044738:1.7993819301925069] [-15.978668383946163:1.0015114480508338] [-3.5556584836632616:11.911177459177136] [-8.1854635054491407:5.6996580796766834] [-2.3780137391781455:21.92142838947381] [-1.7308504813093919:9.0875978614173079] [-1.4711008794860021:10.381394322176904] [-1.9424174466098614:8.4343777215021536] [-2.666861765146284:14.615356685794922] [-4.8075616200276219:6.4919703567726277] [-4.9998451827243056:5.307382957920364] [-0.25747365290945234:33.301807131936641] [-1.029759371972768:13.812849831423781] [-1.4729395551718132:36.942444685897378] [0:1] [0:1] [0:1] [0:1] [0:1] [0:1] [0:1] none none [0:1] [0:1] [0:1] [0:1] [0:1] [0:1] [0:1] [0:1] [0:1] none [0:1] [0:1] [0:1] [0:1] [0:1] [0:1] [0:1] [0:1] [0:1] [0:1] none [0:1] none [0:1] [0:1] [0:1] [0:1] [0:1] [0:1] [0:1] [0:1] [0:1] [0:1] [0:1] [0:1] [0:1] [0:1] [0:1] [0:1] [-3.8447523604056739:4.1864264020434261] [-0.92823531624393807:18.641447309132239] [-0.31151814419924712:12.04264061608229] [-0.26185647770744708:17.812793166970025] [-5.4759614721061816:5.1502691977250894] [-4.3439647282939315:5.6983781789579684] [-0.48230645066694011:15.581152838313759] [-0.5348000866080721:7.0142487578214583] [-0.60326759829761933:6.7174176561183767] [-1.2320842057888957:7.8700395302534512] [-4.8269110334070469:12.103177242610284] [-6.6090199284391922:8.5943100978888776] [-0.1196241090044822:16.838964742839401] [-0.53429056176292955:6.7921458220466251] [-4.7437923273273723:3.4587397090172267] [-1.056697638182988:10.937900104770797] [-0.93988832443378512:4.8000847677776282] [-4.5547368917318733:7.7314040137885405] [-1.5135587505603754:5.553707865884224] [-2.2262805282097458:5.038495857628372] [-3.1268421665109809:17.808494634336096] [-3.7965040554711846:3.8529257129559489] [-4.6673684202341272:5.4053016242419005] [-1.261093442286144:8.8664792495374556] [-8.1317459937220029:8.8299383981410866] [-0.92711560246811464:12.202468031046873] [-1.224697803889836:10.966525510866811] [-4.9832853121970437:7.4613321537402078] [-11.161139269226398:3.8748367773027779] [-3.4290115883255678:2.870502074946506] [-4.8393107777581941:3.8962581602966981] [-1.999011150736921:2.8619722452153131] [-2.8502955147187508:4.6224570970249177] [-6.2159824887370485:5.5644203354433008] [-8.6114070139044738:1.7993819301925069] [-15.978668383946163:1.0015114480508338] [-3.5556584836632616:11.56230146046645] [-8.1854635054491407:5.6996580796766834] [-2.3780137391781455:9.3338793201321018] [-1.7308504813093919:8.9758671421165843] [-1.4711008794860021:10.381394322176904] [-1.9424174466098614:8.4343777215021536] [-2.666861765146284:7.8622209045447864] [-4.8075616200276219:5.9646588645219492] [-4.9998451827243056:4.8733922346872953] [-0.25747365290945234:15.179251831460737] [-1.029759371972768:13.812849831423781] [-1.4729395551718132:22.673873396357394] [-3.1891459308179924:4.6781312242341864] [-0.92823531624393807:18.641447309132239] [-0.31151814419924712:16.905332702550371] [-0.26185647770744708:20.08523746955434] [-5.4759614721061816:5.9747181290051019] [-4.3439647282939315:6.1654638955743355] [-0.48230645066694011:19.689746333186264] [-0.5348000866080721:7.0142487578214583] [-0.60326759829761933:6.7174176561183767] [-1.1800720688540647:7.8700395302534512] [-4.7775521768985074:12.103177242610284] [-5.7013585545613319:9.3885138993074797] [-0.11905220000318573:62.90474783386717] [-0.53429056176292955:14.324546280903032] [-4.7437923273273723:3.4587397090172267] [-1.0013805079310873:10.937900104770797] [-0.93988832443378512:5.3699376920946449] [-4.5547368917318733:9.9850748307774921] [-1.5135587505603754:5.553707865884224] [-2.2262805282097458:5.038495857628372] [-3.1268421665109809:17.808494634336096] [-3.7065108540712157:3.9429190043492102] [-4.6673684202341272:9.4006065022184266] [-1.2225855997633122:8.8664792495374556] [-5.5972413711561488:11.169480736739624] [-0.92711560246811464:16.322439920902706] [-1.224697803889836:10.966525510866811] [-4.9832853121970437:9.8317354805853974] [-11.161139269226398:3.8748367773027779] [-3.4290115883255678:2.870502074946506] [-4.8393107777581941:3.8962581602966981] [-1.999011150736921:2.8619722452153131] [-2.8502955147187508:4.665652199076586] [-6.2159824887370485:5.5644203354433008] [-8.6114070139044738:1.7993819301925069] [-13.601443547070179:1.0015114480508338] [-3.5556584836632616:11.911177459177136] [-7.9049559420107327:6.2606718040156899] [-2.1590998461272273:21.92142838947381] [-1.7211347665875898:9.0875978614173079] [-1.4711008794860021:10.531697703357413] [-1.9424174466098614:8.4343777215021536] [-2.666861765146284:14.760585412273418] [-4.8075616200276219:6.4919703567726277] [-4.9998451827243056:5.8498686495332421] [-0.25747365290945234:33.301807131936641] [-1.029759371972768:20.492023972952229] [-1.4619637311029363:36.942444685897378] [0:20] [0:14] [0:17] [0:17] [0:96] [0:96] [0:14] [0:3] [0:4] [0:25] [0:37] [0:96] [0:30] [0:20] [0:72] [0:28] [0:11] [0:169] [0:49] [0:169] [0:104] [0:103] [0:169] [0:34] [0:108] [0:68] [0:4] [0:169] [0:4] [0:4] [0:4] [0:20] [0:30] [0:82] [0:3] [0:169] [0:96] [0:96] [0:36] [0:32] [0:96] [0:35] [0:169] [0:169] [0:168] [0:13] [0:158] [0:29] [-3.1891459308179924:4.1864264020434261] [-0.92823531624393807:18.641447309132239] [-0.31151814419924712:12.77150352893165] [-0.26185647770744708:18.949015318262184] [-5.4759614721061816:5.2914942843077268] [-4.3439647282939315:5.7567638935350143] [-0.48230645066694011:15.581152838313759] [-0.5348000866080721:7.0142487578214583] [-0.60326759829761933:6.7174176561183767] [-1.1800720698292921:7.8700395302534512] [-4.7775521768985074:12.103177242610284] [-5.7580870571467466:8.5943100978888776] [-0.11905220000318573:44.701384742976472] [-0.53429056176292955:7.1967181123172335] [-4.7437923273273723:3.4587397090172267] [-1.0013805079310873:10.937900104770797] [-0.93988832443378512:4.8000847677776282] [-4.5547368917318733:7.7314040137885405] [-1.5135587505603754:5.553707865884224] [-2.2262805282097458:5.038495857628372] [-3.1268421665109809:17.808494634336096] [-3.7065108540712157:3.8529257129559489] [-4.6673684202341272:5.4053016242419005] [-1.2225855997633122:8.8664792495374556] [-5.5972413711561488:8.8299383981410866] [-0.92711560246811464:12.202468031046873] [-1.224697803889836:10.966525510866811] [-4.9832853121970437:7.4613321537402078] [-11.161139269226398:3.8748367773027779] [-3.4290115883255678:2.870502074946506] [-4.8393107777581941:3.8962581602966981] [-1.999011150736921:2.8619722452153131] [-2.8502955147187508:4.6224570970249177] [-6.2159824887370485:5.5644203354433008] [-8.6114070139044738:1.7993819301925069] [-13.601443547070179:1.0015114480508338] [-3.5556584836632616:11.56230146046645] [-7.9049559420107327:5.6996580796766834] [-2.1590998461272273:10.734928454571874] [-1.7276119097354579:8.9758671421165843] [-1.4711008794860021:10.381394322176904] [-1.9424174466098614:8.4343777215021536] [-2.666861765146284:7.8985280861644114] [-4.8075616200276219:5.9646588645219492] [-4.9998451827243056:4.8733922346872953] [-0.25747365290945234:17.519242623823473] [-1.029759371972768:14.369447676551152] [-1.4619637311029363:27.217864560872432] [-1.9721394599826836:1.6771521779711211] [0:1] [-2.3376232864720148:2.3614301047503594] [-1.8882726822213571:2.5188089170376746]
tree_sizes=1887 1791 1893 1909 1890 1899 1895 1895 1901 1892 1788 1906 1898 1891 1883 1781 1889 1891 1771 1900 1902 1882 1771 1774 1328 1884 1660 1342 1676 1776 1109 1440 1881 1343 1119 1433 1884 1004 1767 1898 1233 1774 1780 1233 999 1115 1232 1664 1219 1222 1911 1886 1226 1113 1907 1892 1237 1895 1118 1333 1664 1672 787 1552 1666 1900 1009 1778 1550 1680 1553 1239 1679 1444 1341 1233 1684 1564 1561 1675 1771 1444 1786 1899 1767 901 1238 1782 1555 1558 1332 1108 1774 1447 1662 1666 1681 1114 1573 1545 1333 1886 1656 1228 1687 1451 685 788 1558 1555 1679 1117 901 1452 1446 1901 1780 1548 1901 1783 1773 1895 1335 1902 1339 1114 1897 1556 1114 1679 1462 1120 1554 1553 1132 1677 1328 1213 1335 1670 799 1015 902 1792 1548 1899 1772 1914 1130 1112 1561 1014 1793 1906 1645 1544 1565 1115 1559 1558 1668 1121 1006 1125 1790 904 1005 1445 1663 1563 1558 1561 1775 1005 800 1679 1003 1659 1229 1906 1910 1777 1125 1344 1665 1329 999 1240 1111 1453 1777 1002 1448 1555 1119 1667 1667 1556 1118 1454 1555 1667 1680 1559 1004 1228 1126 1566 798 1444 1675 1787 1780 1562 1777 1665 1230 1337 1690 1908 1672 1335 1565 1449 1771 1904 1440 1324 1451 1767 1894 1437 1559 1796 1901 1551 1120 1778 1803 1567 1787 1442 1228 1909 1673 1671 1553 1349 1125 1562 1661 1223 1674 1662 1341 904 1669 1789 1792 903 1768 1576 681 1339 1894 1897 1125 1542 1663 1675 1907 1010 1464 1552 1566 1576 1330 1140 898 1449 1236 1551 1780 1004 1671 1766 1676 1900 1341 1675 1912 903 1669 1581 1571 1453 1897 1784 1459 1123 1656 1673 1563 1677 1686 1005 1910 903 1125 1122 1464 1013 1787 1902 1220 1127 800 797 1441 1551 1676 1018 1324 1902 1786 1128 1695 1566 1335 1692 1340 1566 1334 1677 1119 1440 1788 1438 1918 1575 1328 1228 1800 1771 797 1669 1914 1567 1905 1553 1774 1678 1003 1117 1797 1120 1546 1351 1781 793 1348 1442 1651 1773 1008 1801 1562 1440 1789 1436 1892 1445 1028 1913 1657 1126 1227 1132 1132 1672 1567 1450 1669 1783 1666 1895 1668 1459 1909 1341 1896 1784 1902 1671 1445 1010 1219 1550 1557 1675 1783 1777 1342 1904 1892 1896 1462 1656 1671 1126 1910 1905 1131 1570 1779 1561 1569 1813 1019 1805 1666 1346 1798 1779 1554 1550 1564 1337 1120 1453 1567 1433 1127 1680 1218 1683 1560 1906 1327 1336 1777 1568 910 1682 1575 1564 1327 1784 1550 1671 1787 1688 1117 1565 1895 1779 1451 1569 1460 904 1675 1122 1913 1233 1339 1660 1681 1570 1124 1912 1114 1016 1675 1775 1236 1789 1782 1230 1797 1567 1663 1571 1777 1131 1786 1008 1335 1443 1693 1438 1446 1335 1241 1557 1129 1693 1243 1673 1778 1450 1450 1664 1922 1450 1681 1221 1560 1901 1559 1545 1447 1664 1798 1899 1914 1447 1438 1677 1579 1911 1228 1027 1222 1797 1549 1015 1772 1446 1441 1549 1570 1679 1669 1674 1559 1771 1443 1240 1544 1909 1679 1778 1456 1662 1435 1675 1779 1327 1563 1683 791 1342 1784 1130 1671 1780 1894 1774 1555 1330 1896 1674 1772 1666 1341 1570 1232 1785 1569 1679 1450 1563 1666 1443 1783 1125 1779 1687 1135 1013 1657 1784 1787 1125 1780 1126 1440 1128 1008 1566 1671 1897 1903 1345 1343 1454 1459 1232 1357 1544 1562 1457 1897 1351 1550 1446 1122 1019 1665 1905 1904 1779 1128 1350 1566 1447 1777 1902 1922 1565 1121 1125 895 1564 1787 1122 1904 1015 1573 1681 1543 1557 1808 1571 1557 1351 1552 1231 1787 1788 792 1460 1677 1567 1447 1665 1010 1785 1545 1445 1127 1802 1668 804 1456 1783 1570 1113 1912 1656 1117 1820 1568 1447 1563 1798 1683 1787 1130 1124 1788 1448 1660 1773 1558 1775 1916 1453 1237 1447 1467 1126 1468 1114 1789 1234 1773 1680 1120 1558 1675 1788 1557 1798 1446 1335 1668 1794 1776 1447 1124 1553 1122 1333 1449 1676 1558 1014 1785 1353 1684 687 1662 1794 1671 1125 1331 1782 1576 1573 1341 1666 1770 1685 1559 1553 1784 1691 1558 1124 1783 1545 1236 1778 1782 1546 1578 1339 1783 1666 797 1458 1768 1333 1692 1661 1458 1790 1775 1678 1659 1775 1128 1132 1677 1016 1907 1782 1561 1789 1459 804 1013 1455 1564 1903 1564 1017 1570 1882 1798 1893 1670 1438 1341 1136 1556 1784 1450 797 1556 1574 1585 1787 1447 1785 1669 803 1333 1367 1451 1565 1907 686 1901 1445 1567 1795 1677 1443 1248 1897 1903 1238 1780 1674 1676 1436 1126 1553 1778 1776 1915 1565 1344 1790 1347 1116 1564 1557 1230 1566 1118 1905 1904 1572 1799 1324 1782 1561 1009 1126 1006 1779 1012 1668 1901 1559 1566 1783 1664 1779 1583 1464 1338 1445 1788 1679 1558 1236 905 1436 1470 1583 1140 1800 1900 1799 1017 1449 1226 1009 1563 1794 1556 1792 1776 1669 1795 1790 793 1680 1446 1460 1436 1352 1784 1792 1132 687 1911 1680 1354 1789 1675 1902 1550 1571 1129 1901 1804 1566 1785 1231 1568 1567 1567 1781 1447 1463 1679 1671 1691 1562 1339 801 1459 1581 1129 1348 1455 1674 1563 1566 1904 1237 1788 1666 1559 1672 1554 1906 1353 1571 1570 1788 1672 1455 1927 1688 1344 904 1904 1778 1447 1329 1445 1682 1568 1673 1674 1672 1783 1921 1343 1450 1901 1010 1659 1335 1122 1905 1921 1228 1573 1565 1690 1777 1561 1785 1791 1453 1449 1465 1127 1679 1784 1014 1016 1567 1790 1140 1917 1800 1675 1671 1801 1899 1562 1902 1550 1579 1670 1122 1452 1689 1572 1801 1475 1900 1333 1792 1571 1447 784 1554 1783 1462 800 1441 1789 1556 803 1794 1231 1132 1444 1342 1796 1659 1890 797 1125 1787 1579 1688 1672 1459 1566 1578 1568 1464 1679 1912 1676 1900 1461 1795 1116 1359 1691 1123 1551 1667 1248 1787 1551 1800 1441 1451 1581 1915 1448 1026 1679 1670 1462 1801 1470 1779 1348 1339 1685 1673 1341 902 1237 1795 1134 1910 1895 1455 1905 1571 1334 1445 1912 1137 1135 1462 1798 1687 1581 1785 1902 1456 1454 1801 1909 1684 1131 1669 1799 1461 1693 1924 1787 907 1894 1578 1904 1476 1558 1345 1111 1132 1909 1779 1907 1454 1129 1561 1134 1587 1123 905 1672 1337 1923 1668 1788 1358 803 1125 1132 1573 1019 1136 1797 1565 1124 1339 1239 1126 899 1897 1453 1915 683 1457 1357 798 1023 1676 1342 1673 1123 1900 800 1464 1133 1674 1903 1575 1575 1018 1122 1686 1327 1778 1796 1570 1666 1113 1346 1679 1455 1450 1556 1131 1351 1657 1134 1014 1902 1572 1558 1456 1675 1124 1455 1142 1669 1885 1576 1134 1679 803 1678 1912 1560 1465 1354 1015 1677 1903 1788 1433 1451 1454 1571 1783 1455 1690 1655 1007 1686 1893 1585 1914 1352 1124 1793 1679 1808 1132 1578 1124 1680 1129 1338 1023 1795 1902 1019 1677 1768 1910 1554 1570 1116 1346 1661 1121 1465 1127 1556 1576 1131 1229 1796 1226 1925 1783 1680 1123 1342 1466 1893 1680 1459 1798 1569 1010 1572 1120 1224 1011 797 1354 1688 1795 1903 1458 1444 1486 1462 1130 1680 1137 1781 1783 1780 1918 1447 1025 1136 1121 1126 1128 800 1685 1576 1672 1450 1582 1566 1468 1789 1463 1788 1343 1784 1903 1892 1430 1676 1922 1456 1918 1556 1897 1669 1459 1794 1029 1695 1365 1791 1453 1013 1012 1576 897 1905 1901 1660 1674 1802 1127 1789 1358 1779 797 1562 1899 1773 1682 1576 1342 1668 1555 1901 1793 1812 1681 1563 1459 1016 1552 1911 1788 1549 1463 1334 1555 1787 1329 1352 1015 1901 1794 1665 1329 1777 1911 1903 1458 798 1568 1916 1781 1792 1451 1124 1685 1906 1797 1322 1678 1775 1568 1673 1227 1130 1119 1893 1130 1787 1242 1656 1786 1111 1123 1465 1461 1791 1352 1898 1791 1913 1782 1342 1349 1792 1797 1453 1782 1910 1692 1574 1670 1791 1121 1669 1915 1667 1798 1568 1562 1898 1465 1577 1666 1139 1683 1455 1249 1342 1791 1665 1687 1568 1919 1452 1671 1906 1237 690 792 1793 1459 1241 1443 1126 1901 1778 1341 1911 1670 1223 1671 1342 1124 1026 1801 1667 1794 1898 1114 1451

Tree=0
num_leaves=16
num_cat=0
split_feature=193 214 67 188 219 177 47 6 211 191 255 186 236 236 171
split_gain=38406.7 13084.9 6402.04 6192.68 7266.81 5773.33 4673.84 4440.91 2437.81 1858.5 1450.12 1561.87 1172.78 544.491 358.296
threshold=1.0000000180025095e-35 26.500000000000004 1.0000000180025095e-35 1.8354742603551013 1.0000000180025095e-35 1.8375292601571529 -0.26011099007300259 -0.068593911252694761 2.5000000000000004 1.7813923361293116 -0.25421510279256859 1.9441503005460123 4.5000000000000009 2.5000000000000004 1.1649483168076702
decision_type=2 2 2 2 2 2 2 2 2 2 2 2 2 2 2
left_child=3 2 12 4 13 -6 7 -3 -4 -8 11 -5 -2 -1 -12
right_child=1 6 8 10 5 -7 9 -9 -10 -11 14 -13 -14 -15 -16
leaf_value=0.042487772150124871 0.090760554828370379 -0.11324180255495765 0.063004243213947653 -0.19151577066739711 -0.12489210510623999 0.062892404631300164 0.03606361190876782 0.025542030595367336 -0.038223122672081458 -0.1094164638214267 0.040277771614498588 0.052376874470803206 0.14725560965001416 0.16474215235371745 0.13655083133848642
leaf_weight=2079.6924765408039 5143.0278013348579 5853.0711776763201 10785.710076838732 412.77348199486732 26484.332608610392 1745.097656622529 16378.212268128991 3804.215091407299 3052.3132024258375 927.87250202894211 553.8554995059967 721.57297855615616 12868.499242082238 441.67048178613186 1279.914440587163
leaf_count=6602 11503 36290 29940 3187 170202 4848 54037 13329 14476 5684 1782 2152 14657 353 1724
internal_value=-4.62371e-08 0.0484266 0.0918261 -0.0854412 -0.0987554 -0.113284 -0.00283763 -0.0585718 0.0406761 0.0282636 0.0524988 -0.0363724 0.131124 0.0639032 0.107473
internal_weight=0 58812.9 31849.6 33718.9 30750.8 28229.4 26963.4 9657.29 13838 17306.1 2968.12 1134.35 18011.5 2521.36 1833.77
internal_count=370766 179916 70576 190850 182005 175050 109340 49619 44416 59721 8845 5339 26160 6955 3506
is_linear=0
shrinkage=1


Tree=1
num_leaves=15
num_cat=0
split_feature=195 67 282 219 129 102 219 22 217 100 219 4 279 139
split_gain=27387.6 12442.3 6090.16 5099.38 3807.84 3464.89 3316.48 2909.56 2596.06 2352.54 2760.46 1966.05 1330.55 784.326
threshold=1.0000000180025095e-35 1.0000000180025095e-35 -1.0000000180025095e-35 29.500000000000004 1.6340501104850762 -0.2897161305947914 20.500000000000004 0.63625812553048544 1.0000000180025095e-35 -0.6265986610355524 1.0000000180025095e-35 0.86771503263480987 -1.0000000180025095e-35 -2.3875785216629013
decision_type=2 2 2 2 2 2 2 2 2 2 2 2 2 2
left_child=2 3 4 13 5 -1 8 -8 -3 12 -11 -5 -4 -2
right_child=1 6 9 11 -6 -7 7 -9 -10 10 -12 -13 -14 -15
leaf_value=0.084451429443049481 0.016222463490216634 -0.056933797450090286 -0.03406153248509957 0.055734887390412907 0.13817773016473833 -0.12653812373098683 -0.063520490377521791 0.017310417872831118 0.058001008084955674 0.050180710252234639 -0.084812469914069363 -0.039308677956204574 0.096931345850604575 0.12033875247811326
leaf_weight=812.68240079283714 753.64120562374592 2463.9507187157869 1186.245249569416 8661.4613394588232 600.10624992847443 18416.480053007603 11519.886016234756 7259.4755788445473 9709.0884833037853 2079.8222425729036 5576.0238691866398 2906.8885673284531 2239.0063578188419 18111.83253519237
leaf_count=2078 2633 12447 5715 25298 723 123183 60765 26554 27247 6077 32423 13899 4861 26144
internal_value=0 0.0387226 -0.0766978 0.0841255 -0.10988 -0.117621 -0.00591972 -0.032274 0.034737 -0.01732 -0.0481396 0.0318524 0.0515654 0.116179
internal_weight=0 61386.2 30910.4 30433.8 19829.3 19229.2 30952.4 18779.4 12173 11081.1 7655.85 11568.3 3425.25 18865.5
internal_count=370047 194987 175060 67974 125984 125261 127013 87319 39694 49076 38500 39197 10576 28777
is_linear=0
shrinkage=0.1


Tree=2
num_leaves=16
num_cat=0
split_feature=193 235 139 166 177 47 6 140 22 22 142 282 232 203 203
split_gain=25779.2 8894.69 4774.48 4711.96 3872.37 3790.3 3618.56 2326.77 2063.38 1714.67 1604.07 1375.89 1144.62 311.297 102.778
threshold=1.0000000180025095e-35 27.500000000000004 -0.014676806534849067 1.5084725707225439 1.5323097324397534 -0.27108681962979142 -0.068593911252694761 -3.1553935599976737 0.32676267723652919 0.63625812553048544 0.10198957978621885 -0.75452635923299438 3.5000000000000004 2.5000000000000004 1.0000000180025095e-35
decision_type=2 2 2 2 2 2 2 2 2 2 2 2 2 2 2
left_child=2 7 3 4 -1 6 -3 13 -5 -7 12 -9 -4 -2 -12
right_child=1 5 10 8 -6 9 -8 11 -10 -11 14 -13 -14 -15 -16
leaf_value=-0.12171547854325185 0.084386907477150386 -0.10708667829873193 0.0050532566350689149 -0.10955221685907279 0.038636589648358421 -0.0039115616866387884 0.022421488399480032 -0.03794259337081253 0.021668312852665263 0.060180473318169371 -0.18074569597596499 0.067927789587017937 0.11628555661888569 0.1458500280203969 -0.087001949463035244
leaf_weight=19818.084078155458 1011.4657792448997 5464.3875234723091 3712.8987580612302 1603.0274640843272 1629.8652649819851 9495.8038895279169 3564.9844420850277 1289.2242465168238 4746.585324421525 7448.3896649330854 357.51858136057854 25653.519288152456 1232.1238178759813 4446.8802570551634 173.81345143914223
leaf_count=135512 2074 34648 14785 10383 5321 38563 12556 5865 18070 20365 2856 61782 2248 3506 1047
internal_value=0 0.0399741 -0.0703152 -0.0871285 -0.10953 -0.00362394 -0.0559542 0.0749235 -0.0114597 0.0242622 0.0150279 0.0628618 0.0327684 0.134461 -0.15008
internal_weight=0 58374.7 33273.9 27797.6 21447.9 25973.6 9029.37 32401.1 6349.61 16944.2 5476.35 26942.7 4945.02 5458.35 531.332
internal_count=369581 179359 190222 169286 140833 106132 47204 73227 28453 58928 20936 67647 17033 5580 3903
is_linear=0
shrinkage=0.1


Tree=3
num_leaves=16
num_cat=0
split_feature=67 115 169 2 208 118 228 213 146 242 19 30 290 168 2
split_gain=19674.3 7652.51 6442.09 4929.17 4019.66 3740.35 3671.16 3207.84 2157.57 2130.37 1987.64 1694.87 1287.68 1218.25 916.857
threshold=1.0000000180025095e-35 -1.0000000180025095e-35 0.06892176530751927 -1.0000000180025095e-35 1.0000000180025095e-35 -0.23595631966157299 10.500000000000002 4.5000000000000009 -1.0000000180025095e-35 -0.20591968878727207 0.41754632106678469 0.29688021822778404 -1.0000000180025095e-35 0.65128733293890206 -0.2351160021287669
decision_type=2 2 2 2 2 2 2 2 2 2 2 2 2 2 2
left_child=4 3 5 9 7 -3 14 8 -1 -2 -8 -5 -4 -9 -6
right_child=1 2 12 11 6 -7 10 13 -10 -11 -12 -13 -14 -15 -16
leaf_value=0.060863372705212117 -0.07648736782412778 -0.066965939843524114 -0.016029297227839533 -0.1554600716887598 0.073829022321053164 0.010853454678132401 -0.014306192600473278 0.09364040055169659 -0.088484514183099272 0.017427211309698078 0.080579937316501163 0.093198913112659182 0.08240705017634721 0.010669688291872806 0.1233064173821143
leaf_weight=1288.8426735922694 7093.8439680561423 15280.546164929867 1635.4077147096395 8044.1146931573749 5714.6386618167162 10366.637581460178 5084.9132805243134 3561.3074976578355 3877.4211865961552 3662.4347112178802 3901.5535195022821 283.78208561986685 7090.8001496568322 3517.5485259741545 10868.227714292705
leaf_count=3041 39679 86236 6917 62069 12052 39923 21576 7620 24857 13482 8832 612 16518 13792 12779
internal_value=0 -0.038451 -0.0102592 -0.0892286 0.0557997 -0.0355112 0.0783622 0.00868632 -0.0512263 -0.0445101 0.0268895 -0.146987 0.0639588 0.0524115 0.106256
internal_weight=0 53457.6 34373.4 19084.2 37814.5 25647.2 25569.3 12245.1 5166.26 10756.3 8986.47 8327.9 8726.21 7078.86 16582.9
internal_count=369985 265436 149594 115842 104549 126159 55239 49310 27898 53161 30408 62681 23435 21412 24831
is_linear=0
shrinkage=0.1


Tree=4
num_leaves=16
num_cat=0
split_feature=193 235 138 177 156 47 135 138 188 37 140 107 180 106 16
split_gain=18077 6133.9 5826.17 4402.79 3446.24 3251.83 2368.03 2152.09 1830.18 1635.58 1615.74 1526.83 1316.41 1159.89 230.8
threshold=1.0000000180025095e-35 24.500000000000004 -0.59735241282769402 1.5323097324397534 -0.10827171532874715 -0.26011099007300259 -1.1333340259185591 -1.541339134937928 1.8354748028407915 -0.26112729275514018 -3.0197729508229973 -0.82267777648856111 1.6367792390014437 -1.0000000180025095e-35 0.11071324876158904
decision_type=2 2 2 2 2 2 2 2 2 2 2 2 2 2 2
left_child=2 7 3 4 -1 6 -3 12 11 -7 -9 -4 -2 -5 -10
right_child=1 5 8 13 -6 9 -8 10 14 -11 -12 -13 -14 -15 -16
leaf_value=0.054712341118922952 -0.12522322431363303 0.032492695152752972 0.064346275184269761 -0.069020329432798497 -0.11671573808550713 0.072954270630290391 -0.077006701123015026 0.12150326102376832 0.070227727698045445 0.0059914140226292635 0.059549698227075891 -0.034994122454473524 0.084693752752027868 0.089548040905384929 0.15590205910156815
leaf_weight=1254.1902265697718 927.71620284765959 2733.5791609734297 1924.8760637640953 652.9899280667305 18044.996538348496 5073.8001559451222 7116.7699823155999 5140.7301416620612 635.46112932264805 12976.180840916932 23240.528739564121 7884.8443579524755 440.6326260343194 1571.4221011772752 622.42311070114374
leaf_count=4396 5820 9182 5823 3650 130083 12174 41592 5097 1679 49323 55815 40846 925 3442 571
internal_value=0 0.0332769 -0.0599017 -0.0902204 -0.105575 -0.000405607 -0.0466194 0.0648657 -0.000939731 0.0248145 0.0707714 -0.0155014 -0.0576262 0.0429993 0.112621
internal_weight=0 57649.9 32591.2 21523.6 19299.2 27900.3 9850.35 29749.6 11067.6 18050 28381.3 9809.72 1368.35 2224.41 1257.88
internal_count=370418 179928 190490 141571 134479 112271 50774 67657 48919 61497 60912 46669 6745 7092 2250
is_linear=0
shrinkage=0.1


Tree=5
num_leaves=16
num_cat=0
split_feature=193 219 138 149 112 246 4 229 107 142 188 107 118 217 16
split_gain=14869.2 5193.6 4420.11 4170.26 3875.36 2965.01 3112.01 2328.27 1582.73 1526.51 1397.07 1556.62 1145.64 959.693 212.507
threshold=1.0000000180025095e-35 26.500000000000004 -0.59735241282769402 1.1793239874660431 0.32518516754999388 -0.14135025439106205 0.73030685452011523 12.500000000000002 -0.82267777648856111 -0.72919653560398789 1.8354748028407915 -0.82267777648856111 -0.60172366764533936 1.5000000000000002 0.11071324876158904
decision_type=2 2 2 2 2 2 2 2 2 2 2 2 2 2 2
left_child=2 8 3 4 -1 6 -3 -7 13 -10 11 -4 -5 -2 -12
right_child=1 5 10 12 -6 7 -8 -9 9 -11 14 -13 -14 -15 -16
leaf_value=-0.10729485788450409 0.042930420158907689 0.0024779083072117101 0.063747405226445897 0.090654698031700648 0.089017730035813591 -0.052547899493637543 -0.094313268978509335 0.056192741903044699 0.061424996804032496 0.0017601040291923373 0.056623511889738701 -0.036029120016344805 -0.092756053353525714 0.10433419187328735 0.14053861422113897
leaf_weight=17980.405233062804 3619.879209369421 8994.4605262503028 1959.5603694319725 1650.7726985141635 1065.1479396000504 2473.9143878743052 5266.8925376608968 9647.9711494073272 11784.082157082856 6741.0647609457374 608.98246151208878 7738.1509623154998 429.0857331007719 8574.4432817995548 598.23749013245106
leaf_count=131262 9473 36433 5727 4527 2912 12359 32250 26914 27071 23754 1685 40934 2694 11334 560
internal_value=0 0.0301809 -0.0549436 -0.0816333 -0.0963158 -0.00236148 -0.0332683 0.0340002 0.0581297 0.0397137 -0.00323924 -0.0158679 0.0528161 0.0861065 0.0982076
internal_weight=0 57102.7 32030.3 21125.4 19045.6 26383.2 14261.4 12121.9 30719.5 18525.1 10904.9 9697.71 2079.86 12194.3 1207.22
internal_count=369889 179588 190301 141395 134174 107956 68683 39273 71632 50825 48906 46661 7221 20807 2245
is_linear=0
shrinkage=0.1


Tree=6
num_leaves=16
num_cat=0
split_feature=67 138 193 227 227 5 251 37 283 283 177 142 142 165 227
split_gain=13620.8 5477.45 5677.32 2568 2697.44 2613.25 2119.85 1928.03 1823.79 1429.59 1307.06 1162.1 607.25 395.559 124.641
threshold=1.0000000180025095e-35 -1.0000000180025095e-35 1.0000000180025095e-35 5.5000000000000009 77.500000000000014 0.44950243848153965 -0.1797509463547276 -1.137712025962367 0.57388178338247686 -0.049203154241738677 0.73445410658364663 0.064883056777727474 -0.98894219666342742 1.0181370565665702 2.5000000000000004
decision_type=2 2 2 2 2 2 2 2 2 2 2 2 2 2 2
left_child=3 2 6 9 8 -6 -2 -4 -5 10 -1 12 -3 -11 -13
right_child=1 11 7 4 5 -7 -8 -9 -10 13 -12 14 -14 -15 -16
leaf_value=-0.097232170026744988 -0.027822959444353978 -0.055133787457346095 0.066967383068051861 0.057871935576000157 0.053806020349752959 -0.090671428286291045 -0.10520697384299536 -0.024248552758151336 0.12469693587280786 0.012912857681905456 0.036572361258369677 -0.055537160758986327 0.060660127689238889 0.10449920591313788 -0.16279797606023208
leaf_weight=2365.8066278323531 4641.4777095317841 484.38806946575642 2590.7996625080705 20851.693721979856 2899.3298056721687 2203.3294049948454 14916.925085559487 21946.747313082218 5078.8618305921555 1114.7981246262789 1055.8786793574691 196.99288781732321 6965.4845917522907 817.30571568012238 240.72678401321173
leaf_count=15707 26154 2355 6135 52679 7943 13101 111443 98339 5885 4239 3600 1053 18494 1211 1815
internal_value=0 -0.0329237 -0.0466524 0.0468479 0.0578821 -0.00857937 -0.0868427 -0.0146175 0.0709605 -0.0171119 -0.0559422 0.0438272 0.0531312 0.0516551 -0.114526
internal_weight=0 51983.5 44095.9 36387 31033.2 5102.66 19558.4 24537.5 25930.6 5353.79 3421.69 7887.59 7449.87 1932.1 437.72
internal_count=370153 265788 242071 104365 79608 21044 137597 104474 58564 24757 19307 23717 20849 5450 2868
is_linear=0
shrinkage=0.1


Tree=7
num_leaves=16
num_cat=0
split_feature=67 211 217 177 118 124 194 211 182 196 171 6 290 186 242
split_gain=11167.5 6507.93 3928.35 3095.35 2593.38 2527.44 2307.72 2926.16 2604.09 2044.52 1592.4 1416.66 1328.48 1314.3 831.133
threshold=1.0000000180025095e-35 2.5000000000000004 1.0000000180025095e-35 1.0557378199703835 -0.23595631966157299 0.65158380988984621 1.0000000180025095e-35 31.500000000000004 -0.35306019562006541 11.500000000000002 3.1501611030405177 -0.34677992913468725 0.48180874826140968 5.284411009551456 -0.24670671900418742
decision_type=2 2 2 2 2 2 2 2 2 2 2 2 2 2 2
left_child=6 2 4 5 -2 -3 8 14 10 -5 -1 -9 -10 -4 -8
right_child=1 3 13 9 -6 -7 7 11 12 -11 -12 -13 -14 -15 -16
leaf_value=-0.12458652756966082 -0.080563229819680837 -0.11995433419599232 0.030429160133373406 -0.10321543222853916 0.0082654170482970839 0.043388113681067042 0.045360820997162779 -0.076103968866711946 0.054560291464015934 0.019750830267065499 0.15893592852651559 0.027445377537628941 -0.090557774144941094 -0.11858959240968277 0.091488705173200222
leaf_weight=2042.3715168535709 8089.7711919546127 11345.92273773253 18637.126054465771 1992.2276083007455 5535.7524715960026 1033.5846822112799 5504.1746268793941 1569.9828026145697 4167.2215707153082 4208.3549264892936 219.37509321421385 8337.7772973403335 743.35839202255011 611.26518683135509 13453.631537653506
leaf_count=15908 54489 86773 63214 14064 23368 3352 13091 8933 15048 16531 211 27284 4964 4052 18924
internal_value=0 -0.0301243 -0.0033875 -0.0774301 -0.0444741 -0.106317 0.0424648 0.0550788 -0.008301 -0.0197578 -0.0970866 0.011037 0.0325925 0.0256968 0.078096
internal_weight=0 51454 32873.9 18580.1 13625.5 12379.5 36037.9 28865.6 7172.33 6200.58 2261.75 9907.76 4910.58 19248.4 18957.8
internal_count=370206 265843 145123 120720 77857 90125 104363 68232 36131 30595 16119 36217 20012 67266 32015
is_linear=0
shrinkage=0.1


Tree=8
num_leaves=16
num_cat=0
split_feature=195 138 219 187 117 138 147 153 254 100 262 180 5 140 279
split_gain=7334.55 4282.73 3400.35 2742.09 2288.59 1959.58 1846.95 1736.32 1718.65 1559.43 1756.74 1407.13 1395.6 1297.57 1063.17
threshold=1.0000000180025095e-35 -0.59735241282769402 22.500000000000004 2.0569040558785301 -1.2991902418065313 -1.541339134937928 -0.17542085241409036 -0.73146739380504955 -1.6235491407018865 -0.39185972348743142 -1.0000000180025095e-35 1.6367792390014437 0.61298255606869734 -3.0197729508229973 -1.0000000180025095e-35
decision_type=2 2 2 2 2 2 2 2 2 2 2 2 2 2 2
left_child=1 3 5 4 -1 11 7 -4 -8 14 -11 -2 -5 -7 -3
right_child=2 9 6 12 -6 13 8 -9 -10 10 -12 -13 -14 -15 -16
leaf_value=-0.020942396927757068 -0.15583947676822951 -0.012772920941223507 0.053187489135264721 -0.037591313614887864 -0.11041452459520779 0.10141039538677206 -0.20082979473408868 -0.039214454941274575 0.028810788199137762 -0.096013145131098862 0.014753326149119009 0.073549052332021081 0.10758351044595177 0.042081104787564778 0.094320896686085384
leaf_weight=3831.6311616003513 795.42005472630262 1413.1874189376831 2389.4732155650854 1646.1308692544699 11260.756439365447 4428.8923608288169 333.46425022184849 13654.989760242403 14376.574813231826 2118.6026623100042 4417.0084434896708 402.85690902918577 1107.8210138976574 21986.131509900093 2694.3998866155744
leaf_count=22293 5802 7132 7346 10323 93849 4732 2691 68245 48500 15250 17708 843 2897 56832 6109
internal_value=0 -0.0410134 0.0208823 -0.0709553 -0.0876995 0.0463548 -0.00198839 -0.0254532 0.023605 0.00919268 -0.0211531 -0.0787198 0.0208076 0.0520286 0.057476
internal_weight=0 28489.5 58367.8 17846.3 15092.4 27613.3 30754.5 16044.5 14710 10643.2 6535.61 1198.28 2753.95 26415 4107.59
internal_count=370552 175561 194991 129362 116142 68209 126782 75591 51191 46199 32958 6645 13220 61564 13241
is_linear=0
shrinkage=0.1


Tree=9
num_leaves=16
num_cat=0
split_feature=67 138 193 16 112 128 250 23 206 148 282 142 2 142 227
split_gain=8869.2 3643.46 3536.22 2065.07 2050.9 1583.14 1540.7 1297.51 1236.08 1201.23 933.175 931.244 750.066 578.488 120.171
threshold=1.0000000180025095e-35 -1.0000000180025095e-35 1.0000000180025095e-35 -0.33377203220568458 0.10397862329238794 0.32454444288383255 0.3310892249409631 -0.71716964198126221 11.500000000000002 1.8123961169025105 0.72797177549112546 0.064883056777727474 -0.26689388422887811 -1.0112061104685222 2.5000000000000004
decision_type=2 2 2 2 2 2 2 2 2 2 2 2 2 2 2
left_child=3 2 4 8 -2 9 -7 -4 12 -5 -10 13 -1 -3 -13
right_child=1 11 7 5 -6 6 -8 -9 10 -11 -12 14 -14 -15 -16
leaf_value=0.0066579037502642645 -0.079798555444644523 -0.078053092963179804 -0.18624433985885011 0.039927234558817026 0.047577284216289838 -0.099656104828868011 0.026455404823188308 -0.0091374050383906565 -0.1717588814188401 -0.062986270291859714 0.10273973530223555 -0.046936703806160496 0.085464179271480756 0.051609659639746723 -0.15321039655312291
leaf_weight=1351.3766411021352 16987.341428697109 361.73424810916185 420.92847277224064 17213.895732268691 1365.6921723932028 1955.1222723796964 1920.1585611701012 23941.797452107072 356.8669156730175 1214.1746552586555 189.66835474222898 191.63239190727472 11363.894685335457 7051.6673440635204 239.23262715339661
leaf_count=4392 132301 1985 3434 50697 5168 13946 8298 100806 2677 6399 260 1031 17773 18927 1855
internal_value=0 -0.0256665 -0.0371701 0.03951 -0.0703202 0.0209289 -0.0371693 -0.0121974 0.0707592 0.0331465 -0.0764975 0.0369763 0.0770887 0.0452828 -0.105944
internal_weight=0 50560 42715.8 35565.2 18353 22303.4 3875.28 24362.7 13261.8 18428.1 546.535 7844.27 12715.3 7413.4 430.865
internal_count=369949 265507 241709 104442 137469 79340 22244 104240 25102 57096 2937 23798 22165 20912 2886
is_linear=0
shrinkage=0.1


Tree=10
num_leaves=15
num_cat=0
split_feature=67 211 232 100 227 236 126 102 282 254 177 144 231 123
split_gain=6962.63 5174.34 2664.69 2610.32 1932.67 2344.17 1899.43 1825.1 1791.04 1706.56 1543.45 1202.55 1041.06 823.783
threshold=1.0000000180025095e-35 2.5000000000000004 10.500000000000002 -0.26590224787520728 5.5000000000000009 28.500000000000004 1.0000000180025095e-35 -0.040062011982746816 0.50817689704682267 0.087357619113452648 1.0557378199703835 0.37571403006502618 3.5000000000000004 -0.61285417832622302
decision_type=2 2 2 2 2 2 2 2 2 2 2 2 2 2
left_child=4 3 6 9 12 11 -3 -7 -5 -2 -4 -6 13 -1
right_child=1 2 10 8 5 7 -8 -9 -10 -11 -12 -13 -14 -15
leaf_value=-0.071924231537836988 0.036137513154347316 -0.12260203776617214 -0.070783328016906108 -0.052495178213937344 0.036855854190087772 -0.051143055934217523 0.011819242547337841 0.05703519372821883 0.020779126246835797 -0.087755400002137815 0.015251870614624583 0.082572446005589967 0.13977537123541733 0.013404706685571074
leaf_weight=2712.158860065043 15253.006946027279 8058.5043473318219 4112.4435186088085 10835.508716359735 12153.090091273189 4022.7285641804338 1208.9002116769552 2547.0342999920249 4819.5511151477695 1199.215466581285 4229.8764981254935 10927.279851973057 361.79137536138296 1941.211061745882
leaf_count=17462 52638 71897 26764 66691 34382 20027 4591 6434 18719 6881 17166 18810 390 6944
internal_value=0 -0.0245988 -0.06816 -0.000706936 0.0337877 0.0434986 -0.105067 -0.00920338 -0.029937 0.0271069 -0.0271602 0.0585001 -0.0236242 -0.0363282
internal_weight=0 49717 17609.7 32107.3 34665.3 29650.1 9267.4 6569.76 15655.1 16452.2 8342.32 23080.4 5015.16 4653.37
internal_count=369796 265347 120418 144929 104449 79653 76488 26461 85410 59519 43930 53192 24796 24406
is_linear=0
shrinkage=0.1


Tree=11
num_leaves=16
num_cat=0
split_feature=193 139 234 166 47 252 110 22 67 246 169 183 83 203 183
split_gain=5757.34 2782.83 2744.99 2529.72 2508.45 2066.06 1837.91 1551.75 1350.32 1237.31 1076.95 1063.25 1266.84 629.197 491.629
threshold=1.0000000180025095e-35 -1.0000000180025095e-35 23.500000000000004 1.5084725707225439 -0.23815934742316078 0.03115016737064542 -1.1756908915174715 0.27049077754671896 1.0000000180025095e-35 -0.41437335716706397 0.11419619162998468 0.55962926435546634 1.0000000180025095e-35 1.0000000180025095e-35 0.6810756983779932
decision_type=2 2 2 2 2 2 2 2 2 2 2 2 2 2 2
left_child=1 3 8 5 6 -1 -4 -5 13 -6 -10 12 -3 -2 -13
right_child=2 11 4 7 9 -7 -8 -9 10 -11 -12 14 -14 -15 -16
leaf_value=-0.077620769333186096 0.016410186615549157 -0.050888292606711183 -0.1463741593165713 -0.090734042915969954 -0.16771097760966538 0.070149210577046289 -0.025586088840525597 0.033841381977601191 -0.0019981292331014409 0.023497159007960115 0.058058037906544506 0.17489632792227811 0.061638076472062299 0.071984517219567806 0.052848557984242629
leaf_weight=16907.774589717388 2458.9830452501774 2076.7697376906872 1479.1633019596338 1281.4115787893534 345.41953621059656 1002.2609298974276 8491.5999197587371 4551.47942045331 8851.0989113077521 16720.513768948615 4506.0588275641203 586.16402288526297 1930.5390506535769 11877.525635294616 755.37345103174448
leaf_count=136553 6516 12271 11440 9930 2594 4177 40774 18526 33688 56188 10700 486 5385 18115 2777
internal_value=0 -0.0360437 0.0190105 -0.0507236 -0.00365519 -0.0693514 -0.043505 0.00647375 0.0411386 0.019627 0.0182619 0.0291184 0.00332179 0.0624525 0.106175
internal_weight=0 29091.8 54730.4 23742.9 27036.7 17910 9970.76 5832.89 27693.7 17065.9 13357.2 5348.85 4007.31 14336.5 1341.54
internal_count=370120 190105 180015 169186 110996 140730 52214 28456 69019 58782 44388 20919 17656 24631 3263
is_linear=0
shrinkage=0.1


Tree=12
num_leaves=16
num_cat=0
split_feature=194 107 138 156 219 144 138 190 246 4 166 217 131 131 21
split_gain=4468.87 2474.11 2317.97 2531.18 2305.97 1772.06 1600.84 1593.96 1512.18 2383.92 1651.85 1291.18 843.231 739.522 684.542
threshold=1.0000000180025095e-35 -1.049593829068564 -0.81519550254544038 -0.10904379248049738 19.500000000000004 -1.0000000180025095e-35 -1.541339134937928 0.10198957978621885 -0.14135025439106205 0.78183491845045572 0.88948167413463131 1.0000000180025095e-35 -7.0810542368806333 -2.0549208368077259 -1.0067119997817886
decision_type=2 2 2 2 2 2 2 2 2 2 2 2 2 2 2
left_child=1 5 3 -3 6 14 13 -4 9 -6 -10 -8 -7 -2 -1
right_child=4 2 7 -5 8 12 11 -9 10 -11 -12 -13 -14 -15 -16
leaf_value=0.053552447577916766 0.032269684242645973 0.087562871815508814 0.0219523374340811 -0.098253098467073904 0.0022586935142970741 0.21790148573314055 -0.010674894987010354 -0.052846731914574611 -0.049763312228777501 -0.078700170124603494 0.035272128242187444 0.053974102430276727 0.051651514615293728 -0.16158919275884143 -0.14543278565821646
leaf_weight=237.3730600476265 300.84652134031057 795.57993634045124 5336.1947978064418 9333.0014921352267 11719.422651208937 340.1030013486743 3674.7731321975589 6112.2320781201124 2776.4053744152188 5273.955582074821 12890.923821002245 19390.887309759855 2963.2404754012823 568.86688902974129 636.37676666676998
leaf_count=1013 965 2236 23517 86521 46432 384 14009 43276 14973 32985 40535 41055 11127 4401 6192
internal_value=0 -0.035174 -0.0488113 -0.0836576 0.0150735 0.0352701 0.0386526 -0.0179823 -0.00220643 -0.0228672 0.020203 0.0436744 0.0687681 -0.0945306 -0.0913741
internal_weight=0 25754.1 21577 10128.6 56596.1 4177.09 23935.4 11448.4 32660.7 16993.4 15667.3 23065.7 3303.34 869.713 873.75
internal_count=369621 174266 155550 88757 195355 18716 60430 66793 134925 79417 55508 55064 11511 5366 7205
is_linear=0
shrinkage=0.1


Tree=13
num_leaves=16
num_cat=0
split_feature=198 138 177 118 235 238 180 283 278 156 197 156 196 272 2
split_gain=2683.9 3384.79 2415.64 1841.72 1833.89 1717.74 2214.83 1741.81 1498.92 1877.68 1480.07 1237.1 1229.86 1021.8 774.927
threshold=1.0000000180025095e-35 -0.81519550254544038 1.0557378199703835 0.38303457692633941 27.500000000000004 35.500000000000007 3.3317352490295247 0.95172208596961549 -0.28738604959617914 0.095127720982344538 11.500000000000002 -0.10321032066727333 2.5000000000000004 -1.4248571254161164 -0.2351160021287669
decision_type=2 2 2 2 2 2 2 2 2 2 2 2 2 2 2
left_child=1 2 3 -1 12 7 -7 -6 9 -3 -4 -10 13 -2 -14
right_child=4 8 10 -5 5 6 -8 -9 11 -11 -12 -13 14 -15 -16
leaf_value=-0.099030399216501253 -0.18075422319131473 -0.080878146361767378 -0.052124423163320027 0.04321981803600438 -0.07322291330882634 0.019296868965162788 -0.13250512789768965 0.060130941581024833 0.093895262207258023 0.12851475304437748 0.067819429217514313 0.0095137579232989732 0.019992994472042513 0.0015949952534252858 0.059780672404387697
leaf_weight=9189.6179970130324 326.72750455141068 3005.8129744157195 2130.824597902596 1010.2132077291608 5396.226534716785 16918.897364884615 1019.0267406925559 1196.671294040978 2049.9787991866469 499.40107712894678 1989.196978725493 11396.163284897804 8100.8720172941685 5167.6127746850252 12369.888599447906
leaf_count=87669 2287 23258 15588 4635 30815 63747 7349 3567 4089 708 5977 53710 23728 17362 25378
internal_value=0 -0.0230427 -0.058838 -0.0849416 0.014237 -0.00536937 0.0106732 -0.049018 0.00719585 -0.0510451 0.00578594 0.0223784 0.0327604 -0.00924862 0.0440355
internal_weight=0 31271.2 14319.9 10199.8 50495.9 24530.8 17937.9 6592.9 16951.4 3505.21 4120.02 13446.1 25965.1 5494.34 20470.8
internal_count=369867 195634 113869 92304 174233 105478 71096 34382 81765 23966 21565 57799 68755 19649 49106
is_linear=0
shrinkage=0.1


Tree=14
num_leaves=16
num_cat=0
split_feature=67 211 169 260 286 133 283 12 113 116 38 242 251 15 158
split_gain=4646.04 3709 2297 2061.1 1721.56 1521.45 1481.1 1364.48 1512.4 1238.69 1055.24 1323.07 931.14 815.204 544.318
threshold=1.0000000180025095e-35 2.5000000000000004 0.06892176530751927 0.053180713028093581 0.0066301303663737288 0.22976024199316847 0.28999615388031513 -0.065921853782743095 -3.3733771892779871 -2.051527130405955 0.23800739223727696 -0.23594237731340337 0.16837433564382512 -0.52427025950844441 1.2850687193859083
decision_type=2 2 2 2 2 2 2 2 2 2 2 2 2 2 2
left_child=6 2 4 5 -2 -3 7 8 -1 -5 14 -12 -4 -9 -8
right_child=1 3 12 9 -6 -7 10 13 -10 -11 11 -13 -14 -15 -16
leaf_value=-0.207195343007372 0.0084720732500302293 -0.041723744186347021 0.060532221461266515 0.11225897987082861 -0.046350407205205647 0.0866340303524821 0.089200008767482963 -0.08622232353994852 0.0027998550887093272 -0.10900589683053984 -0.21302878404147796 0.034058674763844082 -0.043220358005269896 0.051722557724851938 -0.011069527731363354
leaf_weight=351.33452629297972 13617.635905578732 8948.1373465582728 6952.0745617002249 263.4075660854578 9886.6894441768527 1029.7141159772873 6547.3455286547542 448.40176874399185 14392.882179535925 6409.4987982884049 270.92431161552668 1082.9917088896036 987.92356295883656 9606.6481313481927 590.1991108506918
leaf_count=2924 60145 54720 16748 497 63441 3239 10983 2534 55293 62166 2167 3017 4685 25234 2255
internal_value=0 -0.0190872 0.00112083 -0.0572493 -0.0145881 -0.0284772 0.0295092 0.0171667 -0.00220404 -0.100272 0.0655553 -0.0153846 0.0476229 0.0455709 0.0809088
internal_weight=0 48095.1 31444.3 16650.8 23504.3 9977.85 33290.7 24799.3 14744.2 6672.91 8491.46 1353.92 7940 10055 7137.54
internal_count=370048 265641 145019 120622 123586 57959 104407 85985 58217 62663 18422 5184 21433 27768 13238
is_linear=0
shrinkage=0.1


Tree=15
num_leaves=15
num_cat=0
split_feature=67 204 230 16 139 227 236 252 99 241 256 12 177 283
split_gain=3663.66 2782.84 2845.79 2137 1651.62 1601 1652.57 1535.06 1271.51 1203.59 914.307 756.451 724.045 652.161
threshold=1.0000000180025095e-35 2.5000000000000004 2.5000000000000004 1.3110307266184342 -3.5740293792269271 5.5000000000000009 28.500000000000004 -0.05075196752335407 -0.22233249520151041 0.048061909239787141 -0.83886894239576826 -0.091200231640047327 1.7946914317055904 -0.1412633546688212
decision_type=2 2 2 2 2 2 2 2 2 2 2 2 2 2
left_child=5 3 9 4 -2 12 10 -4 -8 -3 -7 -5 13 -1
right_child=1 2 7 11 -6 6 8 -9 -10 -11 -12 -13 -14 -15
leaf_value=-0.071419010072230921 0.11366499159683754 -0.11230061617863892 -0.049538794628389671 0.013229796831899596 -0.014995213094746801 0.083067365129036105 -0.085212035376290685 0.037177829535606097 0.016471667042813123 0.050921001418116056 0.036119508462491727 0.10414879755550627 0.10062115076993799 0.008475349451259228
leaf_weight=2610.2809495851398 1035.4744938015938 6337.4314399212599 4950.9901614412665 1491.8625573515892 27388.035014390945 5587.4577755257487 1645.8615934029222 3473.5815792381763 4864.1121807992458 486.45252004265785 16104.170647293329 2367.0511412471533 399.4148943349719 1678.8041808754206
leaf_count=18157 2194 67417 29910 5343 142629 7303 9615 12693 16876 1334 45742 4345 548 6101
internal_value=0 -0.0174578 -0.0526645 -0.000827994 -0.0103081 0.0259554 0.0349513 -0.0137842 -0.00923616 -0.100665 0.0482126 0.0689994 -0.0281552 -0.0401473
internal_weight=0 47530.9 15248.5 32282.4 28423.5 32890.1 28201.6 8424.57 6509.97 6823.88 21691.6 3858.91 4688.5 4289.09
internal_count=370207 265865 111354 154511 144823 104342 79536 42603 26491 68751 53045 9688 24806 24258
is_linear=0
shrinkage=0.1


Tree=16
num_leaves=16
num_cat=0
split_feature=67 204 252 158 16 252 283 19 184 161 283 276 283 261 144
split_gain=3090.77 2136.35 2231.77 2290.03 1691.73 1800.22 1390.28 1300.75 1328.47 1175.18 963.79 814.132 671.81 582.327 528.741
threshold=1.0000000180025095e-35 2.5000000000000004 -0.029014659565743849 -0.84758961006368772 1.3110307266184342 -0.10330563883415607 0.39750046509852299 0.78538310009656287 -0.22358284789565414 0.66142056371836133 -0.37811874588654654 0.51388538501816672 1.0395453038701088 -0.57405201423210739 0.37571403006502618
decision_type=2 2 2 2 2 2 2 2 2 2 2 2 2 2 2
left_child=6 4 3 -3 5 -2 7 8 -1 -6 -4 14 -13 -9 -8
right_child=1 2 10 -5 9 -7 11 13 -10 -11 -12 12 -14 -15 -16
leaf_value=-0.1224207359627819 0.02793220759050094 0.042287881925600124 0.060815396027101669 -0.088888179921024352 -0.05837455797328589 -0.025969664500410473 0.040635410882400774 0.090302547325997753 0.0075056414366433885 0.087691856086001774 -0.033721348224774864 -0.14147733800390835 0.065315774306245841 0.02538761676454131 0.097432907464325702
leaf_weight=820.90674453228712 9134.1957500502467 1554.2111241556704 2225.5323859080672 9260.7673857919872 667.19739607721567 19263.017725788057 2822.3900801092386 2690.9286577776074 19035.512442976236 3157.5811823233962 2092.1971194818616 337.23635643720627 294.1074815094471 2840.7448652610183 3909.1485978960991
leaf_count=6052 33357 6087 7854 85875 3255 111031 7396 4262 70043 6520 11724 2289 631 8436 5033
internal_value=0 -0.0147783 -0.0457719 -0.070037 -0.000222489 -0.00863169 0.0251767 0.0140812 0.00213421 0.0622119 0.0150067 0.0634354 -0.0451441 0.056966 0.0736189
internal_weight=0 47354.7 15132.7 10815 32222 28397.2 32751 25388.1 19856.4 3824.78 4317.73 7362.88 631.344 5531.67 6731.54
internal_count=369845 265703 111540 91962 154163 144388 104142 88793 76095 9775 19578 15349 2920 12698 12429
is_linear=0
shrinkage=0.1


Tree=17
num_leaves=16
num_cat=0
split_feature=67 211 260 180 251 142 116 283 25 121 254 131 142 148 276
split_gain=2365.18 2537.95 1815.69 1569 1565.11 1775.17 1390 1184.21 1190.3 1118.47 974.831 737.71 1178.96 655.311 363.644
threshold=1.0000000180025095e-35 2.5000000000000004 -0.030949860439036726 1.5088579813281926 -0.6714009845586203 -0.74032849250653532 -2.051527130405955 0.28999615388031513 0.15947066322687656 0.023647316347840511 -1.5715997711383707 -2.7341285394930002 -0.92215045524814299 1.1883340442899064 0.10802405521989705
decision_type=2 2 2 2 2 2 2 2 2 2 2 2 2 2 2
left_child=7 4 3 -3 10 -6 -4 8 9 -1 -2 12 -9 -10 -13
right_child=1 2 6 -5 5 -7 -8 11 13 -11 -12 14 -14 -15 -16
leaf_value=-0.00094306404941108088 -0.11711707445223102 -0.045025304462314543 0.11099906291462003 0.046182967976886313 0.020654909413207828 -0.032711243809177414 -0.094850647614314221 -0.18136722649306566 0.053821560525822792 -0.20730987242270787 0.058972361304483439 0.080307726135963764 0.038297001390559963 -0.072933180811285553 0.026158351516547041
leaf_weight=16977.625153899193 333.38114286959171 6044.1800910048187 344.95714222639799 2741.5458105057478 11415.814874872565 13729.827404469252 6685.2919405996799 319.62013434618711 6254.6451844722033 266.75703762471676 5517.6229945123196 5167.4218446016312 1037.2735449448228 436.32009837031364 1631.8382466956973
leaf_count=67982 2078 39426 646 10887 46890 80812 69766 2398 13554 2148 15412 8367 2871 2240 4846
internal_value=0 -0.0142766 -0.046873 -0.0165642 0.00235559 -0.00848366 -0.0847501 0.020969 0.00975545 -0.0041354 0.0489391 0.0538766 -0.0134455 0.0455558 0.0673118
internal_weight=0 46812.6 15816 8785.73 30996.6 25145.6 7030.25 32091.5 23935.3 17244.4 5851 8156.15 1356.89 6690.97 6799.26
internal_count=370323 265917 120725 50313 145192 127702 70412 104406 85924 70130 17490 18482 5269 15794 13213
is_linear=0
shrinkage=0.1


Tree=18
num_leaves=15
num_cat=0
split_feature=67 211 225 276 283 139 22 181 234 163 231 128 105 211
split_gain=2100.6 2787.45 1594.38 1373.83 1340.24 1284.04 1644.52 1169.59 1093.46 1049.9 795.933 486.81 442.417 21.6515
threshold=1.0000000180025095e-35 2.5000000000000004 12.500000000000002 -0.48554967562722789 1.0711883926953449 -3.5740293792269271 -1.0000000180025095e-35 2.4738200482315675 5.5000000000000009 0.46352591844550695 3.5000000000000004 -1.1008938600285976 -0.58518326558369882 47.500000000000007
decision_type=2 2 2 2 2 2 2 2 2 2 2 2 2 2
left_child=7 5 4 -4 -3 11 -7 8 10 -10 -1 -2 -9 -14
right_child=1 2 3 -5 -6 6 -8 12 9 -11 -12 -13 13 -15
leaf_value=-0.032187496981060854 0.13814355236647377 -0.089904074042003554 -0.11431939979768405 0.006500027909837342 0.062348896270136969 -0.030788373482025701 0.017542593277023323 0.0031149978608571195 0.05698094043077169 0.015283830183482602 0.10817283202152057 0.023167624455581091 -0.23337586504554675 -0.17990440673350694
leaf_weight=4711.0520817227662 926.3434190377593 7674.18187360093 1125.6213987618685 5742.8551688715816 625.2718268558383 11535.053464308381 18067.367322638631 161.51701460033655 9413.3706095740199 16843.827844694257 441.90198670327663 611.2402968108654 115.84519580006599 218.65792739391327
leaf_count=25763 1143 80152 8703 29274 2589 70932 70723 593 21291 53271 550 2460 1019 1834
internal_value=0 -0.0137854 -0.0489392 -0.0133001 -0.0784335 0.00333758 -0.00129034 0.019561 0.021967 0.0302325 -0.0201506 0.0924368 -0.132797 -0.198423
internal_weight=0 46307.9 15167.9 6868.48 8299.45 31140 29602.4 31906.2 31410.2 26257.2 5152.95 1537.58 496.02 334.503
internal_count=370297 265976 120718 37977 82741 145258 141655 104321 100875 74562 26313 3603 3446 2853
is_linear=0
shrinkage=0.1


Tree=19
num_leaves=16
num_cat=0
split_feature=194 135 15 146 153 120 39 11 188 25 4 164 191 99 188
split_gain=1951.28 1804.67 2684.45 1626.97 1898.96 1636.66 1591.47 1513.4 1389.99 1224.92 1222.6 2086.33 1081.88 800.011 417.024
threshold=1.0000000180025095e-35 -1.0000000180025095e-35 -1.0000000180025095e-35 -0.25134300575435559 -0.69245831808522162 -2.0879273758536034 -0.90258580127575805 -0.28375410875613821 1.8354742603551013 -1.0000000180025095e-35 0.82763764830558062 1.2219982507558895 0.65088234727674876 -0.2238100272578071 1.292988568742224
decision_type=2 2 2 2 2 2 2 2 2 2 2 2 2 2 2
left_child=1 2 6 4 13 -6 -1 14 -9 -4 12 -12 -5 -2 -3
right_child=3 7 9 10 5 -7 -8 8 -10 -11 11 -13 -14 -15 -16
leaf_value=0.03965342661941073 0.063071965336432542 0.047821894502968421 -0.093066274434871532 0.018184042079325096 0.042897379357936957 -0.053234617035085897 -0.10252608114647527 -0.029883396491293408 0.079802478400508955 0.044566932860986744 0.017411890132617843 -0.098018750539226457 0.05895273361597364 -0.060572019840271801 0.13980345205865294
leaf_weight=889.86091995611787 3348.4422131031752 1652.0779632329941 818.48738649487495 20803.672439277172 2157.5625717490911 9885.2160751149058 6828.7325591035187 8136.581982832402 1346.5460665747523 3079.828664124012 5984.8055869266391 2120.6449607908726 9473.1546444259584 620.22924868017435 702.49011089280248
leaf_count=4678 8091 6315 7382 67236 6464 51755 78041 58544 3776 14942 22873 14018 22253 3252 990
internal_value=0 -0.0239709 -0.0519718 0.0105352 -0.016242 -0.0360118 -0.0861345 0.00350787 -0.0143087 0.0156696 0.0217055 -0.0127885 0.0309399 0.0437487 0.0752648
internal_weight=0 23454.6 11616.9 54393.7 16011.5 12042.8 7718.59 11837.7 9483.13 3898.32 38382.3 8105.45 30276.8 3968.67 2354.57
internal_count=370610 174668 105043 195942 69562 58219 82719 69625 62320 22324 126380 36891 89489 11343 7305
is_linear=0
shrinkage=0.1


Tree=20
num_leaves=16
num_cat=0
split_feature=194 135 177 15 146 186 119 11 16 19 249 191 182 279 153
split_gain=1756.93 1592.55 2279.83 2285.01 1409.22 1675.37 1422.24 1368.8 1434 1298.27 1130.71 1004.82 422.342 412.001 252.854
threshold=1.0000000180025095e-35 -1.0000000180025095e-35 1.8375292601571529 -1.0000000180025095e-35 -0.2351160021287669 2.5976795696992512 -0.69310221633706648 -0.28375410875613821 0.09672594971017133 1.3371382686412303 -0.81598712613060476 -1.0092110047254998 1.0000000180025095e-35 -0.96654758986095557 1.0239421123435737
decision_type=2 2 2 2 2 2 2 2 2 2 2 2 2 2 2
left_child=1 2 3 -1 5 10 14 12 -9 -7 -2 -8 -3 -4 -6
right_child=4 7 13 -5 6 9 11 8 -10 -11 -12 -13 -14 -15 -16
leaf_value=-0.10035467876372606 0.067325428626844222 0.087512366223433558 0.15985150544063936 0.00013793630703259178 -0.19306806980031793 -0.085458801137870175 -0.12725358807196299 -0.029387604547778435 0.091307119945262721 0.054996017498254259 -0.0058615815448436479 0.02762570942171538 -0.032802689114377302 0.036514807168292245 -0.028635403856360198
leaf_weight=6568.7445379197598 2467.7436542212963 2031.6892813630402 431.09215753525496 3451.5935050286353 347.07189436256886 3988.1687790378928 424.57659025490284 8180.3612125851214 1119.0710585042834 788.15709199011326 14601.197556208819 31282.943764168769 340.68281902745366 728.58596637099981 128.0096548423171
leaf_count=80134 5440 5325 402 21579 3142 24658 2627 59517 2596 1977 60551 96255 1953 2752 620
internal_value=0 -0.0234035 -0.0503768 -0.0657391 0.00967256 -0.00992997 0.0229786 0.00243326 -0.0148635 -0.0622819 0.00471944 0.0255518 0.0702346 0.0823633 -0.148762
internal_weight=0 22851.8 11180 10020.3 54027.9 21845.3 32182.6 11671.8 9299.43 4776.33 17068.9 31707.5 2372.37 1159.68 475.082
internal_count=369528 174258 104867 101713 195270 92626 102644 69391 62113 26635 65991 98882 7278 3154 3762
is_linear=0
shrinkage=0.1


Tree=21
num_leaves=16
num_cat=0
split_feature=138 283 142 112 266 246 187 43 288 211 167 256 16 284 214
split_gain=1548.36 1741.54 1696.23 2112.56 1373.02 2159.89 1563.7 1343.71 1316.55 1093.25 901.89 988.012 521.092 345.832 205.938
threshold=-0.74258113930619163 0.63221494963241232 -0.76630305861247916 1.3136209671835117 -0.37375137245993767 0.045533685827097048 0.39963936594782684 -0.65498361855352971 1.2209907232268959 83.500000000000014 -0.67384832395656102 -0.81529775325356435 1.1582065332788705 0.31651458328872512 14.500000000000002
decision_type=2 2 2 2 2 2 2 2 2 2 2 2 2 2 2
left_child=1 2 7 -4 5 6 -2 -1 9 -3 13 -12 -7 -6 -10
right_child=4 8 3 -5 10 12 -8 -9 14 -11 11 -13 -14 -15 -16
leaf_value=0.024668731091330658 -0.02208098191723859 0.044848433205699839 -0.069031335015967685 0.09034386923010565 -0.18663549447990782 -0.014488271486369483 -0.20402879425158582 -0.024856874054572594 -0.023416116756366217 -0.1483182987388256 0.063113170336632288 0.016095135250876094 0.11963145163461351 -0.013630044979053735 -0.17026945993657822
leaf_weight=8340.297955352813 937.91106781363487 7748.1637412235141 9843.1070314645767 908.46315105259418 275.20215231925249 527.43412858992815 951.56530586630106 15964.505556061864 129.97977417334914 304.50677389651537 5514.3983117304742 23580.212166652083 642.66243980824947 199.16170425713062 359.90060565248132
leaf_count=34497 3520 27996 86668 1513 2502 1765 7600 89703 776 2283 10786 95651 608 945 3333
internal_value=0 -0.0126261 -0.0224921 -0.0555648 0.016178 -0.0475935 -0.113712 -0.00786195 0.0278612 0.037544 0.0227766 0.0250066 0.0591755 -0.113999 -0.131305
internal_weight=0 43598.9 35056.4 10751.6 32628.5 3059.57 1889.48 24304.8 8542.55 8052.67 29569 29094.6 1170.1 474.364 489.88
internal_count=370146 246769 212381 88181 123377 13493 11120 124200 34388 30279 109884 106437 2373 3447 4109
is_linear=0
shrinkage=0.1


Tree=22
num_leaves=15
num_cat=0
split_feature=46 18 240 179 22 286 233 107 206 260 117 25 110 116
split_gain=1756.23 1539.54 1427.99 1504.67 1492.59 665.769 640.789 764.15 604.562 576.023 572.755 385.898 296.972 258.797
threshold=-0.66982609879040167 1.0000000180025095e-35 0.85376038497271123 0.66190810611359086 0.52371432615086499 -1.0008463703961514 2.5000000000000004 -1.2197797055622837 26.500000000000004 -1.004569964552247 -1.2766918289649241 -0.21404339807602937 -1.0000000180025095e-35 -0.54798932464997119
decision_type=2 2 2 2 2 2 2 2 2 2 2 2 2 2
left_child=5 2 4 -4 -2 9 12 -8 10 -1 -7 -10 -3 -11
right_child=1 6 3 -5 -6 8 7 -9 11 13 -12 -13 -14 -15
leaf_value=0.074320661180078976 -0.03217039246758218 0.13222886744495674 -0.056737501734104301 0.039013610180842186 0.0059805919490531698 0.058186676673671028 0.078129691346933677 -0.17178717420426404 0.0045716915644147945 -0.22285880566270452 0.019769350543973642 -0.21073008856033507 0.045216043416592008 -0.066472579042611682
leaf_weight=182.00263758003712 29912.480871081352 1133.5869679450989 2014.7842690087855 8850.2061461135745 15604.505637850612 6328.3040197230875 293.48434598743916 209.80858143419027 169.03492739796638 195.47251910716295 10033.87003768608 164.03446536511183 599.76538854837418 230.71634863689542
leaf_count=286 193905 1272 11925 29493 66488 17742 577 2058 660 1691 39147 1366 2003 1377
internal_value=0 -0.00808801 -0.0113158 0.0212577 -0.0190912 0.0281689 0.0732791 -0.0260536 0.0319128 -0.0746024 0.0346278 -0.101463 0.102121 -0.138199
internal_weight=0 58618.6 56382 10865 45517 17303.4 2236.65 503.293 16695.2 608.192 16362.2 333.069 1733.35 426.189
internal_count=369990 307721 301811 41418 260393 62269 5910 2635 58915 3354 56889 2026 3275 3068
is_linear=0
shrinkage=0.1


Tree=23
num_leaves=15
num_cat=0
split_feature=67 211 254 100 225 13 134 124 236 102 126 234 211 167
split_gain=1424.6 1927.49 1450.9 1462.48 1388.65 1255.5 1180.04 1041.69 994.761 1300.81 1098.69 873.291 880.819 722.378
threshold=1.0000000180025095e-35 2.5000000000000004 0.17858132489983972 -0.26590224787520728 13.500000000000002 -0.50118919255897054 -0.46251717498260869 0.61929256886840445 50.500000000000007 0.67323546976595205 1.5505961306338103 6.5000000000000009 6.5000000000000009 0.028920504853952308
decision_type=2 2 2 2 2 2 2 2 2 2 2 2 2 2
left_child=8 2 3 -2 7 -4 -6 -3 11 10 -10 13 -13 -1
right_child=1 4 5 -5 6 -7 -8 -9 9 -11 -12 12 -14 -15
leaf_value=0.00097705987376358792 0.029270299765469184 -0.0808782528541796 0.14675933863573795 -0.015597599542082353 -0.04805334327352645 -0.1484877419109685 0.038446751527694577 0.04317833241025798 -0.094047347169684631 0.10066947581809618 0.10439734669166501 0.11068007413208987 0.026473113670059889 -0.10805929135525159
leaf_weight=5338.1802503913641 14705.312069464475 7293.5740824602544 168.07158114761114 14357.675427887589 3300.7084604389966 1006.7549942284822 3020.2258263900876 746.0993135869503 2178.0405799821019 554.61859988421202 319.98292364180088 1322.4602515995502 20467.144059449434 685.6482068747282
leaf_count=24291 53396 83915 105 84121 21221 7454 13092 2507 13255 664 443 1014 58812 6156
internal_value=0 -0.0116262 0.00270056 0.00710469 -0.0417927 -0.106249 -0.00672246 -0.0693655 0.0163197 -0.037869 -0.0686277 0.0222671 0.0315838 -0.0114337
internal_weight=0 44598.4 30237.8 29063 14360.6 1174.83 6320.93 8039.67 30866.1 3052.64 2498.02 27813.4 21789.6 6023.83
internal_count=370446 265811 145076 137517 120735 7559 34313 86422 104635 14362 13698 90273 59826 30447
is_linear=0
shrinkage=0.1


Tree=24
num_leaves=11
num_cat=0
split_feature=129 144 282 37 100 133 159 133 186 284
split_gain=1320.76 1427.6 1407 1233.83 958.935 1217.41 926.382 901.926 407.195 178.345
threshold=1.5269550038833097 1.3591236744465491 -0.77863792656981856 -0.26112729275514018 -0.87851361226000069 0.54533195213029362 1.252792549833863 -2.2246802368240415 1.5810784843497687 0.51542601533994847
decision_type=2 2 2 2 2 2 2 2 2 2
left_child=1 2 6 -4 7 -6 -1 -3 -2 -10
right_child=8 4 3 -5 5 -7 -8 -9 9 -11
leaf_value=-0.085979678860684347 0.1096992944364294 -0.012444076127006341 0.017088175923060181 -0.014025985539707009 -0.012540552086740707 0.10703572513252456 0.070926412970521255 0.093662788348233661 -0.04269434648648944 0.066230858721028033
leaf_weight=3256.6318276412785 1402.3616690635681 1058.7570331431925 18692.160130530596 40057.771988883615 5271.8198795244098 1015.4217059388757 425.43552457541227 3291.7731077186763 303.04271999001503 298.25947445631027
leaf_count=33250 1880 3958 76252 221252 23779 1427 1128 5419 1407 597
internal_value=0 -0.00211508 -0.00788481 -0.00412655 0.0317469 0.00677163 -0.0678503 0.0678403 0.08018 0.011335
internal_weight=0 73069.8 62432 58749.9 10637.8 6287.24 3682.07 4350.53 2003.66 601.302
internal_count=370349 366465 331882 297504 34583 25206 34378 9377 3884 2004
is_linear=0
shrinkage=0.1


Tree=25
num_leaves=16
num_cat=0
split_feature=177 275 256 235 102 228 141 142 212 156 260 176 262 282 277
split_gain=1296.49 2136.37 1493.05 1471.21 1193.19 1606.74 1135.03 1131.7 1126.8 1029.36 1164.3 805.557 740.064 493.183 279.162
threshold=0.73445410658364663 0.67496968494485909 1.5073709614512978 1.0000000180025095e-35 -0.37531182840463523 19.500000000000004 -0.24816067343786621 -0.69209001259549641 10.500000000000002 0.5109055649248827 -0.59710249192070275 2.1387385130784291 -0.89700611034753919 -0.53577032460916174 0.25313575540154654
decision_type=2 2 2 2 2 2 2 2 2 2 2 2 2 2 2
left_child=1 2 3 -1 5 6 -2 13 -4 10 -6 -7 -9 -3 -11
right_child=4 7 8 -5 9 11 -8 12 -10 14 -12 -13 -14 -15 -16
leaf_value=0.047499854590419339 0.098841356143179793 -0.0044620402284785976 0.069469724990583112 -0.034590752851618244 -0.038935213323360092 -0.164303050326533 -0.048254833300279243 0.054606847355680443 -0.071821487716424479 0.067488037327977674 0.026035450425801212 0.10381735504616606 -0.044683920681594769 0.073123212022663003 0.14946057790539097
leaf_weight=2358.0324247702956 872.13833349570632 990.63220738247037 2760.4282308518887 29439.062322497368 3152.0488967373967 1033.7010716944933 1316.3004338145256 1105.3276433758438 709.51819687336683 1245.2343333438039 22076.345301795751 125.68044221401215 2339.5804360564798 4737.5821190811694 623.45544447749853
leaf_count=6834 1227 5533 5421 194405 15997 9114 6347 4024 3945 2463 87250 211 15537 11433 554
internal_value=0 -0.0105239 -0.021706 -0.028503 0.016264 -0.040058 0.0103661 0.032467 0.0405792 0.0232225 0.017918 -0.135238 -0.0128256 0.0597057 0.0948367
internal_weight=0 44440.2 35267 31797.1 30444.9 3347.82 2188.44 9173.12 3469.95 27097.1 25228.4 1159.38 3444.91 5728.21 1868.69
internal_count=370295 247132 210605 201239 123163 16899 7574 36527 9366 106264 103247 9325 19561 16966 3017
is_linear=0
shrinkage=0.1


Tree=26
num_leaves=14
num_cat=0
split_feature=46 18 279 252 139 233 238 206 15 218 189 209 277
split_gain=1288.7 1414.95 1250.77 1476.61 990.921 586.107 662.74 576.34 601.359 699.096 524.579 260.624 257.581
threshold=-0.66982609879040167 1.0000000180025095e-35 0.50157786889269851 -0.041604283047616937 -0.93747191797353591 2.5000000000000004 13.500000000000002 26.500000000000004 2.8201112403043807 1.0000000180025095e-35 -0.043526826213113774 133.50000000000003 0.29351307661152648
decision_type=2 2 2 2 2 2 2 2 2 2 2 2 2
left_child=7 2 3 -2 -4 12 -7 8 10 -10 -1 -9 -3
right_child=1 5 4 -5 -6 6 -8 11 9 -11 -12 -13 -14
leaf_value=-0.0042565928598294603 -0.03906319014371723 0.053897587513290927 -0.0077921089889306161 0.0011853827222981358 0.040304827727587741 0.078248603642851758 -0.16101942334882685 -0.19129291871188744 -0.19633736239002553 0.029754374526091171 0.0395449947775382 -0.011923744420730619 0.13114131953925742
leaf_weight=3493.6988021694124 20513.391713645309 768.33608906343579 10981.230234380811 16404.613950371742 7023.1312939487398 259.1849449891597 209.20457871444523 174.10120686888695 257.81122135743499 291.27920804172754 12577.431461930275 151.49413011223078 985.33912441879511
leaf_count=13513 140467 2181 51447 85259 24862 562 2096 1471 2350 721 43463 679 1082
internal_value=0 -0.00747489 -0.01064 -0.0211786 0.0109695 0.0707563 -0.0286196 0.0239258 0.026507 -0.0764012 0.030023 -0.107835 0.0972986
internal_weight=0 57144.4 54922.4 36918 18004.4 2222.06 468.39 16945.8 16620.2 549.09 16071.1 325.595 1753.68
internal_count=370153 307956 302035 225726 76309 5921 2658 62197 60047 3071 56976 2150 3263
is_linear=0
shrinkage=0.1


Tree=27
num_leaves=11
num_cat=0
split_feature=44 204 246 252 187 227 246 131 147 163
split_gain=1303.15 1601.71 1576.28 1542.12 1246.84 1207.8 1070.83 700.867 171.265 229.119
threshold=-2.6942809933695759 2.5000000000000004 0.11401024407497214 -0.081576909511565293 2.3205598020038694 28.500000000000004 -0.36976395910214532 -2.7341285394930002 0.16441152053414951 0.46352591844550695
decision_type=2 2 2 2 2 2 2 2 2 2
left_child=8 4 3 -3 5 -2 -6 -4 9 -1
right_child=1 2 7 -5 6 -7 -8 -9 -10 -11
leaf_value=0.080794193669401701 0.0099717376347378678 -0.07051829024649979 0.073831193288184133 -0.012356163319397928 -0.12798921971897867 -0.032144110108542429 0.050430506075495311 -0.013756078538841419 0.099296807097138784 0.0023776923101730906
leaf_weight=885.15542248263955 31757.61005333811 7568.5659710466862 2099.1912805810571 11462.985912337899 350.86188871413469 8667.8527000360191 8152.5867389328778 1617.5907603949308 1117.1285751089454 643.47022906690836
leaf_count=1544 140708 67093 4092 72267 2665 47862 25014 6484 975 1864
internal_value=0 -0.00192999 -0.0238535 -0.0354864 0.00826282 0.00094144 0.0430687 0.0357121 0.0695351 0.047785
internal_weight=0 71677.2 22748.3 19031.6 48928.9 40425.5 8503.45 3716.78 2645.75 1528.63
internal_count=370568 366185 149936 139360 216249 188570 27679 10576 4383 3408
is_linear=0
shrinkage=0.1


Tree=28
num_leaves=14
num_cat=0
split_feature=53 227 138 102 177 285 106 75 284 46 231 238 265
split_gain=1116.51 1247.04 1026.05 1181.94 950.9 881.766 734.626 583.535 513.961 478.931 412.147 327.947 269.56
threshold=1.0000000180025095e-35 2.5000000000000004 -1.0000000180025095e-35 -1.0000000180025095e-35 0.95399851287077231 -0.2554600357321512 0.63958207811932899 1.0000000180025095e-35 0.46569816027543515 0.3134967609346197 1.5000000000000002 5.5000000000000009 0.75994223335940358
decision_type=2 2 2 2 2 2 2 2 2 2 2 2 2
left_child=1 10 3 5 -5 -2 9 8 -3 -4 12 -8 -1
right_child=2 7 6 4 -6 -7 11 -9 -10 -11 -12 -13 -14
leaf_value=-0.1078981230180458 -0.18396003215822418 0.013333431332506236 0.046493920278637954 -0.046388835981351136 0.00080920263221397775 0.0020807593991123154 -0.012153689367159564 0.10668674798998977 0.054060524165453094 -0.040841117591594582 0.030401909571151103 -0.16803221287750672 0.022146946171199815
leaf_weight=1133.7954315841198 257.35254772752523 13970.60997450538 5656.0597666651011 14129.713073842227 6116.3885036669672 25323.434129629284 291.19982568174601 860.05389114841819 3981.6983141973615 706.3201019950211 365.37124867737293 251.56666744872928 185.46588476002216
leaf_count=8232 2136 62060 14904 126090 31032 103228 1131 1462 11745 3686 1974 1924 527
internal_value=0 0.0188401 -0.00866356 -0.0140782 -0.0321302 0.000209118 0.0272717 0.0262213 0.0223664 0.0367984 -0.0635859 -0.0844018 -0.089616
internal_weight=0 20497 52732 45826.9 20246.1 25580.8 6905.15 18812.4 17952.3 6362.38 1684.63 542.766 1319.26
internal_count=370131 86000 284131 262486 157122 105364 21645 75267 73805 18590 10733 3055 8759
is_linear=0
shrinkage=0.1


Tree=29
num_leaves=15
num_cat=0
split_feature=28 138 39 67 171 246 153 106 284 102 150 163 243 238
split_gain=1184.22 1138.21 1383.15 1436.68 1183.78 1038.72 901.787 881.198 653.226 514.481 840.361 422.671 75.6601 20.501
threshold=0.46957863322354199 -0.74258113930619163 -1.1333340259185591 1.0000000180025095e-35 3.9798022674363343 -0.41437335716706397 1.4270362285263329 -1.6802839309877058 0.19716774292706046 1.0000000180025095e-35 2.071298533993402 3.1303425664113989 -0.007720964024415502 37.500000000000007
decision_type=2 2 2 2 2 2 2 2 2 2 2 2 2 2
left_child=1 2 7 -4 5 -3 9 -1 13 11 -11 -2 -6 -8
right_child=6 4 3 -5 12 -7 8 -9 -10 10 -12 -13 -14 -15
leaf_value=-0.07853414967886671 0.065933195741312275 -0.14313283194870796 0.0050095171740459389 -0.036962304212684004 -0.22441996266154876 0.015745524141435818 -0.23538936359281265 0.070841719112732418 0.052186961181149294 -0.15064716542856527 0.097076475342671387 -0.024753696528928976 -0.12489736247171715 -0.17799341812589364
leaf_weight=463.81519821286201 5421.3921028599143 417.59476946294308 13237.895491275936 21241.677669512108 180.04168498516083 28189.237196888775 119.11599540710449 2658.8215746060014 162.64049804210663 315.44165508076549 241.99589662998915 567.76503797620535 132.68152693659067 130.3135557807982
leaf_count=2471 12009 2849 53099 171396 1593 111615 1042 6737 382 2081 232 2355 1143 1112
internal_value=0 -0.00360468 -0.0150761 -0.0208479 0.0113109 0.0134263 0.0397521 0.0486544 -0.103734 0.0487837 -0.0431049 0.0573362 -0.182195 -0.205403
internal_weight=0 66521.8 37602.2 34479.6 28919.6 28606.8 6958.66 3122.64 412.07 6546.59 557.438 5989.16 312.723 249.43
internal_count=370116 350903 233703 224495 117200 114464 19213 9208 2536 16677 2313 14364 2736 2154
is_linear=0
shrinkage=0.1


Tree=30
num_leaves=9
num_cat=0
split_feature=141 44 44 156 166 16 249 214
split_gain=1046.01 1022.3 1078.41 1071.51 539.594 175.017 554.543 28.189
threshold=-0.25663464571961542 -2.6942809933695759 1.3472379516320518 -0.10321032066727333 0.55185027599577008 -0.71971787640220997 -0.49221158158895278 23.500000000000004
decision_type=2 2 2 2 2 2 2 2
left_child=7 5 3 -3 -4 -2 -7 -1
right_child=1 2 4 -5 -6 6 -8 -9
leaf_value=-0.22614760864421926 0.08225794319539248 0.015472558606145546 -0.054354817230241027 -0.012972998765246322 0.052912102655720487 0.11179013963286454 -0.048695955301336809 -0.16081866807270795
leaf_weight=148.82601519674063 1668.617010358721 18533.454098688439 520.59553781524301 46385.875971794128 4728.070822712034 406.63350395485759 457.60475763306022 118.75183952227235
leaf_count=1366 1740 69145 3779 276622 13644 410 2228 1134
internal_value=0 0.000925745 -0.00132722 -0.00485224 0.0422727 0.06334 0.0268145 -0.197154
internal_weight=0 72700.9 70168 64919.3 5248.67 2532.86 864.238 267.578
internal_count=370068 367568 363190 345767 17423 4378 2638 2500
is_linear=0
shrinkage=0.1


Tree=31
num_leaves=12
num_cat=0
split_feature=136 119 19 183 107 167 259 214 106 272 1
split_gain=1044.29 1049.09 1024.56 1002.32 539.908 225.823 26.45 26.3664 16.1357 4.32678 0.573643
threshold=-1.4700273053780528 -0.78937189003293839 1.1532198791263413 0.57420283643816949 -0.36884680590541763 -0.048095160937771074 -0.049804985623044938 26.500000000000004 -0.3352552145271675 -0.22979268571422123 -1.0000000180025095e-35
decision_type=2 2 2 2 2 2 2 2 2 2 2
left_child=5 7 3 -3 -4 -1 9 -2 -8 -7 -9
right_child=1 2 4 -5 -6 6 8 10 -10 -11 -12
leaf_value=-0.023709929728532801 -0.19185836254994632 -0.011442562149626707 0.06068064335168262 0.014312362141394001 -0.00078531904978672545 -0.16089692462792007 -0.22505517136783404 -0.14557166428265894 -0.17361292613545512 -0.1280623178595364 -0.13531696160294518
leaf_weight=128.77055611461401 169.21193769201636 41670.065516883507 4221.7036462407559 23708.019794555381 2160.343353914097 77.86771584302187 108.1798629462719 93.431823652237654 139.73374778777361 82.81669170036912 131.08239898085594
leaf_count=773 1600 242732 9859 99412 9124 736 954 921 1345 1319 1507
internal_value=0 0.000737052 0.00163022 -0.00210307 0.0398742 -0.139185 -0.175577 -0.16205 -0.19606 -0.143974 -0.139584
internal_weight=0 72153.9 71760.1 65378.1 6382.05 537.369 408.598 393.726 247.914 160.684 224.514
internal_count=370282 365155 361127 342144 18983 5127 4354 4028 2299 2055 2428
is_linear=0
shrinkage=0.1


Tree=32
num_leaves=16
num_cat=0
split_feature=188 286 183 4 183 140 164 216 138 2 251 286 171 188 117
split_gain=961.863 1325.68 1863.95 1312.52 1102.14 1007.15 933.138 910.068 1039.06 877.012 823.865 440.297 638.804 193.834 158.938
threshold=1.8354737178694112 1.0000000180025095e-35 0.48919033262240058 2.0127829698445789 3.4330518933284542 -1.4194390755936237 3.1632747456041028 4.5000000000000009 -1.1782673187416841 -0.23376375182663453 0.99264517690921295 -0.013040641540104409 0.18715694448402878 2.3779599519679788 -1.6141667841812655
decision_type=2 2 2 2 2 2 2 2 2 2 2 2 2 2 2
left_child=1 3 5 4 -1 -3 -4 11 10 -10 -9 13 -13 -2 -5
right_child=7 2 6 14 -6 -7 -8 8 9 -11 -12 12 -14 -15 -16
leaf_value=0.010653886212995291 0.063286167169052027 -0.012103020919902127 0.015359204268908562 -0.053577383501413361 -0.11707896023810878 -0.073166884906620919 -0.1670794528215972 0.027054725546487371 -0.11869458336045968 -0.0014644580941093025 0.16778283604044614 0.11401159433739194 -0.040663593312322305 0.1243482069201612 -0.17298791248985013
leaf_weight=40550.209617419168 882.79888264462352 4247.0725503787398 8767.1354717202485 149.90308293700218 686.95476800575852 7419.6203398667276 289.6190499253571 3368.7838271725923 862.68727328255773 2451.905064444989 474.60897927731276 447.24936020746827 662.56021764501929 1264.5012050569057 434.71013242006302
leaf_count=188548 2013 26305 39748 898 4718 67891 2370 12329 5999 9522 318 919 3510 1235 4022
internal_value=0 -0.00383159 -0.0245136 0.00641671 0.00852603 -0.0509376 0.00952514 0.0289909 0.00905084 -0.0319759 0.0444328 0.0728121 0.02167 0.0992444 -0.142369
internal_weight=0 62545.2 20723.4 41821.8 41237.2 11666.7 9056.75 10415.1 7157.99 3314.59 3843.39 3257.11 1109.81 2147.3 584.613
internal_count=370345 334500 136314 198186 193266 94196 42118 35845 28168 15521 12647 7677 4429 3248 4920
is_linear=0
shrinkage=0.1


Tree=33
num_leaves=11
num_cat=0
split_feature=129 124 25 119 153 171 102 183 156 186
split_gain=983.084 1009.57 1045.75 1079.4 914.558 793.409 456.431 338.325 238.755 125.857
threshold=1.5269550038833097 0.46957863322354199 0.0010101382742881352 -0.71716964198126221 1.4270362285263329 3.9205421842652046 1.0000000180025095e-35 0.010691382573644418 -0.076673743007116837 1.0000000180025095e-35
decision_type=2 2 2 2 2 2 2 2 2 2
left_child=1 2 3 -1 6 -4 -3 9 -6 -2
right_child=7 4 5 -5 8 -7 -8 -9 -10 -11
leaf_value=-0.13197561534226496 0.12431210381124598 0.05171151324422274 0.02275885445567798 -0.011243518699957629 -0.18905789703345827 -0.11630980576601253 -0.046238848603865512 0.00068310000443321743 -0.022385761716203618 0.064646459931881325
leaf_weight=751.83052000775933 721.81936399638653 5727.2417418062687 13005.908799041063 49210.243526110426 211.08845020458102 423.60204166546464 518.82913866266608 518.82253878563643 144.97295450419188 692.90289807319641
leaf_count=7640 677 14098 47059 289391 1831 3007 2278 1863 636 1398
internal_value=0 -0.00252548 -0.00640131 -0.0130603 0.0346889 0.0183723 0.0435753 0.0697574 -0.121196 0.0950891
internal_weight=0 69993.7 63391.6 49962.1 6602.13 13429.5 6246.07 1933.54 356.061 1414.72
internal_count=369878 365940 347097 297031 18843 50066 16376 3938 2467 2075
is_linear=0
shrinkage=0.1


Tree=34
num_leaves=9
num_cat=0
split_feature=242 282 85 131 225 159 39 220
split_gain=967.942 877.643 889.366 1079.46 892.894 838.089 591.988 329.385
threshold=-0.29765757860239 -0.77863792656981856 1.0000000180025095e-35 -0.017298577760893014 1.5000000000000002 0.52214545442334215 2.3837547033738216 1.0000000180025095e-35
decision_type=2 2 2 2 2 2 2 2
left_child=-1 5 4 -4 -3 6 -2 -7
right_child=1 2 3 -5 -6 7 -8 -9
leaf_value=-0.20556101736207677 -0.076288267425511203 -0.059941986969830136 -0.010718671759964091 0.028433164031240157 0.027290404773882018 -0.004535623596456039 0.10830973638681496 0.13298984981195458
leaf_weight=228.35123465210199 3118.8889766298234 1255.6071340590715 40128.013790952042 8540.9935828819871 17921.005961893126 412.9340572245419 183.97082564607263 301.17770762741566
leaf_count=1983 33851 7666 221089 34438 68575 2251 516 133
internal_value=0 0.000649966 0.003339 -0.00384786 0.0215788 -0.0447671 -0.0660061 0.053466
internal_weight=0 71862.6 67845.6 48669 19176.6 4016.97 3302.86 714.112
internal_count=370502 368519 331768 255527 76241 36751 34367 2384
is_linear=0
shrinkage=0.1


Tree=35
num_leaves=12
num_cat=0
split_feature=136 39 107 99 180 19 206 285 160 194 227
split_gain=865.95 871.991 859.437 1276.19 921.746 898.355 661.939 327.548 198.488 70.3996 34.5277
threshold=-1.4388930120901786 -1.155194384042614 -2.3543566498249793 -0.22676509137040055 6.6082624532127143 1.1072402817476188 21.500000000000004 -0.24673436079563996 0.97792578994948676 1.0000000180025095e-35 39.500000000000007
decision_type=2 2 2 2 2 2 2 2 2 2 2
left_child=1 -1 3 8 5 -4 -5 -3 -2 -9 -6
right_child=2 7 4 6 10 -7 -8 9 -10 -11 -12
leaf_value=0.07757850156556656 -0.18988590378697123 0.0248536552421816 -0.003483207036200823 0.061995132194368141 -0.22938422999395713 0.038724778248713954 -0.05404081021997699 -0.11344364519794169 -0.040679348410294247 -0.18178788780990954 -0.15616087970376621
leaf_weight=245.79833136498928 249.632529117167 108.73346035182476 59577.214285718277 5103.4010174423456 104.34173008427024 5508.9257994759828 544.03206444531679 214.94994528964162 138.69179956242442 504.37655717134476 168.21806743368506
leaf_count=448 2166 485 325205 11573 982 17072 2733 3158 681 4715 1639
internal_value=0 -0.0878171 0.00265499 0.0387594 -0.000679195 8.92995e-05 0.0508171 -0.136913 -0.136596 -0.161365 -0.184192
internal_weight=0 1073.86 71394.5 6035.76 65358.7 65086.1 5647.43 828.06 388.324 719.327 272.56
internal_count=370857 8806 362051 17153 344898 342277 14306 8358 2847 7873 2621
is_linear=0
shrinkage=0.1


Tree=36
num_leaves=16
num_cat=0
split_feature=275 177 164 22 102 145 1 177 183 129 204 203 143 177 32
split_gain=858.582 1221.83 1634.66 1125.91 1031.34 1403.86 1129.48 939.012 829.14 525.923 491.441 430.01 518.309 428.322 244.171
threshold=0.80432230672488114 0.73445410658364663 0.45119709980468242 1.5647444704123541 -0.37531182840463523 -0.38697613443576079 -0.59551322179908439 0.10795247189807632 0.49647711866375227 1.0000000180025095e-35 2.5000000000000004 1.0000000180025095e-35 -0.55645825639641522 1.8375292601571529 -0.69054054172059753
decision_type=2 2 2 2 2 2 2 2 2 2 2 2 2 2 2
left_child=1 2 7 -4 5 -3 -6 -1 9 10 -2 12 -10 -11 -13
right_child=8 4 3 -5 6 -7 -8 -9 11 13 -12 14 -14 -15 -16
leaf_value=0.016452283084318325 0.036907371786917789 0.055155614774207828 -0.050415638491413665 0.027026628048775828 -0.10410420928302465 -0.096809479958694877 0.02234435749958763 -0.030021960081726015 0.1088507185281449 -0.10336445627997895 -0.063634061117035637 0.036737298505406031 -0.09485049942508969 0.041335376467596927 0.10269568629305925
leaf_weight=14369.250822842121 3023.6830668598413 910.60253564268351 14039.092488000169 2167.1589984577149 728.62815664708614 1828.7632058300078 23158.17187984474 6233.6148220803589 206.16608168184757 705.80032762512565 579.30584229156375 779.20161268115044 316.93401621840894 288.05513629689813 2006.49676682055
leaf_count=68330 11721 2515 111234 7324 4387 13237 93553 38917 413 5837 4944 2090 2161 740 2489
internal_value=0 -0.00449549 -0.0162991 -0.0400598 0.0118224 -0.0462942 0.0184872 0.00239101 0.0304528 0.002977 0.0207418 0.0686244 -0.014567 -0.0614252 0.0842461
internal_weight=0 63435.3 36809.1 16206.3 26626.2 2739.37 23886.8 20602.9 7905.64 4596.84 3602.99 3308.8 523.1 993.855 2785.7
internal_count=369892 339497 225805 118558 113692 15752 97940 107247 30395 23242 16665 7153 2574 6577 4579
is_linear=0
shrinkage=0.1


Tree=37
num_leaves=8
num_cat=0
split_feature=141 159 37 38 283 227 146
split_gain=847.905 839.584 812.16 1381.52 951.738 19.4366 10.5634
threshold=-0.25663464571961542 5.8625534041589153 -0.26112729275514018 0.19422439471320033 1.0395453038701088 19.500000000000004 -0.026869455600378515
decision_type=2 2 2 2 2 2 2
left_child=5 2 4 -4 -2 -1 -3
right_child=1 6 3 -5 -6 -7 -8
leaf_value=-0.20996731225144966 0.011017183303875933 -0.19231586047910373 0.002833892064618163 -0.038450362726606645 0.08719993750848036 -0.15477468487327162 -0.1517706444925857
leaf_weight=125.4316350966692 20691.728235973045 160.55175545811653 38095.887632856146 10296.417110446841 1780.9962456654757 129.86728180572391 107.13649458438158
leaf_count=1178 91992 1414 203662 65885 3599 1326 1101
internal_value=0 0.000677454 0.00134518 -0.00595015 0.0170548 -0.181892 -0.176089
internal_weight=0 71132.7 70865 48392.3 22472.7 255.299 267.688
internal_count=370157 367653 365138 269547 95591 2504 2515
is_linear=0
shrinkage=0.1


Tree=38
num_leaves=15
num_cat=0
split_feature=156 156 211 112 11 106 194 237 119 104 153 159 39 191
split_gain=868.941 1304.76 1291.85 1281.76 1302.36 1278.1 1123.71 967.397 865.023 793.154 734.72 594.782 506.472 354.475
threshold=0.013230351996689172 -0.10321032066727333 89.500000000000014 0.02419920352704321 -0.59576251811236103 0.49150550859371295 5.5000000000000009 5.5000000000000009 -0.64978099458206817 0.25340833572978455 -0.77372726376037881 -0.28686757551070435 0.95554463926890409 0.77161646691351504
decision_type=2 2 2 2 2 2 2 2 2 2 2 2 2 2
left_child=1 2 8 4 -3 -5 10 13 -1 -4 12 -12 -2 -8
right_child=6 3 9 5 -6 -7 7 -9 -10 -11 11 -13 -14 -15
leaf_value=-0.098724188648603994 -0.18439693613644267 0.019563203862891388 -0.1658786956458583 0.03479195103682043 -0.032026105300516465 -0.1637905322730186 -0.19622243570926245 0.074689200457671065 0.025154203653344614 0.094367004426883727 0.079474294157154193 0.025117116275909065 0.048970515592893976 -0.033532693839082632
leaf_weight=581.33208575844765 249.8683430776 5946.1165771204978 586.38569206744432 6433.8566527124494 27640.091392500326 341.29683154821396 449.06307666003704 281.70855065435171 18569.105814289302 146.33380667120218 2850.4920081440359 6851.4795418921858 148.13106849044561 190.84141645953059
leaf_count=4354 2323 24519 5393 20823 206497 2686 3758 583 64030 179 8251 25519 378 883
internal_value=0 -0.00455966 0.0164078 -0.0148888 -0.0228927 0.0247884 0.0259794 -0.0797244 0.0213937 -0.113904 0.0356248 0.0410876 -0.0975401 -0.147703
internal_weight=0 60244.5 19883.2 40361.4 33586.2 6775.15 11021.6 921.613 19150.4 732.719 10100 9701.97 397.999 639.904
internal_count=370176 328481 73956 254525 231016 23509 41695 5224 68384 5572 36471 33770 2701 4641
is_linear=0
shrinkage=0.1


Tree=39
num_leaves=16
num_cat=0
split_feature=35 177 16 213 190 236 260 106 203 204 143 150 42 145 98
split_gain=916.559 1116.89 1332.85 1153.61 1125.13 880.795 780.971 612.276 547.641 828.855 555.761 619.203 475.316 450.045 366.483
threshold=0.66190810611359086 1.0129010624645296 1.3110307266184342 30.500000000000004 0.83298808305349903 92.500000000000014 -1.004569964552247 -0.10080039931732639 1.5000000000000002 2.5000000000000004 -0.25187912750925684 0.045533685827097062 -0.81519550254544038 0.041813606996691295 -0.27162676028634147
decision_type=2 2 2 2 2 2 2 2 2 2 2 2 2 2 2
left_child=1 2 4 6 -1 -5 -3 -4 10 12 11 -2 -10 -12 -11
right_child=8 3 7 5 -6 -7 -8 -9 9 14 13 -13 -14 -15 -16
leaf_value=-0.0053917945922735602 0.033043795746006403 -0.13065227191964618 -0.0089305672936989666 -0.10726199896041973 -0.043550444901103699 0.043100061219751185 0.024763305690924151 0.066438546404799834 -0.026195417045869897 -0.13408645461220758 -0.062908295134567249 -0.12653473758528633 0.057903579520485388 0.034952769071943043 -0.0021985907560518425
leaf_weight=15449.290623195469 3351.8934037424624 329.92581589147449 1878.8621104508638 1286.2201312407851 15459.141276419163 558.85140949487686 16173.142912210897 2528.2434317022562 741.09217574819922 229.14249151572585 1952.3818825259805 262.17450571060181 7213.5051898546517 618.90043624490499 2616.320723824203
leaf_count=87222 13044 2493 7272 9408 124875 1763 61259 5459 4165 1895 14553 1682 18588 1737 14538
internal_value=0 -0.00674273 -0.0171414 0.0132721 -0.0244772 -0.061719 0.0216563 0.0343068 0.0199108 0.0334996 -0.00381605 0.0214675 0.0500685 -0.0393534 -0.0128194
internal_weight=0 53663.7 35315.5 18348.1 30908.4 1845.07 16503.1 4407.11 16985.4 10800.1 6185.35 3614.07 7954.6 2571.28 2845.46
internal_count=369953 299751 224828 74923 212097 11171 63752 12731 70202 39186 31016 14726 22753 16290 16433
is_linear=0
shrinkage=0.1


Tree=40
num_leaves=10
num_cat=0
split_feature=23 283 43 279 138 112 213 214 47
split_gain=759.696 728.258 1266.31 870.173 687.266 663.897 757.402 15.7919 0.911867
threshold=-0.76049101295429955 0.64964278685277732 1.0000000180025095e-35 -0.96654758986095557 -0.74258113930619163 1.2778756991902556 31.500000000000004 21.500000000000004 -0.23815934742316078
decision_type=2 2 2 2 2 2 2 2 2
left_child=7 2 4 -4 -2 6 -3 -1 -9
right_child=1 5 3 -5 -6 -7 -8 8 -10
leaf_value=-0.17306565379262509 -0.0065671917690060411 0.019390697664013429 0.032571795046895939 -0.032707387819509923 0.019993308859713003 0.090757768658727297 -0.15140106930321187 -0.12344875926325467 -0.13773744039830477
leaf_weight=154.83990302309394 19580.145406281576 10462.385366871953 2324.5978411901742 16797.247031226754 19389.145771926269 1302.4175280071795 266.2604812681675 103.39889284595847 78.624710666015744
leaf_count=1580 121820 44555 7994 114025 73254 1864 2564 1485 958
internal_value=0 0.000943413 -0.00369439 -0.0247716 0.00664797 0.0233367 0.015152 -0.14959 -0.129621
internal_weight=0 70122.2 58091.1 19121.8 38969.3 12031.1 10728.6 336.864 182.024
internal_count=370099 366076 317093 122019 195074 48983 47119 4023 2443
is_linear=0
shrinkage=0.1


Tree=41
num_leaves=15
num_cat=0
split_feature=188 44 32 219 280 216 20 47 284 235 32 165 280 287
split_gain=804.582 991.906 976.508 937.544 717.582 625.851 784.193 534.375 506.377 481.648 407.301 387.138 299.302 110.53
threshold=1.8354737178694112 -1.2295701685004963 2.0955436270022698 1.0000000180025095e-35 -0.60085138151595763 4.5000000000000009 0.39410085993633365 -0.7320714168028416 -0.11747395820840902 9.5000000000000018 0.29214811634508087 0.028210828742383429 -1.0000000180025095e-35 -0.27657473029225188
decision_type=2 2 2 2 2 2 2 2 2 2 2 2 2 2
left_child=1 7 3 -3 9 12 -7 11 -4 -2 -9 -1 -6 -11
right_child=4 2 8 -5 5 6 -8 10 -10 13 -12 -13 -14 -15
leaf_value=0.0088943010374503972 0.060387821855214567 0.047810344192958945 -0.011066905965864158 -0.014051784817630968 0.1008937672098395 0.026086627848176603 -0.094315964908927075 0.05971257461872001 0.10576311163132833 -0.077746658925756371 -0.0041048169997463888 -0.17500751156965527 0.036793291420713581 -0.1897365176317162
leaf_weight=276.68373991362751 156.97694255411625 2576.0661006979644 557.24236028455198 50007.271495653316 1554.6232668608427 6103.7843264807016 593.54480160214007 4015.0066359937191 1109.9747000318021 140.36027268320322 1331.8275266159326 195.25046002678573 1370.656559586525 236.83490820974112
leaf_count=1157 372 7115 3561 301098 2363 22029 3714 9960 3072 974 6906 1466 4433 2087
internal_value=0 -0.00442374 -0.0086322 -0.0110211 0.0260082 0.0322708 0.0154161 0.0348132 0.0667144 -0.0868059 0.0438165 -0.0671903 0.0708591 -0.148063
internal_weight=0 60069.3 54250.6 52583.3 10156.8 9622.61 6697.33 5818.77 1667.22 534.172 5346.83 471.934 2925.28 377.195
internal_count=370307 334335 314846 308213 35972 32539 25743 19489 6633 3433 16866 2623 6796 3061
is_linear=0
shrinkage=0.1


Tree=42
num_leaves=15
num_cat=0
split_feature=144 18 46 188 189 105 100 252 111 198 46 133 177 149
split_gain=855.382 869.041 1046.4 848.528 696.175 633.255 699.237 938.131 635.707 611.216 414.69 393.711 348.835 169.814
threshold=1.3591236744465491 1.0000000180025095e-35 -0.77372436321417759 1.401485707064801 -0.081114344961775775 0.23075710893219573 -0.87851361226000069 -0.11045722472655867 0.51523081314185448 1.5000000000000002 -1.0000000180025095e-35 -2.2246802368240415 0.41852565722621088 0.53708106873282302
decision_type=2 2 2 2 2 2 2 2 2 2 2 2 2 2
left_child=1 2 4 -4 -1 6 11 -8 -7 -10 12 -2 -3 -12
right_child=5 10 3 -5 -6 8 7 -9 9 -11 13 -13 -14 -15
leaf_value=-0.037332227582877263 0.0090512760744271802 -0.078978753621832487 -0.020559354424647555 0.0098731597276076923 0.036004192868239686 -0.20957599873866323 0.080072517290330519 -0.011027791850632468 -0.12072988706147336 0.087669140940907317 0.053872397213230533 0.088845991986151174 0.045289841261704981 0.12849156707021178
leaf_weight=1553.4471386689693 808.1303893327713 310.87845437973738 36048.188825376332 12284.135492857546 7763.3659615758806 207.23105640336871 1539.7090752646327 4251.9433371964842 253.5326733738184 316.32927851751447 552.7885275054723 2632.9555384349078 826.28530989401042 680.32776206918061
leaf_count=7367 2770 2169 240024 54378 26616 1930 3301 20278 1832 517 1637 4183 2464 791
internal_value=0 -0.00446952 -0.00690946 -0.0128246 0.0237764 0.0271067 0.0344038 0.0131912 -0.0595904 -0.00504799 0.0548737 0.0701064 0.0113172 0.0950409
internal_weight=0 60019.4 57649.1 48332.3 9316.81 10009.8 9232.74 5791.65 777.093 569.862 2370.28 3441.09 1137.16 1233.12
internal_count=370257 335446 328385 294402 33983 34811 30532 23579 4279 2349 7061 6953 4633 2428
is_linear=0
shrinkage=0.1


Tree=43
num_leaves=10
num_cat=0
split_feature=159 204 230 291 39 283 196 17 245
split_gain=685.388 685.445 1381.91 1187.56 902.725 764.287 1050.95 761.47 10.1245
threshold=5.8625534041589153 2.5000000000000004 2.5000000000000004 -1.0000000180025095e-35 1.2081532220357603 0.92567121034643163 3.5000000000000004 0.079828094817986583 -1.0510105512607861
decision_type=2 2 2 2 2 2 2 2 2
left_child=1 5 3 -3 -4 7 -7 -1 -2
right_child=8 2 4 -5 -6 6 -8 -9 -10
leaf_value=0.012972913228943709 -0.18678335910198723 -0.013869580500184518 0.010446431238205579 -0.095867535318924987 -0.085172662440036712 -0.020638299595112323 0.065619152497411501 -0.015851232320545351 -0.14635684664033508
leaf_weight=26318.268621532246 109.27882793545723 4096.0521440710872 14318.814910486341 3105.21560026519 1060.4617759082466 2027.8446841984987 4654.8723609670997 14062.225393703207 143.03628472425044
leaf_count=116595 990 36752 62252 44174 7837 11139 11641 77247 1539
internal_value=0 0.00124745 -0.013075 -0.0492274 0.00385312 0.00811926 0.0394447 0.00293511 -0.163866
internal_weight=0 69643.8 22580.5 7201.27 15379.3 47063.2 6682.72 40380.5 252.315
internal_count=370166 367637 151015 80926 70089 216622 22780 193842 2529
is_linear=0
shrinkage=0.1


Tree=44
num_leaves=8
num_cat=0
split_feature=242 131 22 276 275 214 67
split_gain=778.754 756.993 770.146 895.289 812.124 385.599 32.1457
threshold=-0.29765757860239 -10.54501032830173 1.3959287713429234 0.42771523238491965 0.80432230672488114 133.50000000000003 1.0000000180025095e-35
decision_type=2 2 2 2 2 2 2
left_child=-1 5 4 -4 -3 6 -2
right_child=1 2 3 -5 -6 -7 -8
leaf_value=-0.1878213626932545 -0.23536324295489597 -0.0072214673506228524 0.04009601604288969 -0.044937719201980357 0.028974281833861394 0.011861258965949379 -0.16806914259872102
leaf_weight=220.17313591763377 114.46844032779336 52137.066387605853 8298.6938963998109 1455.3039409779012 7035.2430071029812 131.01692158728838 186.86795952543616
leaf_count=1999 991 304243 25095 7457 28168 470 1837
internal_value=0 0.00054625 0.00137366 0.0274089 -0.002918 -0.131361 -0.193632
internal_weight=0 69358.7 68926.3 9754 59172.3 432.353 301.336
internal_count=370260 368261 364963 32552 332411 3298 2828
is_linear=0
shrinkage=0.1


Tree=45
num_leaves=9
num_cat=0
split_feature=103 42 38 277 191 28 101 151
split_gain=850.418 801.254 725.865 1350.87 823.969 680.499 450.994 437.497
threshold=-0.027336235039672228 -1.0330385922631866 0.17233311486505484 -0.5182577064910584 1.7813923361293116 -0.8103287381717571 0.68304529678972348 -0.0483058193570036
decision_type=2 2 2 2 2 2 2 2
left_child=7 5 4 -4 -3 -2 -7 -1
right_child=1 2 3 -5 -6 6 -8 -9
leaf_value=0.025189355419783139 0.082494378456501108 0.010276089809396342 0.013861209029580161 -0.041154138428998753 -0.09155066242885318 -0.063422946684784945 0.051024722645699794 0.15530865956161322
leaf_weight=516.3064179867506 405.29838540405035 45170.67888356559 8436.297649698332 9476.9874893017113 808.90070774033666 3840.8511863751337 378.22155962884426 517.29220363497734
leaf_count=1713 745 229325 32074 62993 5470 36306 1580 334
internal_value=0 -0.00107742 0.00183186 -0.0152445 0.00848469 -0.0412736 -0.0531632 0.0903111
internal_weight=0 68517.2 63892.9 17913.3 45979.6 4624.37 4219.07 1033.6
internal_count=370540 368493 329862 95067 234795 38631 37886 2047
is_linear=0
shrinkage=0.1


Tree=46
num_leaves=10
num_cat=0
split_feature=141 249 165 156 249 232 186 243 214
split_gain=674.095 696.3 1024.19 885.399 1046.96 976.21 818.435 590.062 11.7591
threshold=-0.25663464571961542 -0.81598712613060476 -0.28676560114073679 0.013230351996689172 -0.59493554209875898 32.500000000000007 2.3072221167422566 -0.23366024096645174 23.500000000000004
decision_type=2 2 2 2 2 2 2 2 2
left_child=8 2 7 4 -3 -5 -4 -2 -1
right_child=1 3 6 5 -6 -7 -8 -9 -10
leaf_value=-0.1881545784122941 0.031646823527367134 -0.043729186076285627 0.071495337947191415 0.032899447182474714 -0.0019171129055559526 -0.090654757209990375 -0.046633630829988552 -0.17926329792309142 -0.14280932153346779
leaf_weight=135.97522064857185 225.86431780457497 6864.600611211732 3711.0127466786653 9646.8911383226514 46930.855377499014 684.88182303309441 696.59784327074885 321.41104565188289 98.700332347303629
leaf_count=1344 616 41141 9017 35197 270241 4434 4217 2964 1130
internal_value=0 0.000687593 0.0368053 -0.00210309 -0.00725257 0.0247092 0.0528257 -0.0922192 -0.169083
internal_weight=0 69082.1 4954.89 64127.2 53795.5 10331.8 4407.61 547.275 234.676
internal_count=370301 367827 16814 351013 311382 39631 13234 3580 2474
is_linear=0
shrinkage=0.1


Tree=47
num_leaves=14
num_cat=0
split_feature=19 15 128 149 278 168 154 284 163 129 148 144 131
split_gain=668.858 805.76 700.972 1159.82 1223.62 872.85 893.374 732.42 520.124 569.375 379.577 194.626 177.673
threshold=0.83136269747528513 -0.57267274847885752 0.27055058691679729 0.6538524978869148 0.67583509624640437 4.3945556010936793 1.6761179414015002 -0.23953323882130659 4.4407610917049842 -0.55067967601758883 0.68450415901702943 1.3591236744465491 -1.7153174099695845
decision_type=2 2 2 2 2 2 2 2 2 2 2 2 2
left_child=2 12 5 4 -4 6 -1 -5 10 -10 -3 -7 -2
right_child=1 8 3 7 -6 11 -8 -9 9 -11 -12 -13 -14
leaf_value=-0.0023654332681325094 -0.18140299739896612 0.031834427976364744 -0.089702494252016512 -0.095256236691142221 0.016783586930662609 -0.1743516506917081 0.05021053009703913 0.065367195763921457 0.035372085898755908 -0.08030577071172984 0.090162538580006696 -0.026180702946191393 -0.032215349506806913
leaf_weight=51029.842353182845 202.33765569515526 2928.1696646111086 3630.2341197673231 351.2411528006196 1535.5374637134373 346.88221812993288 3450.4362550135702 1480.3713742187247 1105.9942936971784 691.5534229464829 1802.4697956480086 119.08204951882362 131.84408205375075
leaf_count=264637 1880 9614 51200 3000 6551 3310 11782 5898 3111 3958 3641 649 667
internal_value=0 0.0289063 -0.00399744 -0.0338068 -0.0580493 -0.000201226 0.000964396 0.0345651 0.0366591 -0.00913155 0.0540586 -0.136485 -0.122544
internal_weight=0 6862.37 61943.6 6997.38 5165.77 54946.2 54480.3 1831.61 6528.19 1797.55 4730.64 465.964 334.182
internal_count=369898 22871 347027 66649 57751 280378 276419 8898 20324 7069 13255 3959 2547
is_linear=0
shrinkage=0.1


Tree=48
num_leaves=10
num_cat=0
split_feature=131 107 103 32 255 47 169 12 244
split_gain=684.54 661.566 720.326 720.459 471.577 636.33 291.228 246.926 21.4803
threshold=-10.54501032830173 -2.8649162648156454 -0.027336235039672228 2.0955436270022698 0.34019548187910043 -0.14212088682048779 0.15947066322687656 -0.11307575093963754 -0.55441533705503987
decision_type=2 2 2 2 2 2 2 2 2
left_child=7 4 -3 -4 6 -6 -2 -1 -9
right_child=1 2 3 -5 5 -7 -8 8 -10
