tree
version=v3
num_class=1
num_tree_per_iteration=1
label_index=0
max_feature_idx=99
objective=binary sigmoid:1
feature_names=Column_0 Column_1 Column_2 Column_3 Column_4 Column_5 Column_6 Column_7 Column_8 Column_9 Column_10 Column_11 Column_12 Column_13 Column_14 Column_15 Column_16 Column_17 Column_18 Column_19 Column_20 Column_21 Column_22 Column_23 Column_24 Column_25 Column_26 Column_27 Column_28 Column_29 Column_30 Column_31 Column_32 Column_33 Column_34 Column_35 Column_36 Column_37 Column_38 Column_39 Column_40 Column_41 Column_42 Column_43 Column_44 Column_45 Column_46 Column_47 Column_48 Column_49 Column_50 Column_51 Column_52 Column_53 Column_54 Column_55 Column_56 Column_57 Column_58 Column_59 Column_60 Column_61 Column_62 Column_63 Column_64 Column_65 Column_66 Column_67 Column_68 Column_69 Column_70 Column_71 Column_72 Column_73 Column_74 Column_75 Column_76 Column_77 Column_78 Column_79 Column_80 Column_81 Column_82 Column_83 Column_84 Column_85 Column_86 Column_87 Column_88 Column_89 Column_90 Column_91 Column_92 Column_93 Column_94 Column_95 Column_96 Column_97 Column_98 Column_99
feature_infos=none [-0.62073860458232821:13.925339147890083] [-0.31060186746455171:14.207420409814796] [-0.27745396375572468:18.84936944451572] [-4.6800379011758784:5.1973783291967424] [-3.9049079575481276:5.9423532634935006] [-0.52040107783492684:20.946206219413412] none [-1.4988015465302145:3.0072522265974237] [-1.2154472106006762:7.1722922271558218] none [-4.3588342996529672:9.1071084316296016] [-0.18425221580172824:39.663486390486014] [-0.39793054590522292:20.196158690592831] [-4.634106272751052:3.7856231285033743] [-1.0634697775909199:9.4545657019344329] [-0.9277178805831876:5.4849172143861713] [-4.8453873048753655:12.331461493021337] [-1.6114835910941876:5.5288362172178189] [-1.8266329499147795:3.7276391510679572] [-1.752969991183883:3.9816090214322242] [-2.6704807426993895:3.7142460668126902] [-4.4970428610442026:4.3800535570249819] [-2.4637254181997368:11.476021058173579] [-2.7369696998268829:4.793877956837294] [-0.8659853112695528:6.8884865707359024] [-0.4640610186320151:19.281346994799119] [-4.7082298327335383:9.7594830559458998] [-5.8893191038337198:6.6213636182003954] [-6.5579554864811982:3.1754262271609313] [-5.621676607718352:6.0774042133846429] [-1.9099909037405387:7.4866476194877594] [-2.9975187274760104:5.3392647490250686] [-4.9100769068642762:4.7231554491246728] [-7.1665064237470224:1.3498232508213568] [-16.556785367171809:1.069872315446766] [-2.7720468895180419:6.6626141887691395] [-4.7506634264906742:3.0868043155782092] [-2.1727059399549495:6.6553200607948249] [-1.4821909507837876:8.3030229743222836] [-1.3848165422309946:6.9102275448981016] [-1.1485889184579727:8.734517724339085] [-2.5948682160017684:7.2791460075903922] [-4.1632447383013869:7.2990624452735551] [-4.3227802777995352:2.8062426894902042] [-0.36752949667910939:18.213704415622001] [-1.2068656202284818:12.142142375164521] [-1.4837563276622432:38.134948154729763] none none none none [0:1] [0:1] none none none none none [0:1] none none none none none none none [0:1] [0:1] [0:1] none none [0:1] [0:1] none none none none none [0:1] none [0:1] none none none none none none none none [0:1] none [0:1] none [0:1] none [-2.7365492110597556:1.730885795449387] [0:1] [-3.0730244569643759:3.3039080933566902] [-2.4505669526012559:6.8878749072294179]
tree_sizes=892 879 885 877 887 883 887 884 887 775 890 994 893 892 994 889 888 777 889 1004 890 783 779 896 891 782 792 880 892 889 893 774 884 778 895 783 779 891 776 776 896 890 788 895 890 780 886 890 780 895 778 886 782 783 894 786 780 785 887 783 781 782 888 776 997 890 886 776 897 782 887 784 774 890 888 782 781 779 887 891 784 891 781 783 787 893 897 785 888 781 781 783 782 779 780 896 783 776 891 900 785 783 787 786 784 890 781 779 776 789 783 893 783 892 780 784 783 993 681 891 782 783 897 783 782 786 891 893 782 783 780 895 780 781 893 784 892 788 785 893 893 782 783 781 778 892 783 893 790 784 776 781 783 781 887 891 779 783 888 792 891 891 780 788 888 782 777 897 780 888 893 782 893 780 897 889 894 786 783 780 891 887 784 781 892 898 891 783 788 785 782 684 889 779 890 788 782 789 888 786 896 784 783 886 892 784 890 888 884 786 780 890 786 789 780 893 782 784 787 779 783 781 787 893 894 892 787 896 901 895 891 784 886 784 895 784 785 891 787 891 886 892 785 782 893 890 784 892 893 784 775 788 894 1004 890 784 778 899 893 891 788 888 892 785 893 784 789 785 788 893 789 782 677 898 904 1000 895 886 894 896 780 885 898 890 783 781 781 783 887 785 778 789 890 780 894 785 782 783 781 785 898 893 783 787 785 785 894 891 786 786 779 893 898 888 784 788 788 789 894 784 786 784 786 787 788 672 787 786 893 782 780 781 782 886 785 890 889 892 784 785 788 792 781 784 999 891 780 995 894 893 787 892 779 783 786 781 786 895 779 887 995 780 889 895 894 895 784 897 779 784 785 789 780 891 889 892 997 888 895 888 780 893 779 787 890 786 890 893 785 887 897 894 791 785 781 787 791 889 898 783 780 784 786 782 793 788 783 781 787 781 1005 785 785 788 785 783 791 784 787 889 780 790 793 781 788 898 785 902 779 898 782 890 894 890 789 892 893 894 785 784 778 786 892 892 894 786 784 895 783 895 782 889 779 892 783 782 889 790 886 890 786 891 786 891 900 893 789 897 784 794 893 787 779 782 786 893 900 789 783 780 894 789 785 787 897 782 781 788 780 788 891 784 892 886 783 779 892 890 1001 784 780 998 887 684 785 996 782 781 790 888 787 784 894 890 785 783 891 786 784 997 785 788 892 891 895 891 783 784 785 891 898 789 786 786 896 995 892 898 787 893 787 788 793 790 787 786 890 791 786 887 787 793 893 892 896 894 790 788 886 892 781 995 888 783 787 998 783 890 781 896 899 787 898 888 680 894 900 897 895 896 782 891 782 787 892 781 675 890 790 891 891 788 899 784 791 789 892 886 784 786 780 790 779 892 889 892 784 891 899 894 897 892 1014 790 784 783 891 893 893 1004 789 784 784 891 790 786 891 889 998 793 792 785 901 783 998 793 897 786 785 789 901 786 897 893 778 894 783 897 893 899 789 888 781 897 792 787 895 796 785 786 685 892 787 894 898 785 894 898 785 787 891 900 786 900 789 682 780 892 787 894 892 788 892 784 787 783 788 784 784 887 896 781 780 787 895 890 901 899 788 785 890 794 894 890 793 785 788 783 891 787 786 892 791 788 781 890 785 786 892 786 896 891 676 893 683 786 784 889 893 889 787 893 898 795 794 889 893 787 890 889 785 891 790 786 792 787 889 996 789 789 895 791 897 787 786 897 784 784 785 786 897 890 893 893 787 893 903 794 900 890 896 790 898 791 783 782 890 789 889 885 779 893 893 782 788 894 892 781 786 783 785 790 894 899 896 884 894 895 779 787 894 892 887 898 889 791 795 786 786 783 784 896 895 789 785 890 1003 897 782

Tree=0
num_leaves=7
num_cat=0
split_feature=67 25 9 47 32 90
split_gain=2056.52 198.466 70.5358 68.5914 18.3109 6.91296
threshold=1.0000000180025095e-35 -0.14761418514468175 0.030458890949193223 -0.064559149435938656 -0.27481198515051292 1.0000000180025095e-35
decision_type=2 2 2 2 2 2
left_child=1 3 4 -1 -2 -6
right_child=2 -3 -4 -5 5 -7
leaf_value=0.014269424404878104 -0.12517926295270673 0.12815066791533455 -0.075867102141571496 0.071264689995193628 -0.17710069055395855 -0.15003613226288176
leaf_weight=372.01352667808533 195.83854712545872 457.2425891906023 165.25751784443855 488.30951270461082 179.16626685857773 199.42202390730381
leaf_count=1400 1190 857 869 1376 1243 1294
internal_value=3.33334e-08 0.0749136 -0.13344 0.0466193 -0.150003 -0.162844
internal_weight=0 1317.57 739.684 860.323 574.427 378.588
internal_count=8229 3633 4596 2776 3727 2537
is_linear=0
shrinkage=1


Tree=1
num_leaves=7
num_cat=0
split_feature=67 25 42 47 12 39
split_gain=1672.58 163.981 60.8052 52.8808 29.4654 18.7286
threshold=1.0000000180025095e-35 -0.059047881923807326 1.100173044233111 -0.064559149435938656 -0.13919305604021595 -0.11794904569406743
decision_type=2 2 2 2 2 2
left_child=1 3 4 -1 -2 -6
right_child=2 -3 -4 -5 5 -7
leaf_value=0.016454840243009947 -0.10239212953012398 0.12010229985522883 -0.069895798229410666 0.065152759314695843 -0.12422296163705736 -0.16952978616981251
leaf_weight=396.71914176642895 171.02347990870476 409.149886906147 178.50092415511608 509.18605425953865 147.53465367853642 239.1068751513958
leaf_count=1465 1014 741 962 1427 929 1691
internal_value=0 0.0675581 -0.120694 0.0438267 -0.136954 -0.152242
internal_weight=0 1315.06 736.166 905.905 557.665 386.642
internal_count=8229 3633 4596 2892 3634 2620
is_linear=0
shrinkage=0.1


Tree=2
num_leaves=7
num_cat=0
split_feature=67 25 9 46 6 25
split_gain=1369.33 138.758 56.7809 27.2448 21.1753 21.3571
threshold=1.0000000180025095e-35 -0.34442819230218064 0.071308271327877468 -0.32955904726654095 -0.074232377147020065 -0.51063762134668833
decision_type=2 2 2 2 2 2
left_child=1 3 4 -1 -2 -6
right_child=2 -3 -4 -5 5 -7
leaf_value=0.04867244270790369 -0.092951462704105231 0.094714293225607787 -0.056855609163440651 0.0084299923846794262 -0.16064916657867045 -0.11525280958560587
leaf_weight=354.17773522436619 153.44477693736553 633.99331705272198 157.39539983868599 320.44689066708088 194.07292996346951 222.38582819700241
leaf_count=1082 929 1357 831 1194 1400 1436
internal_value=0 0.0611242 -0.110023 0.0295573 -0.124707 -0.136408
internal_weight=0 1308.62 727.299 674.625 569.904 416.459
internal_count=8229 3633 4596 2276 3765 2836
is_linear=0
shrinkage=0.1


Tree=3
num_leaves=7
num_cat=0
split_feature=67 5 25 42 12 39
split_gain=1126.37 122.716 57.406 51.4615 25.0199 16.1149
threshold=1.0000000180025095e-35 -0.38147066750176456 -0.51063762134668833 1.100173044233111 -0.13919305604021595 -0.11794904569406743
decision_type=2 2 2 2 2 2
left_child=1 -1 -3 4 -2 -6
right_child=3 2 -4 -5 5 -7
leaf_value=0.10432743602523881 -0.084005229304379592 0.005903209654577476 0.056486719711927348 -0.053791843973754541 -0.10429198222071179 -0.14704051491497122
leaf_weight=367.60711187124252 166.86802892386913 375.7467162758112 556.84978911280632 175.09987835586071 143.29924511909485 229.27140568196774
leaf_count=702 1014 1400 1531 962 929 1691
internal_value=0 0.0553946 0.0361064 -0.100896 -0.116185 -0.130598
internal_weight=0 1300.2 932.597 714.539 539.439 372.571
internal_count=8229 3633 2931 4596 3634 2620
is_linear=0
shrinkage=0.1


Tree=4
num_leaves=7
num_cat=0
split_feature=67 25 25 42 46 9
split_gain=929.773 111.679 51.5755 43.7853 26.4872 24.0375
threshold=1.0000000180025095e-35 -0.059047881923807326 -0.21649908764980638 -0.63163648170160813 -0.24307569660354311 -0.064856329934403295
decision_type=2 2 2 2 2 2
left_child=1 3 4 -1 -2 -5
right_child=2 -3 -4 5 -6 -7
leaf_value=0.061512790721655386 -0.084524789734500519 0.094738426400312936 -0.052984689146020662 -0.0052878806473859521 -0.13201175566525608 0.035031364412406792
leaf_weight=306.01760391891003 207.61813285201788 392.81107732653618 221.12008064985275 295.05586639046669 270.48433443158865 296.40553836524487
leaf_count=832 1333 741 1298 1130 1965 930
internal_value=0 0.050269 -0.0929203 0.0308055 -0.11139 0.0149177
internal_weight=0 1290.29 699.223 897.479 478.102 591.461
internal_count=8229 3633 4596 2892 3298 2060
is_linear=0
shrinkage=0.1


Tree=5
num_leaves=7
num_cat=0
split_feature=67 5 9 25 6 25
split_gain=768.97 97.5011 54.4617 43.7767 21.2522 17.7858
threshold=1.0000000180025095e-35 -0.38147066750176456 0.098541191580333573 -0.51063762134668833 -0.10790548663289977 -0.51063762134668833
decision_type=2 2 2 2 2 2
left_child=1 -1 4 -3 -2 -6
right_child=2 3 -4 -5 5 -7
leaf_value=0.090108780693233775 -0.067615687401557142 0.0021829377793027922 -0.032147843235971058 0.046538967580234132 -0.13577838026241459 -0.093015829456669086
leaf_weight=356.36150026321411 142.94387785345316 374.70858998596668 148.41947753727436 547.7777114212513 179.94678733497858 211.67536596208811
leaf_count=702 916 1400 804 1531 1418 1458
internal_value=0 0.0456835 -0.0857392 0.0285218 -0.100619 -0.112665
internal_weight=0 1278.85 682.986 922.486 534.566 391.622
internal_count=8229 3633 4596 2931 3792 2876
is_linear=0
shrinkage=0.1


Tree=6
num_leaves=7
num_cat=0
split_feature=67 25 9 47 6 25
split_gain=637.574 87.6624 47.7772 42.4111 20.6713 16.6464
threshold=1.0000000180025095e-35 -0.059047881923807326 0.098541191580333573 -0.19657749159652513 -0.12474204137583968 -0.51063762134668833
decision_type=2 2 2 2 2 2
left_child=1 3 4 -1 -2 -6
right_child=2 -3 -4 -5 5 -7
leaf_value=-0.0048942559701368312 -0.060495376891280983 0.081945153062013151 -0.029140369902184507 0.0406735542185096 -0.12860250455508659 -0.086569730760275951
leaf_weight=317.58230967819691 137.84862767904997 377.04427896440029 147.41820803284645 572.35954611003399 172.93707036972046 206.99703906476498
leaf_count=1212 897 741 804 1680 1428 1467
internal_value=0 0.0415336 -0.0793668 0.0244123 -0.0936667 -0.105702
internal_weight=0 1266.99 665.201 889.942 517.783 379.934
internal_count=8229 3633 4596 2892 3792 2895
is_linear=0
shrinkage=0.1


Tree=7
num_leaves=7
num_cat=0
split_feature=67 5 42 25 12 39
split_gain=529.454 75.8431 47.5008 35.5642 24.2722 21.0477
threshold=1.0000000180025095e-35 -0.22079274548010649 1.100173044233111 -0.51063762134668833 -0.11563841298966746 -0.082398768037006326
decision_type=2 2 2 2 2 2
left_child=1 -1 4 -3 -2 -6
right_child=2 3 -4 -5 5 -7
leaf_value=0.072497102630408636 -0.059082707308351579 -0.0042108821954399654 -0.026981597543114428 0.037695636818298073 -0.074091920407287543 -0.1271015117123708
leaf_weight=419.24884541332722 171.23738724738359 345.25096084177494 163.45737124979496 489.82393166422844 124.70587310940027 187.55164913833141
leaf_count=915 1149 1316 962 1402 885 1600
internal_value=0 0.0377931 -0.073584 0.0203699 -0.089339 -0.105931
internal_weight=0 1254.32 646.952 835.075 483.495 312.258
internal_count=8229 3633 4596 2718 3634 2485
is_linear=0
shrinkage=0.1


Tree=8
num_leaves=7
num_cat=0
split_feature=67 25 22 21 42 23
split_gain=439.763 69.8148 46.4059 38.7344 26.7907 16.1071
threshold=1.0000000180025095e-35 -0.14761418514468175 0.63047402521366969 -0.23290093364148309 0.78775306293976488 -0.33092379772973496
decision_type=2 2 2 2 2 2
left_child=1 3 4 -1 5 -2
right_child=2 -3 -4 -5 -6 -7
leaf_value=-0.0080973689355409283 -0.12849986617526629 0.068511373268978146 -0.021762747475319713 0.035682020770371276 -0.04936384398542755 -0.082449753429306771
leaf_weight=340.18262867629528 125.16268194466829 404.17770510911942 160.11531529575586 497.87148885428905 150.59893494099379 193.194789968431
leaf_count=1278 1079 857 1002 1498 1003 1512
internal_value=0 0.0343746 -0.0682449 0.0179111 -0.0841153 -0.100554
internal_weight=0 1242.23 629.072 838.054 468.956 318.357
internal_count=8229 3633 4596 2776 3594 2591
is_linear=0
shrinkage=0.1


Tree=9
num_leaves=6
num_cat=0
split_feature=67 5 25 21 46
split_gain=365.192 61.3452 46.7604 30.793 26.0873
threshold=1.0000000180025095e-35 -0.23800823712528399 -0.21649908764980638 0.33628013852432265 -0.24307569660354311
decision_type=2 2 2 2 2
left_child=1 -1 4 -3 -2
right_child=2 3 -4 -5 -6
leaf_value=0.063658027949452523 -0.054223535039946029 0.001197582972860177 -0.023447279503666478 0.041036676708352336 -0.10483070437846359
leaf_weight=396.37962871789932 182.6281747892499 526.66088533401489 199.07255172729492 307.17161682993174 230.32100325077772
leaf_count=892 1333 1867 1298 874 1965
internal_value=0 0.03127 -0.0632578 0.0158737 -0.0824495
internal_weight=0 1230.21 612.022 833.833 412.949
internal_count=8229 3633 4596 2741 3298
is_linear=0
shrinkage=0.1


Tree=10
num_leaves=7
num_cat=0
split_feature=67 25 46 35 5 33
split_gain=303.058 59.3051 45.4075 47.2506 30.389 19.3522
threshold=1.0000000180025095e-35 -0.51063762134668833 0.43131713456350046 -0.41400447926347123 -1.0000000180025095e-35 -1.0000000180025095e-35
decision_type=2 2 2 2 2 2
left_child=1 -1 3 -2 -3 -5
right_child=2 4 -4 5 -6 -7
leaf_value=-0.00138099580604 0.0029353248861145199 0.06416321273229926 -0.10658509637597824 -0.092207547594836334 0.024882487125503668 -0.041134852114636779
leaf_weight=431.55222355574369 150.48441112041473 398.25669448822737 148.17104654759169 143.71977656334639 389.64026039093733 153.35843102633953
leaf_count=1585 949 874 1312 1188 1174 1147
internal_value=0 0.0284167 -0.0586026 -0.0427174 0.0447376 -0.0658427
internal_weight=0 1219.45 595.734 447.563 787.897 297.078
internal_count=8229 3633 4596 3284 2048 2335
is_linear=0
shrinkage=0.1


Tree=11
num_leaves=8
num_cat=0
split_feature=67 25 9 42 32 46 35
split_gain=251.605 52.5762 43.2561 37.1422 22.2579 20.0147 8.13316
threshold=1.0000000180025095e-35 -0.059047881923807326 0.098541191580333573 -0.61620833447724521 -0.32300148501468084 -0.33882937913651207 -0.3510521303969773
decision_type=2 2 2 2 2 2 2
left_child=1 3 4 -1 -2 -5 -6
right_child=2 -3 -4 5 6 -7 -8
leaf_value=0.041309912495291409 -0.037748812242597823 0.059287821411293164 -0.0051513269827768758 0.016606850878876551 -0.067263370745813206 -0.020880900595744531 -0.10055403242516039
leaf_weight=299.96946252882481 147.65273836255074 338.38007815927267 136.92638940364122 284.39514841139317 135.50295031070709 285.28552782535553 160.0863015204668
leaf_count=848 1155 741 804 923 1138 1121 1499
internal_value=0 0.0258432 -0.0542787 0.01283 -0.0694551 -0.00216632 -0.085293
internal_weight=0 1208.03 580.168 869.65 443.242 569.681 295.589
internal_count=8229 3633 4596 2892 3792 2044 2637
is_linear=0
shrinkage=0.1


Tree=12
num_leaves=7
num_cat=0
split_feature=67 35 25 5 23 25
split_gain=208.903 47.3541 45.8281 24.7683 23.3314 21.909
threshold=1.0000000180025095e-35 -0.82769134324329441 -0.51063762134668833 -1.0000000180025095e-35 -0.43297172215413665 -0.51063762134668833
decision_type=2 2 2 2 2 2
left_child=2 -2 -1 -4 -3 -6
right_child=1 4 3 -5 5 -7
leaf_value=-0.0026057657681678552 0.0047252577562930951 -0.10153632111458724 0.056179721501223349 0.020227037066973649 -0.081302510117501753 -0.027975769012799891
leaf_weight=430.61770901083946 122.55091940611601 127.87570328265429 382.38964790850878 384.08028210699558 135.02473716437817 179.41207909584045
leaf_count=1585 799 1214 874 1174 1249 1334
internal_value=0 -0.0502812 0.0234981 0.0381637 -0.0655217 -0.0508752
internal_weight=0 564.863 1197.09 766.47 442.313 314.437
internal_count=8229 4596 3633 2048 3797 2583
is_linear=0
shrinkage=0.1


Tree=13
num_leaves=7
num_cat=0
split_feature=67 35 5 33 39 32
split_gain=173.32 45.1406 39.5462 25.8695 21.6015 10.8519
threshold=1.0000000180025095e-35 -0.99856200445235255 -0.22079274548010649 0.22461769797889022 -0.21571230925098547 -0.033864485829672851
decision_type=2 2 2 2 2 2
left_child=2 -2 -1 -4 -3 -6
right_child=1 4 3 -5 5 -7
leaf_value=0.048168044923611868 0.0077417256184291105 -0.031862820383696588 -0.0084556716337679094 0.027282453301944815 -0.054710784314690786 -0.095074618647787712
leaf_weight=375.86536891758442 119.90620039403439 155.6772437915206 416.43665628880262 394.34986495226622 113.12817789614201 161.97379016131163
leaf_count=915 773 1212 1515 1203 1011 1600
internal_value=0 -0.0465256 0.0213561 0.00892662 -0.0616307 -0.0784761
internal_weight=0 550.685 1186.65 810.787 430.779 275.102
internal_count=8229 4596 3633 2718 3823 2611
is_linear=0
shrinkage=0.1


Tree=14
num_leaves=8
num_cat=0
split_feature=25 67 42 14 6 96 40
split_gain=160.234 149.304 50.1005 32.3438 28.1739 24.6813 6.17691
threshold=0.37394293382269034 1.0000000180025095e-35 -0.73963351227214724 0.048294261620032267 -0.12474204137583968 0.61402704382210138 -0.012184246860822657
decision_type=2 2 2 2 2 2 2
left_child=1 2 -1 -4 -3 6 -6
right_child=-2 4 3 -5 5 -7 -8
leaf_value=0.044253327766766597 0.081836515914980118 -0.020426926039038475 -0.029985329309838812 0.013947743129736968 -0.10921478789552791 -0.035913182556912504 -0.075999276139359404
leaf_weight=309.42029644548893 209.2298099771142 155.19975792616606 285.03160890191793 406.65077404677868 104.27803108841181 124.61402493715286 120.89790946245193
leaf_count=829 464 1178 1143 1306 1056 1051 1202
internal_value=0 -0.011556 0.0108061 -0.0041564 -0.0558871 -0.0716205 -0.0913812
internal_weight=0 1506.09 1001.1 691.682 504.99 349.79 225.176
internal_count=8229 7765 3278 2449 4487 3309 2258
is_linear=0
shrinkage=0.1


Tree=15
num_leaves=7
num_cat=0
split_feature=25 42 25 67 35 21
split_gain=135.911 137.331 67.3351 66.0167 24.0824 21.6974
threshold=0.098403323802191842 -0.89391498451577478 -0.64948990339630386 1.0000000180025095e-35 -0.3510521303969773 -0.08441891481562043
decision_type=2 2 2 2 2 2
left_child=1 -1 -3 5 -5 -4
right_child=-2 2 3 4 -6 -7
leaf_value=0.054783728448535331 0.062677063427164711 -0.081226790915541192 -0.01587988593453581 -0.024815880185451094 -0.076738507384286142 0.02192761959741955
leaf_weight=246.74916495382786 285.9777747541666 193.45972841605544 296.50844907015562 179.23322013020515 178.08212109282613 311.00857451558113
leaf_count=718 732 1503 1118 1431 1774 953
internal_value=0 -0.0129524 -0.0273822 -0.0165857 -0.0506936 0.00347506
internal_weight=0 1405.04 1158.29 964.832 357.315 607.517
internal_count=8229 7497 6779 5276 3205 2071
is_linear=0
shrinkage=0.1


Tree=16
num_leaves=7
num_cat=0
split_feature=25 42 67 21 32 25
split_gain=114.06 106.025 66.1255 35.3117 26.5744 18.0869
threshold=0.32473943203331557 -0.90162905812795624 1.0000000180025095e-35 0.11355711028552908 0.06251451389866354 -0.57076430053330418
decision_type=2 2 2 2 2 2
left_child=1 -1 3 -3 5 -4
right_child=-2 2 4 -5 -6 -7
leaf_value=0.05218739656414019 0.069808538316939589 -0.022322552070043203 -0.096490105157903516 0.020869757426530862 -0.0094258944516241432 -0.048603003547179904
leaf_weight=231.308135420084 204.43469555675983 439.3876851350069 121.15056682378054 332.52797415107489 112.69703236967325 226.01498867943883
leaf_count=647 486 1712 1381 1021 920 2062
internal_value=0 -0.00993394 -0.0215993 -0.00371605 -0.0516178 -0.0653142
internal_weight=0 1463.09 1231.78 771.916 459.863 347.166
internal_count=8229 7743 7096 2733 4363 3443
is_linear=0
shrinkage=0.1


Tree=17
num_leaves=6
num_cat=0
split_feature=4 42 9 36 43
split_gain=97.5518 74.9923 49.2299 47.6703 26.66
threshold=-0.65402738427861873 -0.87462980048532146 0.030458890949193223 -0.38985378683331079 0.59636055624813988
decision_type=2 2 2 2 2
left_child=-1 -2 3 -3 -5
right_child=1 2 -4 4 -6
leaf_value=0.059680359766404761 0.040273904166161237 0.0058766535858317372 0.010350428668356691 -0.065201438539298828 -0.021350576397657008
leaf_weight=233.77404091879725 244.69171430915594 216.96884133666754 356.59278423339128 372.89202950894833 220.70566302910447
leaf_count=692 748 1013 1492 2692 1592
internal_value=0 -0.010061 -0.0206136 -0.0342356 -0.0488972
internal_weight=0 1411.85 1167.16 810.567 593.598
internal_count=8229 7537 6789 5297 4284
is_linear=0
shrinkage=0.1


Tree=18
num_leaves=7
num_cat=0
split_feature=25 42 25 67 24 47
split_gain=89.7145 80.195 53.2445 46.2364 23.0192 19.1749
threshold=0.098403323802191842 -0.89391498451577478 -0.64948990339630386 1.0000000180025095e-35 -0.10901765297011311 1.0000000180025095e-35
decision_type=2 2 2 2 2 2
left_child=1 -1 -3 5 -5 -4
right_child=-2 2 3 4 -6 -7
leaf_value=0.04209453907307445 0.052470403701433077 -0.070916113280667381 -0.01306806799450016 -0.069265145115634461 -0.016736890421314619 0.022494649399184455
leaf_weight=238.53882713615894 270.510088942945 184.13246515393257 309.79670019447803 160.62839130312204 173.57917126640677 296.93807798624039
leaf_count=718 732 1503 1169 1680 1525 902
internal_value=0 -0.0105725 -0.021739 -0.0121156 -0.0419833 0.00433645
internal_weight=0 1363.61 1125.07 940.942 334.208 606.735
internal_count=8229 7497 6779 5276 3205 2071
is_linear=0
shrinkage=0.1


Tree=19
num_leaves=8
num_cat=0
split_feature=4 67 21 46 38 20 33
split_gain=74.8913 56.5001 29.1966 28.6288 19.3093 16.7984 15.8478
threshold=-0.65402738427861873 1.0000000180025095e-35 0.33628013852432265 0.43131713456350046 -0.021253379131492032 -0.14299459994139288 1.0000000180025095e-35
decision_type=2 2 2 2 2 2 2
left_child=-1 2 4 5 -2 6 -3
right_child=1 3 -4 -5 -6 -7 -8
leaf_value=0.053217945342095729 0.010913157648219129 -0.035490252731322273 0.027574705843950283 -0.084576716927327947 -0.024976585786165496 -0.056356767616186236 0.018556313188541416
leaf_weight=226.22857438772917 275.18575754761696 107.68525056913495 352.46928578615189 104.13909590244293 329.28934614360332 109.13453677296638 109.34373819828033
leaf_count=692 922 1078 1027 1241 1284 1042 943
internal_value=0 -0.00883268 0.00470023 -0.0389284 -0.00863787 -0.0243535 -0.00826046
internal_weight=0 1387.25 956.944 430.303 604.475 326.164 217.029
internal_count=8229 7537 3233 4304 2206 3063 2021
is_linear=0
shrinkage=0.1


Tree=20
num_leaves=7
num_cat=0
split_feature=25 42 96 14 2 96
split_gain=69.1827 63.2324 57.4857 46.1337 34.0613 19.3305
threshold=0.098403323802191842 -0.80520313797568888 0.93312954428704009 1.0000000180025095e-35 -0.21369199212352616 1.0000000180025095e-35
decision_type=2 2 2 2 2 2
left_child=1 -1 3 4 -3 -5
right_child=-2 2 -4 5 -6 -7
leaf_value=0.034652559183458533 0.046873295074970768 -0.02876055832746191 0.023033968321752345 -0.034107911538939335 -0.091081258795701489 0.0060197201581288756
leaf_weight=262.5303530395031 261.81347088515759 174.34928100183606 239.98298110812902 222.5851129963994 176.46069689467549 260.59972228482366
leaf_count=814 732 1144 1249 1361 1685 1244
internal_value=0 -0.00934129 -0.0200954 -0.032506 -0.0601085 -0.0124656
internal_weight=0 1336.51 1073.98 833.995 350.81 483.185
internal_count=8229 7497 6683 5434 2829 2605
is_linear=0
shrinkage=0.1


Tree=21
num_leaves=6
num_cat=0
split_feature=22 25 17 38 27
split_gain=65.9117 50.1052 39.0486 49.2701 30.3859
threshold=1.3459414977147681 -0.64948990339630386 -1.0066218538302694 -0.58689348901934923 0.098265893616630545
decision_type=2 2 2 2 2
left_child=1 -1 -3 -4 -5
right_child=-2 2 3 4 -6
leaf_value=-0.054086534068652492 0.052133885658908745 0.037787206563321296 0.032571908416680381 -0.040165593316015352 0.00068800111144516488
leaf_weight=202.00760830938816 209.43020817637444 220.20653124898672 219.96856257691979 396.16293788701296 336.8677511587739
leaf_count=1586 714 780 925 2143 2081
internal_value=0 -0.00808635 -0.000165843 -0.00893554 -0.0213911
internal_weight=0 1375.21 1173.21 952.999 733.031
internal_count=8229 7515 5929 5149 4224
is_linear=0
shrinkage=0.1


Tree=22
num_leaves=6
num_cat=0
split_feature=23 42 96 47 6
split_gain=59.5025 58.705 56.183 36.1753 31.2641
threshold=0.42423084301084019 -0.95562757341322602 -0.66238295803765357 0.067459192724647801 -0.12474204137583968
decision_type=2 2 2 2 2
left_child=1 -1 -3 4 -4
right_child=-2 2 3 -5 -6
leaf_value=0.042212568166610731 0.051890073754617475 -0.062344547689740265 0.0083134350813728521 0.018214910413734037 -0.039329989831856774
leaf_weight=203.79418684542179 193.13609291240573 213.44132383912802 221.57680469751358 383.28790431469679 363.99672833457589
leaf_count=585 625 1605 1058 1781 2575
internal_value=0 -0.00735634 -0.0159006 -0.00566889 -0.0213021
internal_weight=0 1386.1 1182.3 968.861 585.574
internal_count=8229 7604 7019 5414 3633
is_linear=0
shrinkage=0.1


Tree=23
num_leaves=7
num_cat=0
split_feature=25 5 2 42 28 14
split_gain=53.6166 46.5001 46.3433 35.3555 25.235 0.054397
threshold=-0.64948990339630386 -0.65691853382460741 -0.0040502209776342108 0.21305457883225268 0.25018260234968875 0.048294261620032267
decision_type=2 2 2 2 2 2
left_child=-1 -2 4 -4 5 -3
right_child=1 2 3 -5 -6 -7
leaf_value=-0.046725775408836878 0.049712653371933341 0.00099278547062056437 -0.053579719589156194 0.0042805954893925411 0.038497313951011192 -0.0012283211451347188
leaf_weight=213.13262721151114 216.50060467794538 220.33334851637483 229.76968809217215 195.43337582051754 274.57549258321524 220.72559697553515
leaf_count=1670 661 1064 1541 1285 1070 938
internal_value=0 0.00722476 -0.000838317 -0.0269858 0.0146975 -0.000118755
internal_weight=0 1357.34 1140.84 425.203 715.634 441.059
internal_count=8229 6559 5898 2826 3072 2002
is_linear=0
shrinkage=0.1


Tree=24
num_leaves=7
num_cat=0
split_feature=22 33 11 42 21 39
split_gain=51.0795 34.6656 41.5556 45.1657 31.5026 21.1852
threshold=1.3459414977147681 0.76989500114807619 -1.0000000180025095e-35 0.51004641290123554 0.076436605579063857 0.042027203762707556
decision_type=2 2 2 2 2 2
left_child=1 2 4 5 -1 -4
right_child=-2 -3 3 -5 -6 -7
leaf_value=-0.020334334980223103 0.046381284349322954 0.025535893228209573 -0.079277493458995818 0.0081840355886863506 0.025267452177730427 -0.028593956285428102
leaf_weight=301.55180602148175 205.49646070972085 262.35844563320279 189.26738886907697 154.27465035021305 304.42014615237713 146.15553978830576
leaf_count=1739 714 1172 1314 927 1388 975
internal_value=0 -0.00711443 -0.0149326 -0.0365965 0.00257449 -0.0571929
internal_weight=0 1358.03 1095.67 489.698 605.972 335.423
internal_count=8229 7515 6343 3216 3127 2289
is_linear=0
shrinkage=0.1


Tree=25
num_leaves=6
num_cat=0
split_feature=23 42 96 47 21
split_gain=46.033 48.8903 46.0256 30.2328 24.5174
threshold=0.42423084301084019 -0.95562757341322602 -0.66238295803765357 -0.31539399954105279 0.44764165264371969
decision_type=2 2 2 2 2
left_child=1 -1 -3 -4 -5
right_child=-2 2 3 4 -6
leaf_value=0.039193745214302522 0.046165570410395956 -0.056673267703476443 -0.031587522237430395 -0.0061283923612208135 0.035284173317085825
leaf_weight=200.34104424715042 189.20783467963338 210.01677519828081 295.80645664036274 456.37103777006269 208.16698959097266
leaf_count=585 625 1605 1901 2500 1013
internal_value=0 -0.00645351 -0.0142673 -0.00499364 0.00684412
internal_weight=0 1370.7 1170.36 960.344 664.538
internal_count=8229 7604 7019 5414 3513
is_linear=0
shrinkage=0.1


Tree=26
num_leaves=6
num_cat=0
split_feature=25 37 67 46 98
split_gain=43.4977 37.965 28.6323 28.3544 22.454
threshold=-0.57076430053330418 -0.14661838564099222 1.0000000180025095e-35 -0.32955904726654095 -1.0000000180025095e-35
decision_type=2 2 2 2 2
left_child=3 -2 -3 -1 -4
right_child=1 2 4 -5 -6
leaf_value=-0.00044608994736840962 0.041378964187992168 0.011055736229050548 -0.0011943807294472939 -0.052486351212237672 -0.062366957492709055
leaf_weight=200.8933934494853 289.38358363509178 602.68430268019438 128.68103274330497 218.65312798321247 112.43011781945825
leaf_count=1118 1030 1927 1174 1803 1177
internal_value=0 0.0101236 -0.000595523 -0.0275677 -0.0297192
internal_weight=0 1133.18 843.795 419.547 241.111
internal_count=8229 5308 4278 2921 2351
is_linear=0
shrinkage=0.1


Tree=27
num_leaves=7
num_cat=0
split_feature=22 44 43 32 47 96
split_gain=40.7942 31.5759 32.7583 37.2932 36.5946 18.5063
threshold=1.3194427024369497 -0.54150796068977303 0.59636055624813988 0.59259901240451252 -0.32859583375711154 0.29492454335716262
decision_type=2 2 2 2 2 2
left_child=1 -1 3 4 -3 -4
right_child=-2 2 5 -5 -6 -7
leaf_value=0.030638643590466204 0.039982068188428546 -0.073979618273530376 -0.011511933817625554 0.016210620359855196 -0.020218417454543211 0.034970129302374788
leaf_weight=193.61122887954116 218.35137686505914 179.38774264231324 164.42031375691295 176.08088595792651 430.37674558535218 178.799610812217
leaf_count=787 783 1345 1173 707 2462 972
internal_value=0 -0.0066731 -0.0130713 -0.0243282 -0.0360345 0.0127028
internal_weight=0 1322.68 1129.07 785.845 609.764 343.22
internal_count=8229 7446 6659 4514 3807 2145
is_linear=0
shrinkage=0.1


Tree=28
num_leaves=7
num_cat=0
split_feature=25 6 47 3 20 29
split_gain=37.3369 40.081 30.2661 33.8252 20.7808 20.6317
threshold=0.098403323802191842 -0.12474204137583968 -0.064559149435938656 -0.026268902980859408 -0.36532453492249833 -0.20808265424800029
decision_type=2 2 2 2 2 2
left_child=1 4 3 -3 -1 -4
right_child=-2 2 5 -5 -6 -7
leaf_value=-0.0075173568397846604 0.03581091790033554 -0.0060218808187342656 0.022832987005033559 -0.069362105705855243 0.031911990643304217 -0.022744536416634528
leaf_weight=245.07490687072277 244.12494144961238 143.09823258593678 174.26639429107308 205.22355159930885 294.03879797831178 230.93675256147981
leaf_count=1252 732 827 881 1825 1205 1507
internal_value=0 -0.00683017 -0.0217245 -0.0433406 0.0139879 -0.00314293
internal_weight=0 1292.64 753.525 348.322 539.114 405.203
internal_count=8229 7497 5040 2652 2457 2388
is_linear=0
shrinkage=0.1


Tree=29
num_leaves=7
num_cat=0
split_feature=33 42 11 37 21 9
split_gain=35.9904 44.0941 44.9314 34.2441 32.6983 17.922
threshold=0.76989500114807619 0.98831897685648074 -1.0000000180025095e-35 -0.034476557853039019 0.076436605579063857 -0.17378801094422805
decision_type=2 2 2 2 2 2
left_child=1 2 4 -4 -1 -5
right_child=-2 -3 3 5 -6 -7
leaf_value=-0.023541147322346766 0.030809668824234134 0.029639195539300792 -0.0031365292774909177 -0.08918912685524745 0.025351312089743634 -0.038224730797382728
leaf_weight=265.73224119842052 302.94600530713797 251.56517785042524 149.65554827824235 131.85153772681952 281.88829922303557 144.75231264531612
leaf_count=1543 1291 1230 782 997 1268 1118
internal_value=0 -0.00768329 -0.0173242 -0.04167 0.0016263 -0.0625184
internal_weight=0 1225.45 973.88 426.259 547.621 276.604
internal_count=8229 6938 5708 2897 2811 2115
is_linear=0
shrinkage=0.1


Tree=30
num_leaves=7
num_cat=0
split_feature=25 17 67 39 25 5
split_gain=34.2579 35.6397 29.1896 38.2653 33.8707 7.61366
threshold=-0.64948990339630386 -1.0066218538302694 1.0000000180025095e-35 -0.16238689276539381 -0.21649908764980638 0.37601096488605273
decision_type=2 2 2 2 2 2
left_child=-1 -2 3 -3 5 -4
right_child=1 2 4 -5 -6 -7
leaf_value=-0.038038223492387176 0.039880207179481146 -0.017518157637796981 -0.078637931754495266 0.027931289142626332 0.0085629471543505805 -0.036537936754026688
leaf_weight=205.40296387299895 249.72832421958447 323.10232051834464 85.874567855149508 434.17052845656872 140.92441916838288 85.951743837445974
leaf_count=1670 860 1211 1009 1284 1204 991
internal_value=0 0.00586416 -0.00207471 0.00853957 -0.0277754 -0.0575785
internal_weight=0 1319.75 1070.02 757.273 312.751 171.826
internal_count=8229 6559 5699 2495 3204 2000
is_linear=0
shrinkage=0.1


Tree=31
num_leaves=6
num_cat=0
split_feature=5 33 42 2 21
split_gain=31.7141 32.6145 37.1868 30.501 21.6373
threshold=-0.72578050040531783 0.58813590009168082 0.52161752331950784 -0.14512990344688223 0.16305111656081681
decision_type=2 2 2 2 2
left_child=-1 2 3 -2 -5
right_child=1 -3 -4 4 -6
leaf_value=0.037649868545872045 -0.010940211240550345 0.020131937294170333 0.012670119362427429 -0.083415468935300663 -0.025988450484938769
leaf_weight=194.45451893284917 378.73211662471294 358.4465912450105 319.27402748167515 133.97221458144486 128.57898513041437
leaf_count=674 1959 1680 1862 1176 878
internal_value=0 -0.00560944 -0.0152152 -0.0290984 -0.0552918
internal_weight=0 1319 960.557 641.283 262.551
internal_count=8229 7555 5875 4013 2054
is_linear=0
shrinkage=0.1


Tree=32
num_leaves=7
num_cat=0
split_feature=44 22 43 19 2 96
split_gain=31.5302 30.675 29.0834 29.3621 25.3265 17.0327
threshold=-0.61376157184473934 1.3194427024369497 0.59636055624813988 -0.48552231287369468 -0.011961231209554659 0.29492454335716262
decision_type=2 2 2 2 2 2
left_child=-1 2 3 -2 -5 -4
right_child=1 -3 5 4 -6 -7
leaf_value=0.038412009607996525 -0.05408311152382677 0.031250858848908741 -0.010919742336090409 0.0058052706034331719 -0.037590256224158888 0.033683151585087938
leaf_weight=186.78219002485275 213.21209127083421 194.01121600717306 163.17177630774677 355.68382394313812 216.25896746665239 180.1325318403542
leaf_count=704 1217 728 1198 1737 1656 989
internal_value=0 -0.00547983 -0.0117948 -0.0224103 -0.0106031 0.0124835
internal_weight=0 1322.47 1128.46 785.155 571.943 343.304
internal_count=8229 7525 6797 4610 3393 2187
is_linear=0
shrinkage=0.1


Tree=33
num_leaves=6
num_cat=0
split_feature=42 96 25 11 14
split_gain=29.3847 38.8523 33.3547 34.6329 34.8687
threshold=-0.80520313797568888 0.93312954428704009 0.098403323802191842 0.48562070733283497 0.048294261620032267
decision_type=2 2 2 2 2
left_child=-1 2 3 4 -2
right_child=1 -3 -4 -5 -6
leaf_value=0.029168638306894996 -0.05901020557014576 0.026735960486106769 0.024283540129596555 0.017688403678273543 -0.012087791705366892
leaf_weight=280.35542469471693 311.48919751122594 270.5824254527688 167.87662421911955 154.21816882863641 322.17326998338103
leaf_count=899 2812 1350 546 831 1791
internal_value=0 -0.00671642 -0.0161871 -0.0248103 -0.0351534
internal_weight=0 1226.34 955.757 787.881 633.662
internal_count=8229 7330 5980 5434 4603
is_linear=0
shrinkage=0.1


Tree=34
num_leaves=7
num_cat=0
split_feature=23 44 33 11 96 47
split_gain=27.3537 36.7376 33.2519 29.2687 29.0313 29.924
threshold=0.40382125812595976 1.0000000180025095e-35 0.76989500114807619 -1.0000000180025095e-35 -0.34328045757271491 -0.17017382316440779
decision_type=2 2 2 2 2 2
left_child=1 2 4 -3 -1 -6
right_child=-2 3 -4 -5 5 -7
leaf_value=-0.038266326407617159 0.036296007755078914 -0.0062735053706989216 0.04306658922099782 -0.058693464870113801 -0.021155775834290944 0.028434250238355264
leaf_weight=179.43319110386074 181.98989005386829 247.07370067946613 195.31113312020898 187.23075258918107 203.18610131368041 303.35690682753921
leaf_count=1379 641 1300 807 1252 1332 1518
internal_value=0 -0.00506763 0.00666332 -0.028872 -0.00370141 0.00854255
internal_weight=0 1315.59 881.287 434.304 685.976 506.543
internal_count=8229 7588 5036 2552 4229 2850
is_linear=0
shrinkage=0.1


Tree=35
num_leaves=6
num_cat=0
split_feature=46 33 42 21 36
split_gain=26.5425 32.0653 27.0509 28.8537 18.3748
threshold=-0.24307569660354311 -0.13890050413390029 0.52161752331950784 0.039316100872598174 -0.11928370603455156
decision_type=2 2 2 2 2
left_child=2 -2 3 -1 -3
right_child=1 4 -4 -5 -6
leaf_value=-0.023358944213836372 -0.047689631413753764 0.023219893367325172 0.037671976001708019 0.021738462809602593 -0.017705696575881703
leaf_weight=282.2407200075686 206.86774461530149 192.69848391599953 271.8731493987143 285.26479416713119 254.72728708572686
leaf_count=1545 1552 820 1211 1189 1912
internal_value=0 -0.0151326 0.0117353 -0.000690085 -7.9758e-05
internal_weight=0 654.294 839.379 567.506 447.426
internal_count=8229 4284 3945 2734 2732
is_linear=0
shrinkage=0.1


Tree=36
num_leaves=6
num_cat=0
split_feature=25 17 38 13 27
split_gain=25.5586 26.7524 25.7361 27.9633 18.4715
threshold=-0.64948990339630386 -1.0066218538302694 -0.58689348901934923 -0.1720650940360707 0.25901825904640213
decision_type=2 2 2 2 2
left_child=-1 -2 -3 -4 -5
right_child=1 2 3 4 -6
leaf_value=-0.033268802300101499 0.035023619695904548 0.027445542187361262 -0.035067739984072081 -0.012767342536425204 0.025190459919540456
leaf_weight=200.2443067599088 242.9850350394845 233.63626337423921 290.76982990838587 296.93450698256493 225.61381539702415
leaf_count=1670 860 1030 1667 1566 1436
internal_value=0 0.00513055 -0.00180726 -0.0102105 0.0036212
internal_weight=0 1289.94 1046.95 813.318 522.548
internal_count=8229 6559 5699 4669 3002
is_linear=0
shrinkage=0.1


Tree=37
num_leaves=7
num_cat=0
split_feature=32 42 13 96 39 46
split_gain=24.7923 29.1719 28.8134 22.2838 20.1558 13.0613
threshold=0.73716751199701702 -0.95562757341322602 -0.1720650940360707 -0.34328045757271491 -0.22682177101881706 -0.22492878789042256
decision_type=2 2 2 2 2 2
left_child=1 -1 4 -4 -3 -5
right_child=-2 2 3 5 -6 -7
leaf_value=0.031426127107675235 0.028123743938423554 -0.060095790547977937 -0.027212325618248753 0.026454007884226693 -0.013731896846516586 -0.0075851603954447504
leaf_weight=178.50230311974883 258.5122865922749 168.54698321223259 205.86879295669496 271.40012372098863 211.33169054239988 192.81283943541348
leaf_count=556 993 1098 1606 1317 1255 1404
internal_value=0 -0.00594758 -0.0123014 0.000171525 -0.0343029 0.0123157
internal_weight=0 1228.46 1049.96 670.082 379.879 464.213
internal_count=8229 7236 6680 4327 2353 2721
is_linear=0
shrinkage=0.1


Tree=38
num_leaves=6
num_cat=0
split_feature=22 96 42 35 30
split_gain=23.2514 22.345 29.2789 27.7294 28.0608
threshold=1.3459414977147681 0.93312954428704009 -0.80520313797568888 0.65618545146694296 0.27087512938131808
decision_type=2 2 2 2 2
left_child=1 2 -1 4 -4
right_child=-2 -3 3 -5 -6
leaf_value=0.021375536348307553 0.032481935089427143 0.020282656031110902 -0.049198840701992375 0.009983799804429306 -0.0041678981308870388
leaf_weight=211.38421849161386 191.67276026308537 277.78062854334712 358.57266234047711 217.87784161791205 225.34925781004131
leaf_count=719 714 1382 2750 1294 1370
internal_value=0 -0.00484348 -0.0117322 -0.0204606 -0.0318203
internal_weight=0 1290.96 1013.18 801.8 583.922
internal_count=8229 7515 6133 5414 4120
is_linear=0
shrinkage=0.1


Tree=39
num_leaves=6
num_cat=0
split_feature=44 42 22 6 43
split_gain=22.2875 27.0617 24.7736 25.0543 21.1571
threshold=-0.61376157184473934 1.3007389581498263 1.2134475213256759 -0.24343975231356579 0.59636055624813988
decision_type=2 2 2 2 2
left_child=-1 2 3 -2 -5
right_child=1 -3 -4 4 -6
leaf_value=0.032793855518274448 0.0057823775557301503 0.031792829588603508 0.024783623250775856 -0.041240731329481084 -0.0019286191893498113
leaf_weight=181.58732014894485 326.65337097644806 176.38240175321698 170.19453233294189 419.5420587323606 203.20845478028059
leaf_count=704 1598 819 664 2945 1499
internal_value=0 -0.00461393 -0.0103495 -0.0166476 -0.0284129
internal_weight=0 1295.98 1119.6 949.404 622.751
internal_count=8229 7525 6706 6042 4444
is_linear=0
shrinkage=0.1


Tree=40
num_leaves=7
num_cat=0
split_feature=25 37 96 32 32 37
split_gain=21.8933 21.8616 19.7844 17.4283 21.4416 21.1613
threshold=-0.57076430053330418 -0.14661838564099222 1.0000000180025095e-35 -0.32300148501468084 0.39984101294784052 0.41409075329875178
decision_type=2 2 2 2 2 2
left_child=2 -2 -1 -3 5 -5
right_child=1 3 -4 4 -6 -7
leaf_value=-0.047676641902059766 0.031933166774409771 0.021828596712141934 -0.0020558140421522461 -0.051652836570985086 0.016447107717870949 -0.0035506937382713461
leaf_weight=157.00249681994319 271.51941440626979 238.04181749001145 240.94345935620368 161.96118996851146 194.99897419288754 210.09071599133313
leaf_count=1376 1030 1149 1545 1372 760 997
internal_value=0 0.00739546 -0.0200547 -0.000879942 -0.0104127 -0.0244905
internal_weight=0 1076.61 397.946 805.093 567.051 372.052
internal_count=8229 5308 2921 4278 3129 2369
is_linear=0
shrinkage=0.1


Tree=41
num_leaves=7
num_cat=0
split_feature=23 44 33 42 11 32
split_gain=20.1977 25.1743 24.3751 25.8161 23.9968 23.6879
threshold=0.32218291858643805 1.0000000180025095e-35 0.58813590009168082 0.6874701059814069 -1.0000000180025095e-35 -0.27481198515051292
decision_type=2 2 2 2 2 2
left_child=1 2 3 5 -3 -1
right_child=-2 4 -4 -5 -6 -7
leaf_value=0.012841728689232485 0.030107348713059354 -0.0039213988094461963 0.031694127028258627 0.028816907849971825 -0.052060598457267786 -0.035328202506382266
leaf_weight=159.54934898577631 193.31786344945431 241.97293927147985 248.31078897789121 160.62722962908447 181.01622311584651 283.4617955815047
leaf_count=867 707 1290 1139 961 1235 2030
internal_value=0 -0.00458 0.00532129 -0.00552736 -0.0245223 -0.0179799
internal_weight=0 1274.94 851.949 603.638 422.989 443.011
internal_count=8229 7522 4997 3858 2525 2897
is_linear=0
shrinkage=0.1


Tree=42
num_leaves=6
num_cat=0
split_feature=46 33 97 15 9
split_gain=18.5432 24.7622 23.4888 23.2368 15.7144
threshold=-0.24307569660354311 -0.13890050413390029 1.0000000180025095e-35 -0.093838381822176423 -0.092089250186859581
decision_type=2 2 2 2 2
left_child=2 -2 -1 -4 -3
right_child=1 4 3 -5 -6
leaf_value=0.029595185995878633 -0.041711564708331872 0.018607114887753635 -0.027458134014611585 0.01675001789289857 -0.019313813508619489
leaf_weight=349.23889875039458 202.34471382386982 229.9192557092756 229.43503588810563 246.78686496056616 208.26983303576708
leaf_count=1560 1552 1329 1317 1068 1403
internal_value=0 -0.0127776 0.00989704 -0.00454866 0.000583422
internal_weight=0 640.534 825.461 476.222 438.189
internal_count=8229 4284 3945 2385 2732
is_linear=0
shrinkage=0.1


Tree=43
num_leaves=7
num_cat=0
split_feature=25 17 67 39 25 33
split_gain=17.9652 19.4943 19.8473 27.7102 26.2939 0.423541
threshold=-0.64948990339630386 -1.0066218538302694 1.0000000180025095e-35 -0.16238689276539381 -0.21649908764980638 -1.0000000180025095e-35
decision_type=2 2 2 2 2 2
left_child=-1 -2 3 -3 5 -4
right_child=1 2 4 -5 -6 -7
leaf_value=-0.028272932906801374 0.030208678312000654 -0.015191585606150372 -0.056426787086825761 0.023967769040662314 0.0087209061565207482 -0.046083692065244347
leaf_weight=194.92200356721878 236.83422809839249 316.6634872443974 79.133551830425858 420.88115713000298 135.78722825832665 79.22965631633997
leaf_count=1670 860 1211 1069 1284 1204 931
internal_value=0 0.00433506 -0.00160444 0.00715477 -0.0235671 -0.0512521
internal_weight=0 1268.53 1031.7 737.545 294.15 158.363
internal_count=8229 6559 5699 2495 3204 2000
is_linear=0
shrinkage=0.1


Tree=44
num_leaves=7
num_cat=0
split_feature=5 38 33 2 2 97
split_gain=17.1543 20.1514 22.9332 19.9697 17.406 17.5442
threshold=-0.72578050040531783 -0.80910924647529303 -0.13890050413390029 -0.20314397848096552 -0.26247655522036889 1.0000000180025095e-35
decision_type=2 2 2 2 2 2
left_child=-1 -2 3 -3 -4 -6
right_child=1 2 4 -5 5 -7
leaf_value=0.028597820416533748 0.026706924807727968 -0.0079505997923817184 -0.019898911733510116 -0.054736098332127253 0.037444893178887877 -0.0025548635505174347
leaf_weight=183.16695918142796 181.55923846177757 196.81264915689826 255.80023355409503 170.06734211184084 176.25969814322889 290.16945845261216
leaf_count=674 834 1130 1432 1394 975 1790
internal_value=0 -0.00413654 -0.00927828 -0.029638 0.00106412 0.0125607
internal_weight=0 1270.67 1089.11 366.88 722.229 466.429
internal_count=8229 7555 6721 2524 4197 2765
is_linear=0
shrinkage=0.1


Tree=45
num_leaves=6
num_cat=0
split_feature=96 46 33 97 2
split_gain=16.6871 18.248 24.3635 17.8923 8.38
threshold=-0.66238295803765357 -0.24307569660354311 -0.13890050413390029 1.0000000180025095e-35 -0.19918847336500531
decision_type=2 2 2 2 2
left_child=-1 3 -3 -2 -4
right_child=1 2 4 -5 -6
leaf_value=-0.022389731246543761 0.034554023902793961 -0.042314305477409997 -0.010203651965487007 0.0018439528808774028 0.021210697755770645
leaf_weight=270.95335958339274 290.15185754559934 155.27761425450444 169.85717728734016 394.71821255609393 169.80538272857666
leaf_count=1893 1220 1199 940 1917 1060
internal_value=0 0.00512948 -0.00950001 0.0157019 0.00550113
internal_weight=0 1179.81 494.94 684.87 339.663
internal_count=8229 6336 3199 3137 2000
is_linear=0
shrinkage=0.1


Tree=46
num_leaves=7
num_cat=0
split_feature=42 42 36 25 38 47
split_gain=16.7984 22.5083 18.7477 25.7641 18.035 14.2875
threshold=-0.80520313797568888 1.2814537741193732 0.45714820523237126 -0.51063762134668833 -0.061656244123481883 0.12026652958888233
decision_type=2 2 2 2 2 2
left_child=-1 2 3 4 -2 -5
right_child=1 -3 -4 5 -6 -7
leaf_value=0.022591847268739702 -0.016129448678205451 0.026501623180259566 0.017152655807309441 -0.018452354490449643 -0.06736843198911735 0.015081996375328158
leaf_weight=268.04441444575787 132.73049509897828 188.87483814544976 189.22370567731559 314.39973912388086 142.38100329972804 213.21012906171381
leaf_count=899 1000 886 1179 1961 1345 959
internal_value=0 -0.00513834 -0.0111629 -0.0178376 -0.0426476 -0.00490093
internal_weight=0 1180.82 991.945 802.721 275.111 527.61
internal_count=8229 7330 6444 5265 2345 2920
is_linear=0
shrinkage=0.1


Tree=47
num_leaves=7
num_cat=0
split_feature=32 67 39 25 4 20
split_gain=15.7885 20.5168 26.7716 22.1044 8.89432 4.31671
threshold=0.73716751199701702 1.0000000180025095e-35 -0.34902585046496459 -0.51063762134668833 0.50205624022084605 -0.33465833699406983
decision_type=2 2 2 2 2 2
left_child=1 2 -1 4 -3 -5
right_child=-2 3 -4 5 -6 -7
leaf_value=-0.021550152866567765 0.022748760677314427 -0.079998206343656897 0.016174779923284002 0.009752105878591575 -0.029251066920652838 -0.019089219938011701
leaf_weight=282.40623501688242 251.67070580460131 73.730911644175649 563.39198262616992 103.80695516057312 64.971793483942747 103.77150827459991
leaf_count=1138 993 1191 1881 994 994 1038
internal_value=0 -0.0048156 0.00357868 -0.0253188 -0.056227 -0.00466609
internal_weight=0 1192.08 845.798 346.281 138.703 207.578
internal_count=8229 7236 3019 4217 2185 2032
is_linear=0
shrinkage=0.1


Tree=48
num_leaves=6
num_cat=0
split_feature=5 67 42 11 6
split_gain=15.0236 24.0076 26.0708 27.0428 13.2775
threshold=0.69162831171431038 1.0000000180025095e-35 1.100173044233111 -1.0000000180025095e-35 -0.24343975231356579
decision_type=2 2 2 2 2
left_child=1 4 3 -3 -1
right_child=-2 2 -4 -5 -6
leaf_value=0.030519214425721294 -0.01968104472213288 0.0014348490498592207 0.024587404885899722 -0.070146425247577568 0.0043042269059492882
leaf_weight=311.60501394793391 305.86039485037327 95.939302371814847 97.004558596760035 117.31578016746789 508.46875251457095
leaf_count=922 1960 1132 715 1709 1791
internal_value=0 0.00530107 -0.0183928 -0.0379434 0.0142652
internal_weight=0 1130.33 310.26 213.255 820.074
internal_count=8229 6269 3556 2841 2713
is_linear=0
shrinkage=0.1


Tree=49
num_leaves=7
num_cat=0
split_feature=23 44 11 33 96 47
split_gain=14.8219 20.8983 19.7109 19.1588 17.968 20.2102
threshold=0.38341167324107933 1.0000000180025095e-35 -1.0000000180025095e-35 0.76989500114807619 -0.34328045757271491 -0.17017382316440779
decision_type=2 2 2 2 2 2
left_child=1 3 -3 4 -1 -6
right_child=-2 2 -4 -5 5 -7
leaf_value=-0.030955110900529433 0.027109928504364403 -0.0033333600233838231 -0.047319051392110685 0.033730229955092873 -0.018023772907545314 0.023726248568983525
leaf_weight=168.04048752970994 176.39799945987761 238.00614628009498 178.12606167048216 184.31684006936848 193.37351872213185 289.57643883675337
leaf_count=1375 660 1298 1248 803 1331 1514
internal_value=0 -0.00385279 -0.0221615 0.00526822 -0.00279032 0.00700951
internal_weight=0 1251.44 416.132 835.307 650.99 482.95
internal_count=8229 7569 2546 5023 4220 2845
is_linear=0
shrinkage=0.1


Tree=50
num_leaves=6
num_cat=0
split_feature=24 96 5 16 6
split_gain=14.1729 20.8977 28.4958 23.8231 28.8852
threshold=-0.97192728029621633 0.93312954428704009 0.69162831171431038 -0.51936611746013861 -0.24343975231356579
decision_type=2 2 2 2 2
left_child=-1 2 3 -2 -5
right_child=1 -3 -4 4 -6
leaf_value=0.024585650390746751 0.020144126849756569 0.020054551323732406 -0.047109260255352364 0.016619056525824492 -0.034520933915002425
leaf_weight=201.00875075906515 285.08878493309021 277.65361580066383 178.71296150237322 171.4479214232415 310.42027860321105
leaf_count=1093 1464 1360 1308 778 2226
internal_value=0 -0.0040665 -0.0111486 -0.00276917 -0.0163254
internal_weight=0 1223.32 945.67 766.957 481.868
internal_count=8229 7136 5776 4468 3004
is_linear=0
shrinkage=0.1


Tree=51
num_leaves=7
num_cat=0
split_feature=22 99 21 42 33 11
split_gain=13.5908 15.1496 15.891 15.5529 33.6572 20.48
threshold=1.3194427024369497 0.46769612859582971 -0.08441891481562043 0.98831897685648074 0.58813590009168082 -1.0000000180025095e-35
decision_type=2 2 2 2 2 2
left_child=1 3 -3 4 5 -1
right_child=-2 2 -4 -5 -6 -7
leaf_value=0.00022728648787170619 0.024199877084348197 -0.044809446424542328 -0.0019118815734855419 0.030398466903708378 0.030623318899500675 -0.040556168995951151
leaf_weight=284.64208413287997 199.23135109804571 159.77647798322141 187.92144664749503 168.01791924983263 205.64016960933805 216.99712590128183
leaf_count=1700 783 1029 1197 860 932 1728
internal_value=0 -0.0039655 -0.0216245 0.00304924 -0.00344771 -0.0174147
internal_weight=0 1223 347.698 875.297 707.279 501.639
internal_count=8229 7446 2226 5220 4360 3428
is_linear=0
shrinkage=0.1


Tree=52
num_leaves=6
num_cat=0
split_feature=37 43 30 47 35
split_gain=13.6527 22.9308 23.4682 21.9268 7.68128
threshold=-0.04693676094059307 0.6748695095602969 -0.58935140158213739 -0.28899033110893563 -0.054276771454928853
decision_type=2 2 2 2 2
left_child=-1 2 -2 -4 -5
right_child=1 -3 3 4 -6
leaf_value=0.015323942828797477 0.013805727791589624 0.017229165138776502 -0.057345229773926115 0.0010666260064757808 -0.028273638103205951
leaf_weight=411.8320280155167 193.1669940892607 293.78548105433583 163.44420555979013 184.44731497019529 172.84514557290822
leaf_count=1985 1030 1912 1228 984 1090
internal_value=0 -0.00628615 -0.0159632 -0.0270059 -0.0131271
internal_weight=0 1007.69 713.904 520.737 357.292
internal_count=8229 6244 4332 3302 2074
is_linear=0
shrinkage=0.1


Tree=53
num_leaves=6
num_cat=0
split_feature=39 39 46 21 16
split_gain=13.4744 18.5417 19.0761 26.684 21.444
threshold=-0.85561730707808537 -0.37568855870776047 -0.31867223486516144 1.0000000180025095e-35 -0.19671781079501374
decision_type=2 2 2 2 2
left_child=-1 -2 3 -3 -4
right_child=1 2 4 -5 -6
leaf_value=0.024920189223411444 -0.026703124001285779 -0.01002889912009541 0.0088001959703430162 0.037573332697298234 -0.033676971538343349
leaf_weight=187.99786758422852 275.04654277861118 208.52865328546613 249.85412715747952 270.53579911217093 226.6697788881138
leaf_count=823 1636 1172 1569 1155 1874
internal_value=0 -0.00382386 0.00276147 0.0168529 -0.0114051
internal_weight=0 1230.63 955.588 479.064 476.524
internal_count=8229 7406 5770 2327 3443
is_linear=0
shrinkage=0.1


Tree=54
num_leaves=7
num_cat=0
split_feature=25 17 32 21 36 31
split_gain=13.3159 15.6503 18.099 21.4648 21.2014 14.5311
threshold=-0.57076430053330418 -1.0066218538302694 -0.32300148501468084 0.63324417617604722 -1.0000000180025095e-35 -0.44176613448611718
decision_type=2 2 2 2 2 2
left_child=5 -2 -3 4 -4 -1
right_child=1 2 3 -5 -6 -7
leaf_value=-0.04325173265590667 0.030541721950047448 0.022251677087687959 -0.04609337306331919 0.017554808801633921 0.00046719176437660774 -0.001924779342073071
leaf_weight=129.44423601962626 205.66383818909526 249.83631250075996 200.07993726991117 191.04539419524372 191.30697783827782 248.25052607804537
leaf_count=1101 732 1222 1098 966 1290 1820
internal_value=0 0.00583987 -0.000264265 -0.00992256 -0.0233349 -0.0160884
internal_weight=0 1037.93 832.269 582.432 391.387 377.695
internal_count=8229 5308 4576 3354 2388 2921
is_linear=0
shrinkage=0.1


Tree=55
num_leaves=6
num_cat=0
split_feature=11 24 25 46 11
split_gain=12.914 18.1475 25.5616 29.7562 20.9922
threshold=0.70457912572767378 -0.97192728029621633 -0.54124219945967944 -0.35002864414863227 -1.0000000180025095e-35
decision_type=2 2 2 2 2
left_child=1 -1 3 -3 -4
right_child=-2 2 4 -5 -6
leaf_value=0.02481648620744693 0.024346988113660237 -0.0016738350092453695 0.015338513392036807 -0.062772939513735582 -0.019670610893364138
leaf_weight=188.08225164376199 188.66844154521823 157.96624322142452 434.15434151887894 160.89753225725144 282.86912458762527
leaf_count=1030 864 959 1882 1626 1868
internal_value=0 -0.00375974 -0.00894822 -0.0325042 0.00152725
internal_weight=0 1223.97 1035.89 318.864 717.023
internal_count=8229 7365 6335 2585 3750
is_linear=0
shrinkage=0.1


Tree=56
num_leaves=6
num_cat=0
split_feature=96 37 27 30 28
split_gain=12.6367 12.8595 23.4867 25.2667 29.2933
threshold=-0.66238295803765357 -0.14661838564099222 0.3233192052183107 -0.3742947688412735 0.25018260234968875
decision_type=2 2 2 2 2
left_child=-1 -2 3 -3 -5
right_child=1 2 -4 4 -6
leaf_value=-0.019849080015671861 0.022695780345060229 0.015974664113070528 0.022345060726468885 -0.056792827356604229 -0.0014068305983112961
leaf_weight=261.43099539540708 290.4647502694279 197.34630222432315 276.19939456414431 184.20842889044434 198.27878189831972
leaf_count=1893 1294 984 1805 1213 1040
internal_value=0 0.00451453 -0.00165464 -0.0130867 -0.0280811
internal_weight=0 1146.5 856.033 579.834 382.487
internal_count=8229 6336 5042 3237 2253
is_linear=0
shrinkage=0.1


Tree=57
num_leaves=6
num_cat=0
split_feature=3 3 13 31 12
split_gain=12.7876 14.526 20.317 18.1847 12.7348
threshold=-0.26199193330152265 -0.0046804076297095537 -0.19794551039607772 1.0000000180025095e-35 -0.11345742752202408
decision_type=2 2 2 2 2
left_child=-1 4 -3 -4 -2
right_child=1 2 3 -5 -6
leaf_value=-0.02139875977782113 0.029450930546369776 -0.035602414826362928 -0.014096675916732547 0.028481365207577061 0.00019742070951037183
leaf_weight=233.13990125991404 305.54383885674179 174.13441850058734 220.76081092096865 183.84038501977921 290.10127570480108
leaf_count=1426 1221 1240 1793 1054 1495
internal_value=0 0.00424074 -0.0070422 0.00524969 0.0152034
internal_weight=0 1174.38 578.736 404.601 595.645
internal_count=8229 6803 4087 2847 2716
is_linear=0
shrinkage=0.1


Tree=58
num_leaves=7
num_cat=0
split_feature=44 42 27 43 67 39
split_gain=12.4219 13.955 16.7654 17.6518 13.521 20.277
threshold=-0.61376157184473934 1.3007389581498263 -0.22323883724291249 -0.99344574832304211 1.0000000180025095e-35 -0.13572418452259799
decision_type=2 2 2 2 2 2
left_child=-1 2 3 -2 -4 -6
right_child=1 -3 4 -5 5 -7
leaf_value=0.025244700130481485 0.0031151815456994811 0.023103725433317443 0.015223021498961981 -0.035362359881856584 0.024302725816875346 -0.043979750943787831
leaf_weight=171.12811884749681 191.13434480689466 169.95084630511701 371.73163088411093 316.91082294285297 70.353361081331968 113.89454237837344
leaf_count=704 824 819 1275 1979 813 1815
internal_value=0 -0.00350509 -0.00775517 -0.0208865 0.00424405 -0.0179067
internal_weight=0 1233.98 1064.02 508.045 555.98 184.248
internal_count=8229 7525 6706 2803 3903 2628
is_linear=0
shrinkage=0.1


Tree=59
num_leaves=6
num_cat=0
split_feature=32 13 42 96 35
split_gain=12.3089 15.3076 17.8016 15.7503 11.6247
threshold=0.73716751199701702 -0.1720650940360707 -0.2767890955412648 -0.34328045757271491 1.0000000180025095e-35
decision_type=2 2 2 2 2
left_child=1 2 -1 -3 -5
right_child=-2 3 -4 4 -6
leaf_value=0.0051745650593760378 0.020291525556556014 -0.01735132630161668 -0.036639575657214478 0.025878204891958051 -0.0056002973086147108
leaf_weight=172.32732054777443 246.22172652184963 229.05535372253507 248.83103413134813 318.21206096187234 185.82102732080966
leaf_count=792 993 1769 1751 1772 1152
internal_value=0 -0.00433673 -0.0195303 0.00439195 0.0142731
internal_weight=0 1154.25 421.158 733.088 504.033
internal_count=8229 7236 2543 4693 2924
is_linear=0
shrinkage=0.1


Tree=60
num_leaves=6
num_cat=0
split_feature=42 23 96 27 20
split_gain=11.2729 17.2199 17.8124 16.263 15.7489
threshold=-0.90934313174013759 0.38341167324107933 -0.66238295803765357 0.3233192052183107 -0.24419305310520625
decision_type=2 2 2 2 2
left_child=-1 2 -2 4 -4
right_child=1 -3 3 -5 -6
leaf_value=0.021541628725870607 -0.037505297169961788 0.027081558311554305 0.0023494122172738399 0.017524077543048775 -0.030810827970944005
leaf_weight=206.88611337542534 175.08821498323232 157.27587180398405 331.94787088129669 275.33864930830896 251.91566715110093
leaf_count=683 1584 604 1871 1891 1596
internal_value=0 -0.00374654 -0.00843431 -0.00251023 -0.011958
internal_weight=0 1191.57 1034.29 859.202 583.864
internal_count=8229 7546 6942 5358 3467
is_linear=0
shrinkage=0.1


Tree=61
num_leaves=6
num_cat=0
split_feature=3 33 42 2 31
split_gain=10.4699 14.7825 17.2052 17.6911 10.9874
threshold=-0.2614084604541943 0.58813590009168082 0.83403750461285353 -0.011961231209554659 -1.0000000180025095e-35
decision_type=2 2 2 2 2
left_child=-1 2 3 -2 -5
right_child=1 -3 -4 4 -6
leaf_value=-0.01882460415435272 0.0032012015211265749 0.023199018695871532 0.021499559289057002 -0.052000189136502756 -0.011412592771070365
leaf_weight=243.90807874593884 368.2195414211601 297.05414727702737 218.65808816254139 126.4124433202669 141.19307688251138
leaf_count=1492 1842 1419 1149 1100 1227
internal_value=0 0.00398277 -0.0026976 -0.0110189 -0.0305855
internal_weight=0 1151.54 854.483 635.825 267.606
internal_count=8229 6737 5318 4169 2327
is_linear=0
shrinkage=0.1


Tree=62
num_leaves=7
num_cat=0
split_feature=96 11 67 6 17 30
split_gain=9.95645 16.8057 19.84 23.4039 12.0616 11.3959
threshold=0.93312954428704009 0.48562070733283497 1.0000000180025095e-35 -1.0000000180025095e-35 0.20790280864727478 0.14184114973679973
decision_type=2 2 2 2 2 2
left_child=1 2 5 -4 -5 -1
right_child=-2 -3 3 4 -6 -7
leaf_value=-0.013790430165810323 0.016348608570312416 0.019961445232462231 0.0026941004963100287 -0.03432127925109784 -0.093716640072593671 0.01294355245002294
leaf_weight=350.13079226762056 293.86114211753011 225.60399961844087 93.946030311286449 73.166001645848155 64.181553884409368 292.78157818689942
leaf_count=1386 1485 1111 953 1105 1177 1012
internal_value=0 -0.004372 -0.0106517 -0.0357681 -0.0620763 -0.0016158
internal_weight=0 1099.81 874.206 231.294 137.348 642.912
internal_count=8229 6744 5633 3235 2282 2398
is_linear=0
shrinkage=0.1


Tree=63
num_leaves=6
num_cat=0
split_feature=38 38 36 14 39
split_gain=9.86349 12.7532 17.8778 15.3851 20.6941
threshold=0.66559532573233504 -0.80910924647529303 -0.58984036829326358 -0.59607278439433697 0.4508553968189104
decision_type=2 2 2 2 2
left_child=1 -1 -3 -4 -5
right_child=-2 2 3 4 -6
leaf_value=0.02056611206177256 0.020442494227982191 0.01742081046856031 0.013955106465226838 -0.01216776457815974 -0.055697929027483266
leaf_weight=185.83380780182779 201.43656599894166 217.24429558031261 148.64821089804173 494.20194831956178 140.1908252844587
leaf_count=888 831 944 1027 3393 1146
internal_value=0 -0.00349107 -0.00796043 -0.0150021 -0.0217872
internal_weight=0 1186.12 1000.29 783.041 634.393
internal_count=8229 7398 6510 5566 4539
is_linear=0
shrinkage=0.1


Tree=64
num_leaves=8
num_cat=0
split_feature=44 27 19 46 20 5 40
split_gain=9.59243 13.0714 29.6303 14.2885 13.1911 11.7994 9.72996
threshold=-0.61376157184473934 0.066115420530676233 0.21403474288299171 -0.52081200907560621 -0.30245882916922018 0.23828703172463142 -0.33114844211590572
decision_type=2 2 2 2 2 2 2
left_child=-1 2 3 -2 5 -3 -5
right_child=1 4 -4 6 -6 -7 -8
leaf_value=0.022364633051290782 -0.0012340531911360878 0.015524271192718334 0.018010579211972487 -0.021714184622710853 0.02715542572909212 -0.027955851992174791 -0.055890634870297079
leaf_weight=168.27257315814495 168.00628465227783 125.45962821505964 233.55485836789012 187.1172642307356 228.23088401928544 124.20095671992749 150.14499949850142
leaf_count=704 828 1031 964 1148 1363 1029 1162
internal_value=0 -0.00310873 -0.0114448 -0.0250602 0.00977886 -0.00610619 -0.0369291
internal_weight=0 1216.71 738.823 505.269 477.891 249.661 337.262
internal_count=8229 7525 4102 3138 3423 2060 2310
is_linear=0
shrinkage=0.1


Tree=65
num_leaves=7
num_cat=0
split_feature=42 99 29 30 40 98
split_gain=9.62243 16.2346 17.3839 16.6812 20.1349 16.6628
threshold=-0.87462980048532146 0.46769612859582971 -0.94967364195406767 0.14184114973679973 -0.30152328466187323 0.84009324436900579
decision_type=2 2 2 2 2 2
left_child=-1 2 -2 4 -4 -3
right_child=1 5 3 -5 -6 -7
leaf_value=0.018622496920378217 0.033275342885896474 -0.044449695041665044 0.0036126499783693724 0.014655409651595001 -0.043260049926590036 0.00033572493005991572
leaf_weight=230.85858118161559 160.95050846971571 168.64195838198066 204.21823634766042 288.25812875945121 166.25268747098744 163.73470208141953
leaf_count=810 837 1190 1139 1738 1462 1053
internal_value=0 -0.00374567 0.00381356 -0.00338499 -0.017422 -0.0223876
internal_weight=0 1152.06 819.68 658.729 370.471 332.377
internal_count=8229 7419 5176 4339 2601 2243
is_linear=0
shrinkage=0.1


Tree=66
num_leaves=7
num_cat=0
split_feature=22 6 1 11 94 9
split_gain=9.30126 10.9569 13.5568 17.1448 14.9195 14.5188
threshold=1.3459414977147681 -0.38149950120567272 -0.18060125405258745 -1.0000000180025095e-35 1.0000000180025095e-35 -0.1329386305655437
decision_type=2 2 2 2 2 2
left_child=1 -1 -3 4 -4 -5
right_child=-2 2 3 5 -6 -7
leaf_value=0.01757114792873447 0.021385980038187868 -0.0349818954793958 -0.0065332606688958267 -0.039746617345998103 0.03048455267892148 -0.0013232113166574471
leaf_weight=210.37547068297863 177.10605301707983 152.50704727787524 227.66098460741341 169.23219927959144 208.67110622953624 234.76793474052101
leaf_count=983 714 933 1351 1316 1188 1744
internal_value=0 -0.00315956 -0.00755224 -0.00257419 0.0111701 -0.0174184
internal_weight=0 1203.21 992.839 840.332 436.332 404
internal_count=8229 7515 6532 5599 2539 3060
is_linear=0
shrinkage=0.1


Tree=67
num_leaves=6
num_cat=0
split_feature=5 16 2 47 2
split_gain=9.27328 21.5649 21.47 13.2218 10.7113
threshold=0.69162831171431038 0.19650981295310735 -0.0040502209776342108 0.054257358508589079 -0.26247655522036889
decision_type=2 2 2 2 2
left_child=1 2 4 -4 -1
right_child=-2 -3 3 -5 -6
leaf_value=0.012109579580394644 -0.015700062835119145 -0.021868771271389274 -0.023220236383010028 0.017566958775547762 0.041554358506201983
leaf_weight=282.23909373581409 295.78006169106811 244.27069402765483 208.0913707120344 128.59091321844608 219.72634599357843
leaf_count=1492 1960 1335 1901 729 812
internal_value=0 0.00427872 0.0118946 -0.00764216 0.0249985
internal_weight=0 1082.92 838.648 336.682 501.965
internal_count=8229 6269 4934 2630 2304
is_linear=0
shrinkage=0.1


Tree=68
num_leaves=7
num_cat=0
split_feature=43 44 6 67 98 12
split_gain=8.8553 13.9447 14.2305 16.566 22.3753 13.5358
threshold=-1.1504636549473564 0.42187352137640804 -1.0000000180025095e-35 1.0000000180025095e-35 -1.0000000180025095e-35 -0.085017377023954385
decision_type=2 2 2 2 2 2
left_child=-1 2 5 -4 -5 -2
right_child=1 -3 3 4 -6 -7
leaf_value=0.0205761357553228 0.031692789492266567 -0.028328050600416845 0.0029618807682906052 -0.0033631074477283606 -0.073413411994068714 -0.0034758629055111124
leaf_weight=181.51145688816905 231.04112632013857 185.51277843955904 383.25613796338439 106.34779060445726 79.824483782052994 207.93322356417775
leaf_count=715 983 1149 1410 1455 1359 1158
internal_value=0 -0.00313114 0.00150426 -0.00892595 -0.0333983 0.0150341
internal_weight=0 1193.92 1008.4 569.428 186.172 438.974
internal_count=8229 7514 6365 4224 2814 2141
is_linear=0
shrinkage=0.1


Tree=69
num_leaves=6
num_cat=0
split_feature=3 33 9 16 46
split_gain=8.99715 12.3711 15.2132 16.103 20.6679
threshold=-0.2614084604541943 0.58813590009168082 -0.45973367359501766 -0.47903507912699811 -0.30557083604359175
decision_type=2 2 2 2 2
left_child=-1 2 -2 -4 -5
right_child=1 -3 3 4 -6
leaf_value=-0.017509551218759582 -0.023496910039283836 0.021520076132123509 0.028997128385063554 0.013343186990798565 -0.033526130624134842
leaf_weight=241.90534668322653 243.14879137929529 290.60380832944065 203.59264151565731 231.57994318753481 158.46440485678613
leaf_count=1492 1777 1419 1026 1150 1365
internal_value=0 0.00374448 -0.00242873 0.00620062 -0.00569854
internal_weight=0 1127.39 836.786 593.637 390.044
internal_count=8229 6737 5318 3541 2515
is_linear=0
shrinkage=0.1


Tree=70
num_leaves=7
num_cat=0
split_feature=24 96 5 23 36 35
split_gain=8.98444 13.7312 18.5196 19.4895 17.043 12.1007
threshold=-0.97192728029621633 0.93312954428704009 0.69162831171431038 -0.1472375337658112 -0.048700206695744562 0.34142370713446829
decision_type=2 2 2 2 2 2
left_child=-1 2 3 5 -5 -2
right_child=1 -3 -4 4 -6 -7
leaf_value=0.019846605365072923 -0.0044789395412380964 0.016561407847996239 -0.038877487317288913 -0.042790792437352482 0.0031674703260071236 0.029929104649518409
leaf_weight=195.33274985477328 210.94359403569251 267.92101528868079 170.72250724583864 167.56133064441383 155.63838227465749 198.28416368179023
leaf_count=1093 1363 1360 1308 943 1152 1010
internal_value=0 -0.00331965 -0.00921741 -0.0023039 -0.0206594 0.0121929
internal_weight=0 1171.07 903.15 732.427 323.2 409.228
internal_count=8229 7136 5776 4468 2095 2373
is_linear=0
shrinkage=0.1


Tree=71
num_leaves=6
num_cat=0
split_feature=39 39 47 96 17
split_gain=8.39704 16.7124 14.0036 15.6407 13.8414
threshold=-0.85561730707808537 -0.37568855870776047 -0.34179766797317024 -0.34328045757271491 -0.22585599938041967
decision_type=2 2 2 2 2
left_child=-1 -2 -3 -4 -5
right_child=1 2 3 4 -6
leaf_value=0.020011696886982747 -0.025148548173502563 -0.021357954589341727 -0.015056425266832769 0.0020700828143296029 0.034002468915490129
leaf_weight=181.72867803648114 265.96859103161842 183.95340127963573 191.77256807032973 269.32335708010942 273.68201049044728
leaf_count=823 1636 1443 1457 1377 1493
internal_value=0 -0.00307387 0.00331665 0.00949399 0.0181644
internal_weight=0 1184.7 918.731 734.778 543.005
internal_count=8229 7406 5770 4327 2870
is_linear=0
shrinkage=0.1


Tree=72
num_leaves=6
num_cat=0
split_feature=43 44 30 33 2
split_gain=8.38085 13.0863 11.8685 16.4607 11.6646
threshold=-1.1897181316034349 0.42187352137640804 0.78701104795939136 -0.13890050413390029 -0.26247655522036889
decision_type=2 2 2 2 2
left_child=-1 2 3 -2 -5
right_child=1 -3 -4 4 -6
leaf_value=0.02099371396388823 -0.02484601606185944 -0.027264576573241623 0.023359724416773697 -0.013436851389103055 0.016708324523072689
leaf_weight=166.887272387743 255.23374885413796 186.52245544176549 200.32317151874304 200.8824211070314 355.56190303340554
leaf_count=656 1939 1162 1087 1163 2222
internal_value=0 -0.00292517 0.00156084 -0.00381916 0.00582559
internal_weight=0 1198.52 1012 811.678 556.444
internal_count=8229 7573 6411 5324 3385
is_linear=0
shrinkage=0.1


Tree=73
num_leaves=7
num_cat=0
split_feature=32 13 39 12 32 96
split_gain=7.99353 14.8365 15.9241 12.8644 15.8057 19.3898
threshold=0.73716751199701702 -0.1720650940360707 -0.22682177101881706 -0.02067830572847466 -0.32300148501468084 0.29492454335716262
decision_type=2 2 2 2 2 2
left_child=1 2 -1 -3 -5 -6
right_child=-2 3 -4 4 5 -7
leaf_value=-0.040876573631676877 0.016546909756618464 0.026652069077823026 -0.0011531230206470952 0.019262258120724466 -0.040912809646290849 0.0083704612105161731
leaf_weight=180.98946868721396 240.46876876242459 200.31144992727786 228.10115956887603 194.37296207714826 163.85371881723404 155.68193095363677
leaf_count=1194 993 964 1349 1240 1520 969
internal_value=0 -0.00354227 -0.0187275 0.00515554 -0.00322338 -0.0169014
internal_weight=0 1123.31 409.091 714.22 513.909 319.536
internal_count=8229 7236 2543 4693 3729 2489
is_linear=0
shrinkage=0.1


Tree=74
num_leaves=7
num_cat=0
split_feature=23 30 28 47 38 15
split_gain=8.03668 14.1429 16.0414 21.3236 11.3207 8.9424
threshold=0.32218291858643805 -0.3742947688412735 0.25018260234968875 -0.011751812571704155 -0.041454811627486952 -0.3677455557681491
decision_type=2 2 2 2 2 2
left_child=1 5 3 -3 -4 -1
right_child=-2 2 4 -5 -6 -7
leaf_value=0.028846207269994956 0.019767460474410279 -0.050323712662150022 0.020883224561940781 -0.0046206093382525001 -0.01355236741119584 -0.0017206669454629009
leaf_weight=182.27227324154228 178.71173633076251 178.00052238628268 197.54855306819081 239.368867225945 184.75078518129885 201.5294783571735
leaf_count=1103 707 1433 1052 1529 1230 1175
internal_value=0 -0.00298355 -0.0105569 -0.0241122 0.00424181 0.0127959
internal_weight=0 1183.47 799.669 417.369 382.299 383.802
internal_count=8229 7522 5244 2962 2282 2278
is_linear=0
shrinkage=0.1


Tree=75
num_leaves=6
num_cat=0
split_feature=25 17 15 13 23
split_gain=7.89241 10.9117 17.9608 21.7583 8.9605
threshold=-0.64948990339630386 -1.0066218538302694 -0.54304614709357157 -0.12433757295657724 -0.1472375337658112
decision_type=2 2 2 2 2
left_child=-1 -2 -3 -4 -5
right_child=1 2 3 4 -6
leaf_value=-0.019671651631330531 0.023017644014443658 0.020262255927958564 -0.032136763546073623 0.016944794463992795 -0.012506619033291361
leaf_weight=177.34272534120828 220.46940359566361 269.48176481481642 273.07701529469341 237.23593366518617 182.98627548851073
leaf_count=1670 860 1555 1677 1255 1212
internal_value=0 0.00294997 -0.00164537 -0.0101607 0.00412014
internal_weight=0 1183.25 962.781 693.299 420.222
internal_count=8229 6559 5699 4144 2467
is_linear=0
shrinkage=0.1


Tree=76
num_leaves=6
num_cat=0
split_feature=36 16 47 23 9
split_gain=7.94683 15.1148 15.1826 21.3556 21.6122
threshold=0.57478737079704945 0.055351178787115145 0.47671605342246592 -0.0094728357928682647 -0.29633615208028069
decision_type=2 2 2 2 2
left_child=1 2 3 4 -1
right_child=-2 -3 -4 -5 -6
leaf_value=-0.011244560106432534 0.017647891974801329 -0.022567518253567207 0.029904933072819537 -0.027438919589733091 0.03351455102993376
leaf_weight=228.0940929306671 214.87629986088723 300.52698518428952 173.60196122247726 236.60527755040675 204.68725143466145
leaf_count=1466 1260 1737 760 1847 1159
internal_value=0 -0.00331224 0.0035523 -0.00328212 0.0099246
internal_weight=0 1143.52 842.989 669.387 432.781
internal_count=8229 6969 5232 4472 2625
is_linear=0
shrinkage=0.1


Tree=77
num_leaves=6
num_cat=0
split_feature=22 72 96 35 30
split_gain=7.66266 11.0339 12.1814 20.0708 19.8919
threshold=1.3459414977147681 1.0000000180025095e-35 0.93312954428704009 0.65618545146694296 0.65797706831487301
decision_type=2 2 2 2 2
left_child=1 -1 3 4 -3
right_child=-2 2 -4 -5 -6
leaf_value=-0.026348588407082936 0.019584011714479321 -0.027411627270672506 0.021383584807141993 0.018891772470523586 0.015767380937084585
leaf_weight=171.29644134361297 174.2457872480154 391.36204010806978 228.98080263286829 244.93587777111679 146.67876545153558
leaf_count=947 714 3106 1209 1403 850
internal_value=0 -0.00287753 0.00109547 -0.00483777 -0.0156403
internal_weight=0 1183.25 1011.96 782.977 538.041
internal_count=8229 7515 6568 5359 3956
is_linear=0
shrinkage=0.1


Tree=78
num_leaves=7
num_cat=0
split_feature=39 39 39 27 39 11
split_gain=7.42399 12.5971 12.2823 11.5837 17.2353 9.03503
threshold=-0.85561730707808537 -0.37568855870776047 0.47751810506170622 0.3233192052183107 0.015364495519911715 1.0000000180025095e-35
decision_type=2 2 2 2 2 2
left_child=-1 -2 3 4 -3 -4
right_child=1 2 5 -5 -6 -7
leaf_value=0.018908805892260863 -0.02211409216988636 -0.019040621654804347 -0.030384271695261551 0.02937736637906074 0.023597616567733848 0.0037103092750065524
leaf_weight=180.17273272573948 264.25606830138713 206.64492944255471 156.49463980225846 218.84112008986995 175.16181792132556 154.41779511794448
leaf_count=823 1636 1276 1135 1503 915 941
internal_value=0 -0.00288998 0.00268297 0.0110343 0.00052056 -0.0134509
internal_weight=0 1175.82 911.56 600.648 381.807 310.912
internal_count=8229 7406 5770 3694 2191 2076
is_linear=0
shrinkage=0.1


Tree=79
num_leaves=7
num_cat=0
split_feature=23 30 16 47 37 22
split_gain=7.45445 12.3112 12.6287 20.2754 14.1689 8.31854
threshold=0.32218291858643805 -0.3742947688412735 0.19650981295310735 -0.064559149435938656 0.15242648846020532 0.073999324379481854
decision_type=2 2 2 2 2 2
left_child=1 5 3 4 -3 -1
right_child=-2 2 -4 -5 -6 -7
leaf_value=0.026840748081352783 0.019091836374650839 0.00032891862251016401 -0.032709794311344784 0.013803988374504146 -0.044748437845337226 -0.002654165213396802
leaf_weight=188.36809453181922 177.8281426820904 135.79157844278961 186.75538460817188 329.77521877642721 143.33248681947589 194.20475908461958
leaf_count=1160 707 1094 1160 1935 1055 1118
internal_value=0 -0.00287319 -0.0099613 -0.00298412 -0.0228187 0.0118683
internal_weight=0 1178.23 795.655 608.899 279.124 382.573
internal_count=8229 7522 5244 4084 2149 2278
is_linear=0
shrinkage=0.1


Tree=80
num_leaves=6
num_cat=0
split_feature=42 36 16 32 25
split_gain=7.28189 15.4323 21.9888 21.1554 19.2295
threshold=1.2814537741193732 0.44538428867590368 0.19650981295310735 -0.32300148501468084 -0.51063762134668833
decision_type=2 2 2 2 2
left_child=1 2 3 -1 -5
right_child=-2 -3 -4 4 -6
leaf_value=0.023405702508671532 0.018791720689856135 0.020128619321747782 -0.039065111719375489 -0.039703680801491045 0.0013742315592344644
leaf_weight=242.52006757119671 179.08995791524649 233.99941579066217 188.95377629389986 171.89511195896193 338.11961572151631
leaf_count=1324 886 1389 1183 1494 1953
internal_value=0 -0.00285437 -0.00856661 -0.000908744 -0.0124706
internal_weight=0 1175.49 941.489 752.535 510.015
internal_count=8229 7343 5954 4771 3447
is_linear=0
shrinkage=0.1


Tree=81
num_leaves=7
num_cat=0
split_feature=32 43 19 14 20 36
split_gain=7.38649 12.1479 18.3802 21.9289 17.4575 12.1149
threshold=0.73716751199701702 0.59636055624813988 -0.095317120969211008 0.048294261620032267 -0.28099249061932069 -1.0000000180025095e-35
decision_type=2 2 2 2 2 2
left_child=1 2 3 -1 -3 -4
right_child=-2 4 5 -5 -6 -7
leaf_value=-0.05007480234088079 0.01596977809646704 -0.010907077970922587 -0.012676877994367217 -0.0047344039929776696 0.035143069093951596 0.024722584405305517
leaf_weight=184.11555469734594 238.75649365410209 160.56582792289555 164.62928862404078 253.59799249097705 168.93802458699793 182.77610571030527
leaf_count=1271 993 1339 972 1205 960 1489
internal_value=0 -0.00341172 -0.0101749 -0.0238059 0.012703 0.00699964
internal_weight=0 1114.62 785.119 437.714 329.504 347.405
internal_count=8229 7236 4937 2476 2299 2461
is_linear=0
shrinkage=0.1


Tree=82
num_leaves=6
num_cat=0
split_feature=38 38 36 14 14
split_gain=7.22459 8.80477 14.4189 13.4477 14.1332
threshold=0.66559532573233504 -0.80910924647529303 -0.58984036829326358 -0.59607278439433697 0.30604108002578007
decision_type=2 2 2 2 2
left_child=1 -1 -3 -4 -5
right_child=-2 2 3 4 -6
leaf_value=0.017277987412350072 0.017749966543134758 0.016289296656242565 0.014254370900069802 -0.034001171021127284 -0.0037511500434379156
leaf_weight=180.68067494779825 196.23044570721686 212.49021300300956 144.98226236784831 323.96975760301575 295.17054672725499
leaf_count=888 831 944 1027 2920 1619
internal_value=0 -0.00300082 -0.00675256 -0.0131601 -0.0195797
internal_weight=0 1157.29 976.613 764.123 619.14
internal_count=8229 7398 6510 5566 4539
is_linear=0
shrinkage=0.1


Tree=83
num_leaves=6
num_cat=0
split_feature=42 96 39 39 13
split_gain=7.34186 13.3663 11.8142 9.76717 19.469
threshold=-0.87462980048532146 -0.66238295803765357 0.47751810506170622 0.050914773176972829 -0.10114603102358392
decision_type=2 2 2 2 2
left_child=-1 -2 3 4 -3
right_child=1 2 -4 -5 -6
leaf_value=0.016461449329996099 -0.027808604603306444 -0.020732297220843243 -0.019245340324686857 0.028201140343011799 0.017245935549917671
leaf_weight=225.79346133954823 185.74026330560446 235.00535384658724 211.57308966200799 174.85747760999948 317.13867797143757
leaf_count=810 1662 1478 1454 1001 1824
internal_value=0 -0.00329858 0.00155186 0.00760429 0.00108152
internal_weight=0 1124.31 938.575 727.002 552.144
internal_count=8229 7419 5757 4303 3302
is_linear=0
shrinkage=0.1


Tree=84
num_leaves=6
num_cat=0
split_feature=3 35 16 2 42
split_gain=7.19114 9.66815 14.7079 19.9222 10.5111
threshold=-0.2614084604541943 -0.82769134324329441 1.0000000180025095e-35 -0.0040502209776342108 0.18605532118961773
decision_type=2 2 2 2 2
left_child=-1 -2 3 -3 -5
right_child=1 2 -4 4 -6
leaf_value=-0.015749009142908575 0.020359134854033248 0.021796313763461736 -0.025492583511406704 -0.028354745807293854 0.0097486643715065501
leaf_weight=238.44671734282747 257.81188852060586 349.38625518325716 199.64172261580825 182.68454992305487 119.92191948322579
leaf_count=1492 1297 1615 1257 1507 1061
internal_value=0 0.00339258 -0.00174364 0.00552834 -0.0132545
internal_weight=0 1109.45 851.634 651.993 302.606
internal_count=8229 6737 5440 4183 2568
is_linear=0
shrinkage=0.1


Tree=85
num_leaves=7
num_cat=0
split_feature=43 96 6 20 22 46
split_gain=6.75131 9.16921 9.03898 18.3282 10.5869 6.24666
threshold=-1.1504636549473564 -0.66238295803765357 -1.0000000180025095e-35 -0.2119935452803568 -0.11149224256524738 -0.34514664350721819
decision_type=2 2 2 2 2 2
left_child=-1 -2 5 4 -4 -3
right_child=1 2 3 -5 -6 -7
leaf_value=0.018187485103813347 -0.021519524806046159 0.024178378675502751 -0.01217871601720864 -0.030487546239993609 0.024348007676263904 3.8887276580488495e-05
leaf_weight=177.36415968928486 212.88482951046899 216.21884838677943 145.97905153315514 207.47259347885847 173.84983377344906 212.60869987122715
leaf_count=715 1770 861 1205 1520 1011 1147
internal_value=0 -0.00275049 0.00142849 -0.00733977 0.00767617 0.0122102
internal_weight=0 1169.01 956.129 527.301 319.829 428.828
internal_count=8229 7514 5744 3736 2216 2008
is_linear=0
shrinkage=0.1


Tree=86
num_leaves=7
num_cat=0
split_feature=24 11 1 11 15 94
split_gain=6.61469 11.7481 16.3308 22.2073 15.4822 12.6585
threshold=-0.97192728029621633 0.70457912572767378 -0.18060125405258745 -1.0000000180025095e-35 -0.11575095573785422 1.0000000180025095e-35
decision_type=2 2 2 2 2 2
left_child=-1 2 -2 5 -5 -4
right_child=1 -3 3 4 -6 -7
leaf_value=0.017200311125693292 -0.034450648364823498 0.021456634239846083 -0.0028687475135999764 -0.0415572250235225 0.0016840110932331556 0.029878726151909542
leaf_weight=191.85410746186972 178.07689161691815 169.52502136398107 244.59312810841948 172.62625271966681 159.12708671763539 228.13815136998892
leaf_count=1093 1042 801 1392 1547 1109 1245
internal_value=0 -0.00285441 -0.00704888 -0.000983356 -0.0208164 0.012935
internal_weight=0 1152.09 982.562 804.485 331.753 472.731
internal_count=8229 7136 6335 5293 2656 2637
is_linear=0
shrinkage=0.1


Tree=87
num_leaves=6
num_cat=0
split_feature=47 39 23 16 24
split_gain=6.66477 14.2905 9.40701 8.98955 8.52717
threshold=-0.69824719180675354 -0.37568855870776047 -0.17274951487191162 -0.41853852162728716 -1.0000000180025095e-35
decision_type=2 2 2 2 2
left_child=-1 -2 3 -3 -4
right_child=1 2 4 -5 -6
leaf_value=0.018861055003835867 -0.020579241114594183 0.027611433102559438 -0.021533653177191053 0.0005514868524930395 0.0094164434494958
leaf_weight=164.54588618315756 322.08359185047448 229.15608532121405 205.13161419751123 264.43615304585546 157.26538743684068
leaf_count=902 1901 1201 1576 1685 964
internal_value=0 -0.00262414 0.00413184 0.0131144 -0.00810258
internal_weight=0 1178.07 855.989 493.592 362.397
internal_count=8229 7327 5426 2886 2540
is_linear=0
shrinkage=0.1


Tree=88
num_leaves=7
num_cat=0
split_feature=42 99 24 98 99 26
split_gain=6.61108 12.5596 12.7618 12.2793 11.7958 15.4622
threshold=-0.87462980048532146 0.46769612859582971 0.44010665532831733 0.84009324436900579 -1.0000000180025095e-35 -0.16173290325760611
decision_type=2 2 2 2 2 2
left_child=-1 2 4 -3 5 -2
right_child=1 3 -4 -5 -6 -7
leaf_value=0.015676993187519164 0.01282755232635807 -0.039046350844684441 0.02489420493195715 4.5672618564710418e-05 0.016501497993140515 -0.02839113389960712
leaf_weight=224.31376791931689 141.1781824156642 163.34741334756836 207.96137489005923 158.14446966582909 190.91874784277752 256.09884319920093
leaf_count=810 729 1190 988 1053 1185 2274
internal_value=0 -0.0031346 0.00360169 -0.0198167 -0.00392645 -0.0137435
internal_weight=0 1117.65 796.157 321.492 588.196 397.277
internal_count=8229 7419 5176 2243 4188 3003
is_linear=0
shrinkage=0.1


Tree=89
num_leaves=6
num_cat=0
split_feature=3 33 42 12 5
split_gain=6.28658 9.03556 12.7596 13.2808 15.7172
threshold=-0.2614084604541943 0.58813590009168082 0.83403750461285353 -0.14128680208915359 0.14647107628368375
decision_type=2 2 2 2 2
left_child=-1 2 3 -2 -5
right_child=1 -3 -4 4 -6
leaf_value=-0.014754828566951287 0.010015283255285459 0.018539833097493217 0.019026312420712337 -0.0035673039760937713 -0.044505468594371544
leaf_weight=237.2825326458551 220.96815988374874 284.45090409368277 210.98377709556371 223.56998594431207 161.54683917760849
leaf_count=1492 1244 1419 1149 1446 1479
internal_value=0 0.00318988 -0.00215399 -0.00952705 -0.0207398
internal_weight=0 1101.52 817.069 606.085 385.117
internal_count=8229 6737 5318 4169 2925
is_linear=0
shrinkage=0.1


Tree=90
num_leaves=6
num_cat=0
split_feature=31 30 30 46 33
split_gain=6.32304 14.6571 16.7682 11.8629 10.2769
threshold=-0.44176613448611718 -0.3742947688412735 0.78701104795939136 -0.25469175550043621 0.31549724850708788
decision_type=2 2 2 2 2
left_child=3 -2 4 -1 -3
right_child=1 2 -4 -5 -6
leaf_value=0.004157129576538277 0.023204514712700505 -0.029593763123440225 0.021763169070642879 -0.028658872899627937 0.0019584005110656125
leaf_weight=262.60571447387338 293.25705758947879 224.53604897484183 175.66882704291493 189.76123446738347 191.07479825476184
leaf_count=1356 1622 1736 935 1444 1136
internal_value=0 0.00492612 -0.00413942 -0.0096087 -0.0150878
internal_weight=0 884.537 591.28 452.367 415.611
internal_count=8229 5429 3807 2800 2872
is_linear=0
shrinkage=0.1


Tree=91
num_leaves=6
num_cat=0
split_feature=14 39 13 33 19
split_gain=6.06463 14.0406 11.5561 12.4138 8.34122
threshold=-0.81086179973246009 0.69081977100407299 -0.12870699390047452 0.31549724850708788 -0.12695537977227717
decision_type=2 2 2 2 2
left_child=-1 2 3 -2 -4
right_child=1 -3 4 -5 -6
leaf_value=0.017376647665336874 -0.027938366031987988 -0.028837641337776249 0.020365160483012002 0.0078826446335724006 -0.0037373509207280359
leaf_weight=174.74284801539034 209.62949596624821 173.54703243263066 359.13071275502443 179.65799043048173 239.23004546621814
leaf_count=1128 1414 1258 1593 871 1965
internal_value=0 -0.00260554 0.00200389 -0.0114068 0.0107288
internal_weight=0 1161.2 987.648 389.287 598.361
internal_count=8229 7101 5843 2285 3558
is_linear=0
shrinkage=0.1


Tree=92
num_leaves=6
num_cat=0
split_feature=43 43 6 14 36
split_gain=5.91796 8.56492 13.9785 14.7842 13.7884
threshold=-1.1504636549473564 -0.62052822009029585 -0.12474204137583968 -0.20945255678571545 -0.03693629013927658
decision_type=2 2 2 2 2
left_child=-1 -2 -3 -4 -5
right_child=1 2 3 4 -6
leaf_value=0.017099083943489701 -0.019044417681965426 0.016397559011281496 -0.037769212712843073 0.017945788085947989 -0.01959828101883326
leaf_weight=175.91623033024371 248.39792426489294 384.50090722739697 131.2084332392551 216.40997983561829 178.51073614228517
leaf_count=715 1356 1940 1261 1109 1848
internal_value=0 -0.00258511 0.00190459 -0.00868702 0.000975244
internal_weight=0 1159.03 910.63 526.129 394.921
internal_count=8229 7514 6158 4218 2957
is_linear=0
shrinkage=0.1


Tree=93
num_leaves=6
num_cat=0
split_feature=3 38 39 33 9
split_gain=5.74674 8.47138 10.3655 18.1611 20.4495
threshold=-0.2614084604541943 -0.54649062402735937 0.47751810506170622 0.58813590009168082 -0.30995261220650877
decision_type=2 2 2 2 2
left_child=-1 -2 3 4 -3
right_child=1 2 -4 -5 -6
leaf_value=-0.01412183801411596 0.019915962312355692 -0.034663279764124665 -0.023945220142547838 0.031027991367726909 0.0080191239045361972
leaf_weight=236.69080647733063 234.39474287256598 165.83884761668742 166.39102688524872 181.52760707680136 347.37134144920856
leaf_count=1492 1236 1311 1233 852 2105
internal_value=0 0.00306106 -0.00152676 0.0038425 -0.00577328
internal_weight=0 1095.52 861.129 694.738 513.21
internal_count=8229 6737 5501 4268 3416
is_linear=0
shrinkage=0.1


Tree=94
num_leaves=6
num_cat=0
split_feature=14 16 37 38 28
split_gain=5.89271 10.364 15.2914 13.8792 17.3225
threshold=-0.81086179973246009 0.055351178787115145 0.72559583048750342 0.16055951333246235 0.25018260234968875
decision_type=2 2 2 2 2
left_child=-1 2 3 4 -2
right_child=1 -3 -4 -5 -6
leaf_value=0.017151290608181675 -0.026662833208181635 -0.018075637043913125 0.027671326686714567 0.021369108855056509 0.012739337019283065
leaf_weight=174.26132642058656 312.92269636178389 314.14074703352526 196.03092027269304 159.63468739576638 173.40556409116834
leaf_count=1128 2576 1802 877 734 1112
internal_value=0 -0.00257491 0.00320828 -0.00421554 -0.0126136
internal_weight=0 1156.13 841.994 645.963 486.328
internal_count=8229 7101 5299 4422 3688
is_linear=0
shrinkage=0.1


Tree=95
num_leaves=7
num_cat=0
split_feature=44 44 27 19 17 22
split_gain=6.14529 10.4923 16.4114 13.6356 13.2756 9.61951
threshold=-0.61376157184473934 -1.0000000180025095e-35 -0.35184072958672968 -0.13398610395073668 0.077775166238966437 -0.11149224256524738
decision_type=2 2 2 2 2 2
left_child=-1 -2 3 -3 -4 -6
right_child=1 2 4 -5 5 -7
leaf_value=0.018316179244676847 -0.024098167486080273 -0.033582911949407483 0.034516473935498046 0.0026902284189980804 -0.018548068171927608 0.014597649208569508
leaf_weight=161.14142748434097 188.83704199176282 185.09039112925529 188.09870615368709 235.48643829440698 141.96340921288356 228.47371423989534
leaf_count=704 1385 1041 1214 1239 1218 1428
internal_value=0 -0.00251591 0.00164657 -0.0132731 0.0128811 0.00189515
internal_weight=0 1167.95 979.113 420.577 558.536 370.437
internal_count=8229 7525 6140 2280 3860 2646
is_linear=0
shrinkage=0.1


Tree=96
num_leaves=6
num_cat=0
split_feature=29 4 4 47 20
split_gain=5.82711 16.2431 12.2749 18.1862 14.0959
threshold=-0.85697476849081133 0.67952521766593932 0.015284187800018679 0.067459192724647801 -0.33465833699406983
decision_type=2 2 2 2 2
left_child=-1 2 4 -4 -2
right_child=1 -3 3 -5 -6
leaf_value=0.013101755071312683 0.0074607309426912259 -0.026706178633112466 -0.0015961650751439562 0.040676643737458641 -0.030328421630500531
leaf_weight=270.72760043339804 221.71181278582662 232.2094699642621 258.78855358948931 167.73071536235511 177.92465557157993
leaf_count=1476 1362 1671 1803 790 1127
internal_value=0 -0.00333894 0.00322895 0.0150278 -0.00936361
internal_weight=0 1058.37 826.156 426.519 399.636
internal_count=8229 6753 5082 2593 2489
is_linear=0
shrinkage=0.1


Tree=97
num_leaves=6
num_cat=0
split_feature=36 42 43 4 15
split_gain=5.86617 11.9965 14.6428 21.7915 11.7964
threshold=0.57478737079704945 1.0037471240808438 0.59636055624813988 0.400645395966507 -0.028100660075143027
decision_type=2 2 2 2 2
left_child=1 2 3 4 -1
right_child=-2 -3 -4 -5 -6
leaf_value=0.010556332496915554 0.015324689292130418 0.017261341844177595 0.011790319148678018 -0.045017315496946479 -0.022462336411178535
leaf_weight=241.05821635201573 210.51394374668598 233.9883497748524 258.97331943595782 187.44156426377594 196.319472218398
leaf_count=1416 1260 1264 1800 1337 1152
internal_value=0 -0.00287256 -0.0082031 -0.0164899 -0.00426429
internal_weight=0 1117.78 883.793 624.819 437.378
internal_count=8229 6969 5705 3905 2568
is_linear=0
shrinkage=0.1


Tree=98
num_leaves=7
num_cat=0
split_feature=43 44 6 94 39 2
split_gain=5.66325 8.27096 9.10111 15.7023 16.8804 9.16961
threshold=-1.1504636549473564 0.42187352137640804 -0.36045380777699793 1.0000000180025095e-35 0.11312775907682979 -0.029101753378715636
decision_type=2 2 2 2 2 2
left_child=-1 2 -2 4 -4 -5
right_child=1 -3 3 5 -6 -7
leaf_value=0.016784587500488536 0.020161123967971789 -0.022211165969122797 -0.033709633887697169 0.023967824638563531 0.0083720958823880597 -0.008014743314726791
leaf_weight=174.82254310976714 199.45003003813326 180.17298278072849 247.24743682378903 221.35797802079469 155.13098228583112 150.65718783671036
leaf_count=715 969 1149 1696 1154 1063 1483
internal_value=0 -0.00252906 0.00111237 -0.00379375 -0.0174857 0.0110157
internal_weight=0 1154.02 973.844 774.394 402.378 372.015
internal_count=8229 7514 6365 5396 2759 2637
is_linear=0
shrinkage=0.1


Tree=99
num_leaves=7
num_cat=0
split_feature=39 96 4 46 21 29
split_gain=5.60351 10.7054 16.9493 12.3334 10.9184 10.4701
threshold=-0.85561730707808537 1.0000000180025095e-35 0.46149190251911043 -0.24307569660354311 1.0000000180025095e-35 -1.0000000180025095e-35
decision_type=2 2 2 2 2 2
left_child=-1 2 -2 4 -3 -5
right_child=1 3 -4 5 -6 -7
leaf_value=0.016606579455045734 4.7226655309500455e-05 -0.0006106942842927141 -0.042240067319451929 -0.030512527662212838 0.030647092498546299 0.0070654510388487779
leaf_weight=176.44728800002486 256.61221760790795 222.40275613311678 150.29864951828495 144.27133270166814 224.60444940533489 152.53970713634044
leaf_count=823 1808 1189 1300 1090 949 1070
internal_value=0 -0.00253159 -0.0155722 0.00460238 0.0150952 -0.0112001
internal_weight=0 1150.73 406.911 743.818 447.007 296.811
internal_count=8229 7406 3108 4298 2138 2160
is_linear=0
shrinkage=0.1


Tree=100
num_leaves=6
num_cat=0
split_feature=42 32 99 36 20
split_gain=5.54698 10.3304 17.3085 14.3032 11.8295
threshold=-0.87462980048532146 -0.70851748392802583 0.46769612859582971 0.0042374178083609019 -0.33465833699406983
decision_type=2 2 2 2 2
left_child=-1 -2 3 4 -3
right_child=1 2 -4 -5 -6
leaf_value=0.014473679741088078 -0.026576152956707445 0.013692738289887572 -0.020310316773128223 0.028031350825069214 -0.020165862498435751
leaf_weight=220.9934570454061 157.72479286324233 224.33640270261094 270.41972800064832 259.84453405113891 191.07837912999094
leaf_count=810 1094 1557 1954 1558 1256
internal_value=0 -0.00288355 0.00106802 0.00962936 -0.00188121
internal_weight=0 1103.4 945.679 675.259 415.415
internal_count=8229 7419 6325 4371 2813
is_linear=0
shrinkage=0.1


Tree=101
num_leaves=6
num_cat=0
split_feature=22 72 15 17 4
split_gain=5.32974 7.59261 9.75524 12.4171 21.8224
threshold=1.3459414977147681 1.0000000180025095e-35 -0.54304614709357157 -0.91987009222473082 0.44120973366824262
decision_type=2 2 2 2 2
left_child=1 -1 -3 -4 -5
right_child=-2 2 3 4 -6
leaf_value=-0.022009826778866332 0.016575479798984768 0.017013405785959168 0.018548792916295697 0.0010594107549104666 -0.041998118472737697
leaf_weight=168.87597072403878 169.41373362578452 272.96123399585485 167.9708113828674 372.32873905310407 172.12236728146672
leaf_count=947 714 1912 758 2502 1396
internal_value=0 -0.00241856 0.000939015 -0.00521982 -0.0125528
internal_weight=0 1154.26 985.383 712.422 544.451
internal_count=8229 7515 6568 4656 3898
is_linear=0
shrinkage=0.1


Tree=102
num_leaves=6
num_cat=0
split_feature=25 30 23 22 98
split_gain=5.30973 8.58764 14.7142 13.7835 8.57926
threshold=-0.64948990339630386 0.14184114973679973 -0.1472375337658112 0.073999324379481854 -1.0000000180025095e-35
decision_type=2 2 2 2 2
left_child=-1 2 3 -2 -3
right_child=1 4 -4 -5 -6
leaf_value=-0.016399651762659759 0.026055141429640535 0.024619297842805449 -0.023294999567740012 -0.012686913240068874 -0.0011426219026733865
leaf_weight=171.5664175003767 192.70435893628746 264.27169269602746 265.42440924327821 175.43513506697491 253.04643958620727
leaf_count=1670 1018 1281 1778 1078 1404
internal_value=0 0.00245828 -0.00534729 0.0075928 0.0120178
internal_weight=0 1150.88 633.564 368.139 517.318
internal_count=8229 6559 3874 2096 2685
is_linear=0
shrinkage=0.1


Tree=103
num_leaves=6
num_cat=0
split_feature=3 38 36 25 96
split_gain=5.40991 7.30227 9.17957 13.1993 14.1512
threshold=-0.26199193330152265 -0.54649062402735937 -0.61336820140619908 -0.14761418514468175 1.0000000180025095e-35
decision_type=2 2 2 2 2
left_child=-1 -2 -3 4 -4
right_child=1 2 3 -5 -6
leaf_value=-0.014168437210340314 0.018479209713943966 0.01749668425483818 -0.040432386289484659 0.013987635610264948 -0.0035532245991797399
leaf_weight=223.50222587585449 236.13858010526747 198.45088617410511 160.32814075658098 206.09603063669056 296.40070163039491
leaf_count=1426 1253 851 1505 1258 1936
internal_value=0 0.0029005 -0.00137076 -0.0070197 -0.0164991
internal_weight=0 1097.41 861.276 662.825 456.729
internal_count=8229 6803 5550 4699 3441
is_linear=0
shrinkage=0.1


Tree=104
num_leaves=6
num_cat=0
split_feature=36 42 29 21 37
split_gain=5.23977 13.5175 13.9719 22.6749 10.919
threshold=0.44538428867590368 1.0037471240808438 -1.0000000180025095e-35 0.039316100872598174 0.37359509326422052
decision_type=2 2 2 2 2
left_child=1 2 3 -1 -4
right_child=-2 -3 4 -5 -6
leaf_value=-0.0494818501099007 0.012881710213384657 0.01846302993897064 -0.014397879189312901 0.00092030696677830441 0.015986192320341291
leaf_weight=176.14040420856327 255.10159202152863 228.66550863720477 216.34644161257893 180.95674752537161 260.91489491472021
leaf_count=1302 1560 1228 1709 1077 1353
internal_value=0 -0.00307731 -0.00898069 -0.0239409 0.00221285
internal_weight=0 1063.02 834.358 357.097 477.261
internal_count=8229 6669 5441 2379 3062
is_linear=0
shrinkage=0.1


Tree=105
num_leaves=7
num_cat=0
split_feature=47 39 96 36 2 21
split_gain=5.09639 12.2049 7.57936 23.9159 9.06665 6.81482
threshold=-0.69824719180675354 -0.37568855870776047 1.0000000180025095e-35 -0.22515895504276165 -0.27961707738952984 1.0000000180025095e-35
decision_type=2 2 2 2 2 2
left_child=-1 -2 3 -3 -4 -6
right_child=1 2 4 -5 5 -7
leaf_value=0.016640778137791194 -0.019059336233099852 0.023720238736041534 0.029053792528692848 -0.033319962922781318 -0.013069388489563731 0.014689014539593785
leaf_weight=161.67411887599155 316.21697233710438 129.094091756735 184.5354024246335 170.70642520999536 165.86491439212114 189.47767366841435
leaf_count=902 1901 653 858 1701 1129 1085
internal_value=0 -0.00231486 0.00399099 -0.00875845 0.0110709 0.0017321
internal_weight=0 1155.9 839.679 299.801 539.878 355.343
internal_count=8229 7327 5426 2354 3072 2214
is_linear=0
shrinkage=0.1


Tree=106
num_leaves=6
num_cat=0
split_feature=42 23 24 1 35
split_gain=5.23767 9.09468 10.2629 16.1187 21.3781
threshold=-0.90162905812795624 0.32218291858643805 -0.97192728029621633 -0.18060125405258745 -0.99856200445235255
decision_type=2 2 2 2 2
left_child=-1 2 -2 -4 -5
right_child=1 -3 3 4 -6
leaf_value=0.015015196468694725 0.017652582309910011 0.019604172284985115 -0.042008562406800537 0.026172693095908091 -0.014791577087677164
leaf_weight=197.70253539830446 150.81418242398649 157.83391138259321 137.11231371853501 170.76585305668414 501.62931262515485
leaf_count=694 945 647 918 947 4078
internal_value=0 -0.00264177 -0.00629801 -0.0107601 -0.00438802
internal_weight=0 1118.16 960.322 809.507 672.395
internal_count=8229 7535 6888 5943 5025
is_linear=0
shrinkage=0.1


Tree=107
num_leaves=6
num_cat=0
split_feature=31 30 19 30 5
split_gain=5.1515 13.7113 12.5776 15.702 9.39239
threshold=-0.44176613448611718 -0.3742947688412735 -0.48903767496292433 0.48593176212218198 0.23828703172463142
decision_type=2 2 2 2 2
left_child=4 -2 -3 -4 -1
right_child=1 2 3 -5 -6
leaf_value=0.0053158122359263371 0.022301645238080928 -0.02815162751442099 -0.012995135954997489 0.025833722907538954 -0.023779961089320085
leaf_weight=229.53244987642393 288.63327358383685 160.76609522663057 227.984136053361 191.73406080203131 214.74844243051484
leaf_count=1271 1622 930 1773 1104 1529
internal_value=0 0.00448925 -0.00436757 0.00474251 -0.00874798
internal_weight=0 869.118 580.484 419.718 444.281
internal_count=8229 5429 3807 2877 2800
is_linear=0
shrinkage=0.1


Tree=108
num_leaves=6
num_cat=0
split_feature=3 33 47 4 4
split_gain=4.85342 6.09328 14.366 9.27513 14.8765
threshold=-0.26199193330152265 -0.13890050413390029 0.054257358508589079 0.015284187800018679 0.44120973366824262
decision_type=2 2 2 2 2
left_child=-1 2 -2 -3 -5
right_child=1 3 -4 4 -6
leaf_value=-0.013444881719933272 -0.025164063759999175 -0.0068071179525362631 0.013225367928793348 0.039480532278442317 0.0020954778066813794
leaf_weight=222.578522965312 208.62038116855547 255.72676220070571 182.97731692809612 177.8949156771414 264.99383920198306
leaf_count=1426 1672 1629 978 862 1662
internal_value=0 0.0027592 -0.00722628 0.0083564 0.0171119
internal_weight=0 1090.21 391.598 698.616 442.889
internal_count=8229 6803 2650 4153 2524
is_linear=0
shrinkage=0.1


Tree=109
num_leaves=6
num_cat=0
split_feature=39 34 39 67 12
split_gain=4.96805 9.2184 11.2432 9.91328 16.5892
threshold=-0.85561730707808537 -1.0000000180025095e-35 -0.37568855870776047 1.0000000180025095e-35 -0.11563841298966746
decision_type=2 2 2 2 2
left_child=-1 -2 -3 -4 -5
right_child=1 2 3 4 -6
leaf_value=0.015705482074991922 -0.025044056347050894 -0.019058357029378675 0.013906927438182858 0.024326699053408746 -0.033122282167740706
leaf_weight=174.83687542565167 155.24894035840407 214.52364248875529 553.27100548520684 80.730342181865126 133.19315553409979
leaf_count=823 1053 1398 1941 856 2158
internal_value=0 -0.00240112 0.00117964 0.00683861 -0.0114422
internal_weight=0 1136.97 981.718 767.195 213.923
internal_count=8229 7406 6353 4955 3014
is_linear=0
shrinkage=0.1


Tree=110
num_leaves=6
num_cat=0
split_feature=14 39 38 27 36
split_gain=4.84901 11.7603 8.64819 12.0703 20.2358
threshold=-0.81086179973246009 0.47751810506170622 0.16055951333246235 0.3233192052183107 0.0042374178083609019
decision_type=2 2 2 2 2
left_child=-1 2 3 4 -2
right_child=1 -3 -4 -5 -6
leaf_value=0.015655481066924409 -0.030672921025989071 -0.022122698570802613 0.019160845409135992 0.015848049485572165 0.013209484196521832
leaf_weight=172.01123206363991 257.21680744970217 238.02898068726063 239.26980251073837 223.52039134688675 177.67148572392762
leaf_count=1128 1656 1692 1064 1616 1073
internal_value=0 -0.00236109 0.00287891 -0.00303805 -0.012745
internal_weight=0 1135.71 897.678 658.409 434.888
internal_count=8229 7101 5409 4345 2729
is_linear=0
shrinkage=0.1


Tree=111
num_leaves=7
num_cat=0
split_feature=18 35 29 37 39 43
